digraph Tree {
0 [label="X[5] <= 10.4812\ngini = 0.473012957861\nsamples = 891", shape="box"] ;
1 [label="X[8] <= 0.5000\ngini = 0.317157003507\nsamples = 339", shape="box"] ;
0 -> 1 ;
2 [label="X[4] <= 1.5000\ngini = 0.270704832256\nsamples = 285", shape="box"] ;
1 -> 2 ;
3 [label="X[1] <= 0.5000\ngini = 0.266688157112\nsamples = 284", shape="box"] ;
2 -> 3 ;
4 [label="X[7] <= 0.5000\ngini = 0.497041420118\nsamples = 39", shape="box"] ;
3 -> 4 ;
5 [label="X[5] <= 7.7000\ngini = 0.48\nsamples = 35", shape="box"] ;
4 -> 5 ;
6 [label="X[2] <= 24.0000\ngini = 0.32\nsamples = 5", shape="box"] ;
5 -> 6 ;
7 [label="gini = 0.0000\nsamples = 4\nvalue = [ 0.  4.]", shape="box"] ;
6 -> 7 ;
8 [label="gini = 0.0000\nsamples = 1\nvalue = [ 1.  0.]", shape="box"] ;
6 -> 8 ;
9 [label="X[2] <= 54.0000\ngini = 0.444444444444\nsamples = 30", shape="box"] ;
5 -> 9 ;
10 [label="gini = 0.4281\nsamples = 29\nvalue = [ 20.   9.]", shape="box"] ;
9 -> 10 ;
11 [label="gini = 0.0000\nsamples = 1\nvalue = [ 0.  1.]", shape="box"] ;
9 -> 11 ;
12 [label="gini = 0.0000\nsamples = 4\nvalue = [ 0.  4.]", shape="box"] ;
4 -> 12 ;
13 [label="X[2] <= 7.7100\ngini = 0.196118284048\nsamples = 245", shape="box"] ;
3 -> 13 ;
14 [label="gini = 0.0000\nsamples = 1\nvalue = [ 0.  1.]", shape="box"] ;
13 -> 14 ;
15 [label="X[4] <= 0.5000\ngini = 0.190405804891\nsamples = 244", shape="box"] ;
13 -> 15 ;
16 [label="X[5] <= 7.9104\ngini = 0.193194444444\nsamples = 240", shape="box"] ;
15 -> 16 ;
17 [label="gini = 0.1472\nsamples = 150\nvalue = [ 138.   12.]", shape="box"] ;
16 -> 17 ;
18 [label="gini = 0.2627\nsamples = 90\nvalue = [ 76.  14.]", shape="box"] ;
16 -> 18 ;
19 [label="gini = 0.0000\nsamples = 4\nvalue = [ 4.  0.]", shape="box"] ;
15 -> 19 ;
20 [label="gini = 0.0000\nsamples = 1\nvalue = [ 0.  1.]", shape="box"] ;
2 -> 20 ;
21 [label="X[5] <= 7.7312\ngini = 0.475308641975\nsamples = 54", shape="box"] ;
1 -> 21 ;
22 [label="gini = 0.0000\nsamples = 7\nvalue = [ 7.  0.]", shape="box"] ;
21 -> 22 ;
23 [label="X[1] <= 0.5000\ngini = 0.494341330919\nsamples = 47", shape="box"] ;
21 -> 23 ;
24 [label="X[5] <= 8.0833\ngini = 0.329861111111\nsamples = 24", shape="box"] ;
23 -> 24 ;
25 [label="X[5] <= 7.7688\ngini = 0.287334593573\nsamples = 23", shape="box"] ;
24 -> 25 ;
26 [label="X[4] <= 1.0000\ngini = 0.375\nsamples = 16", shape="box"] ;
25 -> 26 ;
27 [label="gini = 0.3200\nsamples = 15\nvalue = [  3.  12.]", shape="box"] ;
26 -> 27 ;
28 [label="gini = 0.0000\nsamples = 1\nvalue = [ 1.  0.]", shape="box"] ;
26 -> 28 ;
29 [label="gini = 0.0000\nsamples = 7\nvalue = [ 0.  7.]", shape="box"] ;
25 -> 29 ;
30 [label="gini = 0.0000\nsamples = 1\nvalue = [ 1.  0.]", shape="box"] ;
24 -> 30 ;
31 [label="X[3] <= 0.5000\ngini = 0.158790170132\nsamples = 23", shape="box"] ;
23 -> 31 ;
32 [label="X[5] <= 7.7459\ngini = 0.165289256198\nsamples = 22", shape="box"] ;
31 -> 32 ;
33 [label="gini = 0.0000\nsamples = 4\nvalue = [ 4.  0.]", shape="box"] ;
32 -> 33 ;
34 [label="X[5] <= 7.7896\ngini = 0.197530864198\nsamples = 18", shape="box"] ;
32 -> 34 ;
35 [label="gini = 0.2188\nsamples = 16\nvalue = [ 14.   2.]", shape="box"] ;
34 -> 35 ;
36 [label="gini = 0.0000\nsamples = 2\nvalue = [ 2.  0.]", shape="box"] ;
34 -> 36 ;
37 [label="gini = 0.0000\nsamples = 1\nvalue = [ 1.  0.]", shape="box"] ;
31 -> 37 ;
38 [label="X[1] <= 0.5000\ngini = 0.499993436253\nsamples = 552", shape="box"] ;
0 -> 38 ;
39 [label="X[0] <= 2.5000\ngini = 0.336075702393\nsamples = 248", shape="box"] ;
38 -> 39 ;
40 [label="X[2] <= 2.5000\ngini = 0.100276816609\nsamples = 170", shape="box"] ;
39 -> 40 ;
41 [label="X[4] <= 1.5000\ngini = 0.5\nsamples = 2", shape="box"] ;
40 -> 41 ;
42 [label="gini = 0.0000\nsamples = 1\nvalue = [ 0.  1.]", shape="box"] ;
41 -> 42 ;
43 [label="gini = 0.0000\nsamples = 1\nvalue = [ 1.  0.]", shape="box"] ;
41 -> 43 ;
44 [label="X[0] <= 1.5000\ngini = 0.0907029478458\nsamples = 168", shape="box"] ;
40 -> 44 ;
45 [label="X[4] <= 1.5000\ngini = 0.0420857902648\nsamples = 93", shape="box"] ;
44 -> 45 ;
46 [label="X[2] <= 49.5000\ngini = 0.0243865264441\nsamples = 81", shape="box"] ;
45 -> 46 ;
47 [label="gini = 0.0000\nsamples = 66\nvalue = [  0.  66.]", shape="box"] ;
46 -> 47 ;
48 [label="gini = 0.1244\nsamples = 15\nvalue = [  1.  14.]", shape="box"] ;
46 -> 48 ;
49 [label="X[3] <= 0.5000\ngini = 0.152777777778\nsamples = 12", shape="box"] ;
45 -> 49 ;
50 [label="gini = 0.0000\nsamples = 5\nvalue = [ 0.  5.]", shape="box"] ;
49 -> 50 ;
51 [label="gini = 0.2449\nsamples = 7\nvalue = [ 1.  6.]", shape="box"] ;
49 -> 51 ;
52 [label="X[2] <= 56.0000\ngini = 0.1472\nsamples = 75", shape="box"] ;
44 -> 52 ;
53 [label="X[2] <= 23.5000\ngini = 0.126004382761\nsamples = 74", shape="box"] ;
52 -> 53 ;
54 [label="gini = 0.0000\nsamples = 19\nvalue = [  0.  19.]", shape="box"] ;
53 -> 54 ;
55 [label="gini = 0.1653\nsamples = 55\nvalue = [  5.  50.]", shape="box"] ;
53 -> 55 ;
56 [label="gini = 0.0000\nsamples = 1\nvalue = [ 1.  0.]", shape="box"] ;
52 -> 56 ;
57 [label="X[5] <= 23.3500\ngini = 0.491781722551\nsamples = 78", shape="box"] ;
39 -> 57 ;
58 [label="X[2] <= 6.5000\ngini = 0.476739715494\nsamples = 51", shape="box"] ;
57 -> 58 ;
59 [label="X[3] <= 2.5000\ngini = 0.165289256198\nsamples = 11", shape="box"] ;
58 -> 59 ;
60 [label="gini = 0.0000\nsamples = 10\nvalue = [  0.  10.]", shape="box"] ;
59 -> 60 ;
61 [label="gini = 0.0000\nsamples = 1\nvalue = [ 1.  0.]", shape="box"] ;
59 -> 61 ;
62 [label="X[4] <= 3.5000\ngini = 0.49875\nsamples = 40", shape="box"] ;
58 -> 62 ;
63 [label="X[8] <= 0.5000\ngini = 0.497041420118\nsamples = 39", shape="box"] ;
62 -> 63 ;
64 [label="gini = 0.5000\nsamples = 34\nvalue = [ 17.  17.]", shape="box"] ;
63 -> 64 ;
65 [label="gini = 0.3200\nsamples = 5\nvalue = [ 1.  4.]", shape="box"] ;
63 -> 65 ;
66 [label="gini = 0.0000\nsamples = 1\nvalue = [ 1.  0.]", shape="box"] ;
62 -> 66 ;
67 [label="X[4] <= 0.5000\ngini = 0.197530864198\nsamples = 27", shape="box"] ;
57 -> 67 ;
68 [label="gini = 0.0000\nsamples = 1\nvalue = [ 0.  1.]", shape="box"] ;
67 -> 68 ;
69 [label="X[3] <= 4.5000\ngini = 0.14201183432\nsamples = 26", shape="box"] ;
67 -> 69 ;
70 [label="X[2] <= 5.5000\ngini = 0.165289256198\nsamples = 22", shape="box"] ;
69 -> 70 ;
71 [label="gini = 0.4444\nsamples = 3\nvalue = [ 2.  1.]", shape="box"] ;
70 -> 71 ;
72 [label="gini = 0.0997\nsamples = 19\nvalue = [ 18.   1.]", shape="box"] ;
70 -> 72 ;
73 [label="gini = 0.0000\nsamples = 4\nvalue = [ 4.  0.]", shape="box"] ;
69 -> 73 ;
74 [label="X[5] <= 26.2687\ngini = 0.387811634349\nsamples = 304", shape="box"] ;
38 -> 74 ;
75 [label="X[4] <= 0.5000\ngini = 0.290121007737\nsamples = 142", shape="box"] ;
74 -> 75 ;
76 [label="X[2] <= 14.0000\ngini = 0.177136479592\nsamples = 112", shape="box"] ;
75 -> 76 ;
77 [label="X[3] <= 0.5000\ngini = 0.5\nsamples = 2", shape="box"] ;
76 -> 77 ;
78 [label="gini = 0.0000\nsamples = 1\nvalue = [ 1.  0.]", shape="box"] ;
77 -> 78 ;
79 [label="gini = 0.0000\nsamples = 1\nvalue = [ 0.  1.]", shape="box"] ;
77 -> 79 ;
80 [label="X[7] <= 0.5000\ngini = 0.165289256198\nsamples = 110", shape="box"] ;
76 -> 80 ;
81 [label="X[5] <= 13.2500\ngini = 0.1472\nsamples = 100", shape="box"] ;
80 -> 81 ;
82 [label="gini = 0.2112\nsamples = 50\nvalue = [ 44.   6.]", shape="box"] ;
81 -> 82 ;
83 [label="gini = 0.0768\nsamples = 50\nvalue = [ 48.   2.]", shape="box"] ;
81 -> 83 ;
84 [label="X[3] <= 0.5000\ngini = 0.32\nsamples = 10", shape="box"] ;
80 -> 84 ;
85 [label="gini = 0.4444\nsamples = 6\nvalue = [ 4.  2.]", shape="box"] ;
84 -> 85 ;
86 [label="gini = 0.0000\nsamples = 4\nvalue = [ 4.  0.]", shape="box"] ;
84 -> 86 ;
87 [label="X[5] <= 19.4813\ngini = 0.497777777778\nsamples = 30", shape="box"] ;
75 -> 87 ;
88 [label="X[2] <= 29.5000\ngini = 0.444444444444\nsamples = 15", shape="box"] ;
87 -> 88 ;
89 [label="X[3] <= 1.5000\ngini = 0.165289256198\nsamples = 11", shape="box"] ;
88 -> 89 ;
90 [label="gini = 0.0000\nsamples = 10\nvalue = [  0.  10.]", shape="box"] ;
89 -> 90 ;
91 [label="gini = 0.0000\nsamples = 1\nvalue = [ 1.  0.]", shape="box"] ;
89 -> 91 ;
92 [label="gini = 0.0000\nsamples = 4\nvalue = [ 4.  0.]", shape="box"] ;
88 -> 92 ;
93 [label="X[2] <= 12.5000\ngini = 0.391111111111\nsamples = 15", shape="box"] ;
87 -> 93 ;
94 [label="X[5] <= 20.8250\ngini = 0.32\nsamples = 5", shape="box"] ;
93 -> 94 ;
95 [label="gini = 0.0000\nsamples = 2\nvalue = [ 0.  2.]", shape="box"] ;
94 -> 95 ;
96 [label="gini = 0.4444\nsamples = 3\nvalue = [ 1.  2.]", shape="box"] ;
94 -> 96 ;
97 [label="gini = 0.0000\nsamples = 10\nvalue = [ 10.   0.]", shape="box"] ;
93 -> 97 ;
98 [label="X[3] <= 2.5000\ngini = 0.448483462887\nsamples = 162", shape="box"] ;
74 -> 98 ;
99 [label="X[2] <= 13.5000\ngini = 0.475130686817\nsamples = 139", shape="box"] ;
98 -> 99 ;
100 [label="gini = 0.0000\nsamples = 7\nvalue = [ 0.  7.]", shape="box"] ;
99 -> 100 ;
101 [label="X[5] <= 26.4688\ngini = 0.458562901745\nsamples = 132", shape="box"] ;
99 -> 101 ;
102 [label="gini = 0.0000\nsamples = 4\nvalue = [ 0.  4.]", shape="box"] ;
101 -> 102 ;
103 [label="X[2] <= 53.0000\ngini = 0.446166992188\nsamples = 128", shape="box"] ;
101 -> 103 ;
104 [label="gini = 0.4699\nsamples = 106\nvalue = [ 66.  40.]", shape="box"] ;
103 -> 104 ;
105 [label="gini = 0.2355\nsamples = 22\nvalue = [ 19.   3.]", shape="box"] ;
103 -> 105 ;
106 [label="X[2] <= 3.5000\ngini = 0.0831758034026\nsamples = 23", shape="box"] ;
98 -> 106 ;
107 [label="X[2] <= 2.5000\ngini = 0.32\nsamples = 5", shape="box"] ;
106 -> 107 ;
108 [label="gini = 0.0000\nsamples = 4\nvalue = [ 4.  0.]", shape="box"] ;
107 -> 108 ;
109 [label="gini = 0.0000\nsamples = 1\nvalue = [ 0.  1.]", shape="box"] ;
107 -> 109 ;
110 [label="gini = 0.0000\nsamples = 18\nvalue = [ 18.   0.]", shape="box"] ;
106 -> 110 ;
}