digraph Tree {
0 [label="X[1] <= 0.5000\ngini = 0.4833222776\nsamples = 668", shape="box"] ;
1 [label="X[0] <= 2.5000\ngini = 0.38281053162\nsamples = 252", shape="box"] ;
0 -> 1 ;
2 [label="X[2] <= 2.5000\ngini = 0.121928166352\nsamples = 138", shape="box"] ;
1 -> 2 ;
3 [label="X[4] <= 1.5000\ngini = 0.5\nsamples = 2", shape="box"] ;
2 -> 3 ;
4 [label="gini = 0.0000\nsamples = 1\nvalue = [ 0.  1.]", shape="box"] ;
3 -> 4 ;
5 [label="gini = 0.0000\nsamples = 1\nvalue = [ 1.  0.]", shape="box"] ;
3 -> 5 ;
6 [label="X[5] <= 29.3563\ngini = 0.110726643599\nsamples = 136", shape="box"] ;
2 -> 6 ;
7 [label="X[5] <= 28.2313\ngini = 0.222148760331\nsamples = 55", shape="box"] ;
6 -> 7 ;
8 [label="X[2] <= 55.5000\ngini = 0.197530864198\nsamples = 54", shape="box"] ;
7 -> 8 ;
9 [label="X[3] <= 0.5000\ngini = 0.173816568047\nsamples = 52", shape="box"] ;
8 -> 9 ;
10 [label="X[5] <= 13.2500\ngini = 0.104938271605\nsamples = 36", shape="box"] ;
9 -> 10 ;
11 [label="X[5] <= 12.8250\ngini = 0.172335600907\nsamples = 21", shape="box"] ;
10 -> 11 ;
12 [label="gini = 0.0000\nsamples = 9\nvalue = [ 0.  9.]", shape="box"] ;
11 -> 12 ;
13 [label="X[2] <= 26.0000\ngini = 0.277777777778\nsamples = 12", shape="box"] ;
11 -> 13 ;
14 [label="X[4] <= 1.0000\ngini = 0.444444444444\nsamples = 3", shape="box"] ;
13 -> 14 ;
15 [label="gini = 0.5000\nsamples = 2\nvalue = [ 1.  1.]", shape="box"] ;
14 -> 15 ;
16 [label="gini = 0.0000\nsamples = 1\nvalue = [ 0.  1.]", shape="box"] ;
14 -> 16 ;
17 [label="X[2] <= 37.0000\ngini = 0.197530864198\nsamples = 9", shape="box"] ;
13 -> 17 ;
18 [label="gini = 0.0000\nsamples = 6\nvalue = [ 0.  6.]", shape="box"] ;
17 -> 18 ;
19 [label="X[2] <= 39.0000\ngini = 0.444444444444\nsamples = 3", shape="box"] ;
17 -> 19 ;
20 [label="gini = 0.0000\nsamples = 1\nvalue = [ 1.  0.]", shape="box"] ;
19 -> 20 ;
21 [label="gini = 0.0000\nsamples = 2\nvalue = [ 0.  2.]", shape="box"] ;
19 -> 21 ;
22 [label="gini = 0.0000\nsamples = 15\nvalue = [  0.  15.]", shape="box"] ;
10 -> 22 ;
23 [label="X[5] <= 26.1250\ngini = 0.3046875\nsamples = 16", shape="box"] ;
9 -> 23 ;
24 [label="X[2] <= 25.0000\ngini = 0.396694214876\nsamples = 11", shape="box"] ;
23 -> 24 ;
25 [label="gini = 0.0000\nsamples = 3\nvalue = [ 0.  3.]", shape="box"] ;
24 -> 25 ;
26 [label="X[2] <= 26.5000\ngini = 0.46875\nsamples = 8", shape="box"] ;
24 -> 26 ;
27 [label="gini = 0.0000\nsamples = 1\nvalue = [ 1.  0.]", shape="box"] ;
26 -> 27 ;
28 [label="X[2] <= 28.0000\ngini = 0.408163265306\nsamples = 7", shape="box"] ;
26 -> 28 ;
29 [label="X[7] <= 0.5000\ngini = 0.5\nsamples = 2", shape="box"] ;
28 -> 29 ;
30 [label="gini = 0.0000\nsamples = 1\nvalue = [ 1.  0.]", shape="box"] ;
29 -> 30 ;
31 [label="gini = 0.0000\nsamples = 1\nvalue = [ 0.  1.]", shape="box"] ;
29 -> 31 ;
32 [label="X[2] <= 37.0000\ngini = 0.32\nsamples = 5", shape="box"] ;
28 -> 32 ;
33 [label="gini = 0.0000\nsamples = 3\nvalue = [ 0.  3.]", shape="box"] ;
32 -> 33 ;
34 [label="X[2] <= 49.0000\ngini = 0.5\nsamples = 2", shape="box"] ;
32 -> 34 ;
35 [label="gini = 0.0000\nsamples = 1\nvalue = [ 1.  0.]", shape="box"] ;
34 -> 35 ;
36 [label="gini = 0.0000\nsamples = 1\nvalue = [ 0.  1.]", shape="box"] ;
34 -> 36 ;
37 [label="gini = 0.0000\nsamples = 5\nvalue = [ 0.  5.]", shape="box"] ;
23 -> 37 ;
38 [label="X[5] <= 18.5250\ngini = 0.5\nsamples = 2", shape="box"] ;
8 -> 38 ;
39 [label="gini = 0.0000\nsamples = 1\nvalue = [ 1.  0.]", shape="box"] ;
38 -> 39 ;
40 [label="gini = 0.0000\nsamples = 1\nvalue = [ 0.  1.]", shape="box"] ;
38 -> 40 ;
41 [label="gini = 0.0000\nsamples = 1\nvalue = [ 1.  0.]", shape="box"] ;
7 -> 41 ;
42 [label="X[4] <= 1.5000\ngini = 0.0243865264441\nsamples = 81", shape="box"] ;
6 -> 42 ;
43 [label="gini = 0.0000\nsamples = 68\nvalue = [  0.  68.]", shape="box"] ;
42 -> 43 ;
44 [label="X[2] <= 24.5000\ngini = 0.14201183432\nsamples = 13", shape="box"] ;
42 -> 44 ;
45 [label="gini = 0.0000\nsamples = 8\nvalue = [ 0.  8.]", shape="box"] ;
44 -> 45 ;
46 [label="X[2] <= 28.0000\ngini = 0.32\nsamples = 5", shape="box"] ;
44 -> 46 ;
47 [label="gini = 0.0000\nsamples = 1\nvalue = [ 1.  0.]", shape="box"] ;
46 -> 47 ;
48 [label="gini = 0.0000\nsamples = 4\nvalue = [ 0.  4.]", shape="box"] ;
46 -> 48 ;
49 [label="X[5] <= 23.3500\ngini = 0.499846106494\nsamples = 114", shape="box"] ;
1 -> 49 ;
50 [label="X[2] <= 27.5000\ngini = 0.483292866227\nsamples = 93", shape="box"] ;
49 -> 50 ;
51 [label="X[6] <= 0.5000\ngini = 0.45580715851\nsamples = 74", shape="box"] ;
50 -> 51 ;
52 [label="X[5] <= 15.3729\ngini = 0.381328073636\nsamples = 39", shape="box"] ;
51 -> 52 ;
53 [label="X[5] <= 13.9354\ngini = 0.437044745057\nsamples = 31", shape="box"] ;
52 -> 53 ;
54 [label="X[4] <= 1.5000\ngini = 0.32\nsamples = 25", shape="box"] ;
53 -> 54 ;
55 [label="X[5] <= 6.9875\ngini = 0.277777777778\nsamples = 24", shape="box"] ;
54 -> 55 ;
56 [label="gini = 0.0000\nsamples = 1\nvalue = [ 1.  0.]", shape="box"] ;
55 -> 56 ;
57 [label="X[2] <= 20.0000\ngini = 0.226843100189\nsamples = 23", shape="box"] ;
55 -> 57 ;
58 [label="gini = 0.0000\nsamples = 8\nvalue = [ 0.  8.]", shape="box"] ;
57 -> 58 ;
59 [label="X[2] <= 21.5000\ngini = 0.32\nsamples = 15", shape="box"] ;
57 -> 59 ;
60 [label="gini = 0.0000\nsamples = 1\nvalue = [ 1.  0.]", shape="box"] ;
59 -> 60 ;
61 [label="X[5] <= 8.0084\ngini = 0.244897959184\nsamples = 14", shape="box"] ;
59 -> 61 ;
62 [label="X[5] <= 7.6813\ngini = 0.14201183432\nsamples = 13", shape="box"] ;
61 -> 62 ;
63 [label="X[7] <= 0.5000\ngini = 0.5\nsamples = 2", shape="box"] ;
62 -> 63 ;
64 [label="gini = 0.0000\nsamples = 1\nvalue = [ 1.  0.]", shape="box"] ;
63 -> 64 ;
65 [label="gini = 0.0000\nsamples = 1\nvalue = [ 0.  1.]", shape="box"] ;
63 -> 65 ;
66 [label="gini = 0.0000\nsamples = 11\nvalue = [  0.  11.]", shape="box"] ;
62 -> 66 ;
67 [label="gini = 0.0000\nsamples = 1\nvalue = [ 1.  0.]", shape="box"] ;
61 -> 67 ;
68 [label="gini = 0.0000\nsamples = 1\nvalue = [ 1.  0.]", shape="box"] ;
54 -> 68 ;
69 [label="X[2] <= 16.0000\ngini = 0.277777777778\nsamples = 6", shape="box"] ;
53 -> 69 ;
70 [label="X[2] <= 14.7500\ngini = 0.444444444444\nsamples = 3", shape="box"] ;
69 -> 70 ;
71 [label="gini = 0.0000\nsamples = 2\nvalue = [ 2.  0.]", shape="box"] ;
70 -> 71 ;
72 [label="gini = 0.0000\nsamples = 1\nvalue = [ 0.  1.]", shape="box"] ;
70 -> 72 ;
73 [label="gini = 0.0000\nsamples = 3\nvalue = [ 3.  0.]", shape="box"] ;
69 -> 73 ;
74 [label="gini = 0.0000\nsamples = 8\nvalue = [ 0.  8.]", shape="box"] ;
52 -> 74 ;
75 [label="X[5] <= 17.2500\ngini = 0.496326530612\nsamples = 35", shape="box"] ;
51 -> 75 ;
76 [label="X[5] <= 10.8250\ngini = 0.482421875\nsamples = 32", shape="box"] ;
75 -> 76 ;
77 [label="X[2] <= 25.5000\ngini = 0.5\nsamples = 24", shape="box"] ;
76 -> 77 ;
78 [label="X[2] <= 22.5000\ngini = 0.489795918367\nsamples = 21", shape="box"] ;
77 -> 78 ;
79 [label="X[5] <= 10.1521\ngini = 0.459183673469\nsamples = 14", shape="box"] ;
78 -> 79 ;
80 [label="X[2] <= 15.5000\ngini = 0.375\nsamples = 12", shape="box"] ;
79 -> 80 ;
81 [label="gini = 0.0000\nsamples = 1\nvalue = [ 1.  0.]", shape="box"] ;
80 -> 81 ;
82 [label="X[5] <= 9.5875\ngini = 0.297520661157\nsamples = 11", shape="box"] ;
80 -> 82 ;
83 [label="X[2] <= 18.5000\ngini = 0.197530864198\nsamples = 9", shape="box"] ;
82 -> 83 ;
84 [label="X[4] <= 0.5000\ngini = 0.375\nsamples = 4", shape="box"] ;
83 -> 84 ;
85 [label="X[5] <= 7.6354\ngini = 0.5\nsamples = 2", shape="box"] ;
84 -> 85 ;
86 [label="gini = 0.0000\nsamples = 1\nvalue = [ 0.  1.]", shape="box"] ;
85 -> 86 ;
87 [label="gini = 0.0000\nsamples = 1\nvalue = [ 1.  0.]", shape="box"] ;
85 -> 87 ;
88 [label="gini = 0.0000\nsamples = 2\nvalue = [ 0.  2.]", shape="box"] ;
84 -> 88 ;
89 [label="gini = 0.0000\nsamples = 5\nvalue = [ 0.  5.]", shape="box"] ;
83 -> 89 ;
90 [label="X[3] <= 0.5000\ngini = 0.5\nsamples = 2", shape="box"] ;
82 -> 90 ;
91 [label="gini = 0.0000\nsamples = 1\nvalue = [ 0.  1.]", shape="box"] ;
90 -> 91 ;
92 [label="gini = 0.0000\nsamples = 1\nvalue = [ 1.  0.]", shape="box"] ;
90 -> 92 ;
93 [label="gini = 0.0000\nsamples = 2\nvalue = [ 2.  0.]", shape="box"] ;
79 -> 93 ;
94 [label="gini = 0.0000\nsamples = 7\nvalue = [ 7.  0.]", shape="box"] ;
78 -> 94 ;
95 [label="gini = 0.0000\nsamples = 3\nvalue = [ 0.  3.]", shape="box"] ;
77 -> 95 ;
96 [label="X[2] <= 25.5000\ngini = 0.21875\nsamples = 8", shape="box"] ;
76 -> 96 ;
97 [label="gini = 0.0000\nsamples = 7\nvalue = [ 0.  7.]", shape="box"] ;
96 -> 97 ;
98 [label="gini = 0.0000\nsamples = 1\nvalue = [ 1.  0.]", shape="box"] ;
96 -> 98 ;
99 [label="gini = 0.0000\nsamples = 3\nvalue = [ 3.  0.]", shape="box"] ;
75 -> 99 ;
100 [label="X[2] <= 55.0000\ngini = 0.465373961219\nsamples = 19", shape="box"] ;
50 -> 100 ;
101 [label="X[2] <= 36.5000\ngini = 0.444444444444\nsamples = 18", shape="box"] ;
100 -> 101 ;
102 [label="X[2] <= 32.5000\ngini = 0.497041420118\nsamples = 13", shape="box"] ;
101 -> 102 ;
103 [label="X[7] <= 0.5000\ngini = 0.462809917355\nsamples = 11", shape="box"] ;
102 -> 103 ;
104 [label="X[2] <= 29.5000\ngini = 0.42\nsamples = 10", shape="box"] ;
103 -> 104 ;
105 [label="gini = 0.0000\nsamples = 4\nvalue = [ 4.  0.]", shape="box"] ;
104 -> 105 ;
106 [label="X[6] <= 0.5000\ngini = 0.5\nsamples = 6", shape="box"] ;
104 -> 106 ;
107 [label="gini = 0.0000\nsamples = 2\nvalue = [ 2.  0.]", shape="box"] ;
106 -> 107 ;
108 [label="X[3] <= 0.5000\ngini = 0.375\nsamples = 4", shape="box"] ;
106 -> 108 ;
109 [label="gini = 0.0000\nsamples = 2\nvalue = [ 0.  2.]", shape="box"] ;
108 -> 109 ;
110 [label="X[5] <= 19.2625\ngini = 0.5\nsamples = 2", shape="box"] ;
108 -> 110 ;
111 [label="gini = 0.0000\nsamples = 1\nvalue = [ 1.  0.]", shape="box"] ;
110 -> 111 ;
112 [label="gini = 0.0000\nsamples = 1\nvalue = [ 0.  1.]", shape="box"] ;
110 -> 112 ;
113 [label="gini = 0.0000\nsamples = 1\nvalue = [ 0.  1.]", shape="box"] ;
103 -> 113 ;
114 [label="gini = 0.0000\nsamples = 2\nvalue = [ 0.  2.]", shape="box"] ;
102 -> 114 ;
115 [label="gini = 0.0000\nsamples = 5\nvalue = [ 5.  0.]", shape="box"] ;
101 -> 115 ;
116 [label="gini = 0.0000\nsamples = 1\nvalue = [ 0.  1.]", shape="box"] ;
100 -> 116 ;
117 [label="X[4] <= 0.5000\ngini = 0.244897959184\nsamples = 21", shape="box"] ;
49 -> 117 ;
118 [label="gini = 0.0000\nsamples = 1\nvalue = [ 0.  1.]", shape="box"] ;
117 -> 118 ;
119 [label="X[5] <= 31.3312\ngini = 0.18\nsamples = 20", shape="box"] ;
117 -> 119 ;
120 [label="gini = 0.0000\nsamples = 12\nvalue = [ 12.   0.]", shape="box"] ;
119 -> 120 ;
121 [label="X[5] <= 32.8812\ngini = 0.375\nsamples = 8", shape="box"] ;
119 -> 121 ;
122 [label="gini = 0.0000\nsamples = 2\nvalue = [ 0.  2.]", shape="box"] ;
121 -> 122 ;
123 [label="gini = 0.0000\nsamples = 6\nvalue = [ 6.  0.]", shape="box"] ;
121 -> 123 ;
124 [label="X[5] <= 15.1729\ngini = 0.327986316568\nsamples = 416", shape="box"] ;
0 -> 124 ;
125 [label="X[2] <= 14.0000\ngini = 0.214910453978\nsamples = 245", shape="box"] ;
124 -> 125 ;
126 [label="gini = 0.0000\nsamples = 2\nvalue = [ 0.  2.]", shape="box"] ;
125 -> 126 ;
127 [label="X[2] <= 61.5000\ngini = 0.203898457214\nsamples = 243", shape="box"] ;
125 -> 127 ;
128 [label="X[2] <= 34.5000\ngini = 0.198963516468\nsamples = 241", shape="box"] ;
127 -> 128 ;
129 [label="X[2] <= 28.7500\ngini = 0.226508246528\nsamples = 192", shape="box"] ;
128 -> 129 ;
130 [label="X[5] <= 8.2063\ngini = 0.189465374326\nsamples = 151", shape="box"] ;
129 -> 130 ;
131 [label="X[5] <= 8.0813\ngini = 0.237353758101\nsamples = 109", shape="box"] ;
130 -> 131 ;
132 [label="X[2] <= 20.2500\ngini = 0.225651577503\nsamples = 108", shape="box"] ;
131 -> 132 ;
133 [label="X[5] <= 7.9104\ngini = 0.387811634349\nsamples = 19", shape="box"] ;
132 -> 133 ;
134 [label="X[2] <= 19.5000\ngini = 0.152777777778\nsamples = 12", shape="box"] ;
133 -> 134 ;
135 [label="gini = 0.0000\nsamples = 11\nvalue = [ 11.   0.]", shape="box"] ;
134 -> 135 ;
136 [label="gini = 0.0000\nsamples = 1\nvalue = [ 0.  1.]", shape="box"] ;
134 -> 136 ;
137 [label="X[3] <= 0.5000\ngini = 0.489795918367\nsamples = 7", shape="box"] ;
133 -> 137 ;
138 [label="X[2] <= 19.5000\ngini = 0.5\nsamples = 6", shape="box"] ;
137 -> 138 ;
139 [label="X[2] <= 17.0000\ngini = 0.48\nsamples = 5", shape="box"] ;
138 -> 139 ;
140 [label="gini = 0.5000\nsamples = 2\nvalue = [ 1.  1.]", shape="box"] ;
139 -> 140 ;
141 [label="X[2] <= 18.5000\ngini = 0.444444444444\nsamples = 3", shape="box"] ;
139 -> 141 ;
142 [label="gini = 0.0000\nsamples = 1\nvalue = [ 0.  1.]", shape="box"] ;
141 -> 142 ;
143 [label="gini = 0.5000\nsamples = 2\nvalue = [ 1.  1.]", shape="box"] ;
141 -> 143 ;
144 [label="gini = 0.0000\nsamples = 1\nvalue = [ 1.  0.]", shape="box"] ;
138 -> 144 ;
145 [label="gini = 0.0000\nsamples = 1\nvalue = [ 0.  1.]", shape="box"] ;
137 -> 145 ;
146 [label="X[5] <= 3.4292\ngini = 0.181795227875\nsamples = 89", shape="box"] ;
132 -> 146 ;
147 [label="gini = 0.0000\nsamples = 1\nvalue = [ 0.  1.]", shape="box"] ;
146 -> 147 ;
148 [label="X[5] <= 7.7979\ngini = 0.165289256198\nsamples = 88", shape="box"] ;
146 -> 148 ;
149 [label="X[5] <= 7.7625\ngini = 0.252400548697\nsamples = 54", shape="box"] ;
148 -> 149 ;
150 [label="X[5] <= 7.2396\ngini = 0.165289256198\nsamples = 44", shape="box"] ;
149 -> 150 ;
151 [label="X[2] <= 24.5000\ngini = 0.244897959184\nsamples = 21", shape="box"] ;
150 -> 151 ;
152 [label="X[5] <= 7.2271\ngini = 0.48\nsamples = 5", shape="box"] ;
151 -> 152 ;
153 [label="X[5] <= 7.0958\ngini = 0.444444444444\nsamples = 3", shape="box"] ;
152 -> 153 ;
154 [label="gini = 0.0000\nsamples = 1\nvalue = [ 1.  0.]", shape="box"] ;
153 -> 154 ;
155 [label="gini = 0.0000\nsamples = 2\nvalue = [ 0.  2.]", shape="box"] ;
153 -> 155 ;
156 [label="gini = 0.0000\nsamples = 2\nvalue = [ 2.  0.]", shape="box"] ;
152 -> 156 ;
157 [label="X[5] <= 7.2271\ngini = 0.1171875\nsamples = 16", shape="box"] ;
151 -> 157 ;
158 [label="gini = 0.0000\nsamples = 9\nvalue = [ 9.  0.]", shape="box"] ;
157 -> 158 ;
159 [label="X[2] <= 26.7500\ngini = 0.244897959184\nsamples = 7", shape="box"] ;
157 -> 159 ;
160 [label="gini = 0.2778\nsamples = 6\nvalue = [ 5.  1.]", shape="box"] ;
159 -> 160 ;
161 [label="gini = 0.0000\nsamples = 1\nvalue = [ 1.  0.]", shape="box"] ;
159 -> 161 ;
162 [label="X[5] <= 7.7438\ngini = 0.0831758034026\nsamples = 23", shape="box"] ;
150 -> 162 ;
163 [label="gini = 0.0000\nsamples = 15\nvalue = [ 15.   0.]", shape="box"] ;
162 -> 163 ;
164 [label="gini = 0.2188\nsamples = 8\nvalue = [ 7.  1.]", shape="box"] ;
162 -> 164 ;
165 [label="X[3] <= 0.5000\ngini = 0.48\nsamples = 10", shape="box"] ;
149 -> 165 ;
166 [label="X[2] <= 27.5000\ngini = 0.444444444444\nsamples = 9", shape="box"] ;
165 -> 166 ;
167 [label="X[2] <= 26.5000\ngini = 0.46875\nsamples = 8", shape="box"] ;
166 -> 167 ;
168 [label="X[2] <= 21.5000\ngini = 0.408163265306\nsamples = 7", shape="box"] ;
167 -> 168 ;
169 [label="X[5] <= 7.7854\ngini = 0.5\nsamples = 2", shape="box"] ;
168 -> 169 ;
170 [label="gini = 0.0000\nsamples = 1\nvalue = [ 1.  0.]", shape="box"] ;
169 -> 170 ;
171 [label="gini = 0.0000\nsamples = 1\nvalue = [ 0.  1.]", shape="box"] ;
169 -> 171 ;
172 [label="X[2] <= 24.5000\ngini = 0.32\nsamples = 5", shape="box"] ;
168 -> 172 ;
173 [label="gini = 0.0000\nsamples = 2\nvalue = [ 2.  0.]", shape="box"] ;
172 -> 173 ;
174 [label="X[2] <= 25.5000\ngini = 0.444444444444\nsamples = 3", shape="box"] ;
172 -> 174 ;
175 [label="gini = 0.5000\nsamples = 2\nvalue = [ 1.  1.]", shape="box"] ;
174 -> 175 ;
176 [label="gini = 0.0000\nsamples = 1\nvalue = [ 1.  0.]", shape="box"] ;
174 -> 176 ;
177 [label="gini = 0.0000\nsamples = 1\nvalue = [ 0.  1.]", shape="box"] ;
167 -> 177 ;
178 [label="gini = 0.0000\nsamples = 1\nvalue = [ 1.  0.]", shape="box"] ;
166 -> 178 ;
179 [label="gini = 0.0000\nsamples = 1\nvalue = [ 0.  1.]", shape="box"] ;
165 -> 179 ;
180 [label="gini = 0.0000\nsamples = 34\nvalue = [ 34.   0.]", shape="box"] ;
148 -> 180 ;
181 [label="gini = 0.0000\nsamples = 1\nvalue = [ 0.  1.]", shape="box"] ;
131 -> 181 ;
182 [label="X[2] <= 19.5000\ngini = 0.046485260771\nsamples = 42", shape="box"] ;
130 -> 182 ;
183 [label="X[2] <= 18.5000\ngini = 0.14201183432\nsamples = 13", shape="box"] ;
182 -> 183 ;
184 [label="gini = 0.0000\nsamples = 9\nvalue = [ 9.  0.]", shape="box"] ;
183 -> 184 ;
185 [label="X[5] <= 11.7500\ngini = 0.375\nsamples = 4", shape="box"] ;
183 -> 185 ;
186 [label="gini = 0.5000\nsamples = 2\nvalue = [ 1.  1.]", shape="box"] ;
185 -> 186 ;
187 [label="gini = 0.0000\nsamples = 2\nvalue = [ 2.  0.]", shape="box"] ;
185 -> 187 ;
188 [label="gini = 0.0000\nsamples = 29\nvalue = [ 29.   0.]", shape="box"] ;
182 -> 188 ;
189 [label="X[5] <= 12.6375\ngini = 0.342653182629\nsamples = 41", shape="box"] ;
129 -> 189 ;
190 [label="X[2] <= 29.5000\ngini = 0.250865051903\nsamples = 34", shape="box"] ;
189 -> 190 ;
191 [label="X[6] <= 0.5000\ngini = 0.5\nsamples = 6", shape="box"] ;
190 -> 191 ;
192 [label="gini = 0.0000\nsamples = 2\nvalue = [ 0.  2.]", shape="box"] ;
191 -> 192 ;
193 [label="X[5] <= 9.4916\ngini = 0.375\nsamples = 4", shape="box"] ;
191 -> 193 ;
194 [label="gini = 0.0000\nsamples = 3\nvalue = [ 3.  0.]", shape="box"] ;
193 -> 194 ;
195 [label="gini = 0.0000\nsamples = 1\nvalue = [ 0.  1.]", shape="box"] ;
193 -> 195 ;
196 [label="X[5] <= 7.9875\ngini = 0.132653061224\nsamples = 28", shape="box"] ;
190 -> 196 ;
197 [label="gini = 0.0000\nsamples = 16\nvalue = [ 16.   0.]", shape="box"] ;
196 -> 197 ;
198 [label="X[5] <= 10.0000\ngini = 0.277777777778\nsamples = 12", shape="box"] ;
196 -> 198 ;
199 [label="X[2] <= 32.5000\ngini = 0.375\nsamples = 8", shape="box"] ;
198 -> 199 ;
200 [label="X[5] <= 8.9312\ngini = 0.444444444444\nsamples = 6", shape="box"] ;
199 -> 200 ;
201 [label="X[2] <= 31.2500\ngini = 0.32\nsamples = 5", shape="box"] ;
200 -> 201 ;
202 [label="gini = 0.0000\nsamples = 3\nvalue = [ 3.  0.]", shape="box"] ;
201 -> 202 ;
203 [label="X[5] <= 8.2063\ngini = 0.5\nsamples = 2", shape="box"] ;
201 -> 203 ;
204 [label="gini = 0.0000\nsamples = 1\nvalue = [ 0.  1.]", shape="box"] ;
203 -> 204 ;
205 [label="gini = 0.0000\nsamples = 1\nvalue = [ 1.  0.]", shape="box"] ;
203 -> 205 ;
206 [label="gini = 0.0000\nsamples = 1\nvalue = [ 0.  1.]", shape="box"] ;
200 -> 206 ;
207 [label="gini = 0.0000\nsamples = 2\nvalue = [ 2.  0.]", shape="box"] ;
199 -> 207 ;
208 [label="gini = 0.0000\nsamples = 4\nvalue = [ 4.  0.]", shape="box"] ;
198 -> 208 ;
209 [label="X[5] <= 13.4312\ngini = 0.489795918367\nsamples = 7", shape="box"] ;
189 -> 209 ;
210 [label="X[2] <= 30.5000\ngini = 0.5\nsamples = 6", shape="box"] ;
209 -> 210 ;
211 [label="gini = 0.4444\nsamples = 3\nvalue = [ 2.  1.]", shape="box"] ;
210 -> 211 ;
212 [label="X[2] <= 32.5000\ngini = 0.444444444444\nsamples = 3", shape="box"] ;
210 -> 212 ;
213 [label="gini = 0.0000\nsamples = 1\nvalue = [ 0.  1.]", shape="box"] ;
212 -> 213 ;
214 [label="gini = 0.5000\nsamples = 2\nvalue = [ 1.  1.]", shape="box"] ;
212 -> 214 ;
215 [label="gini = 0.0000\nsamples = 1\nvalue = [ 0.  1.]", shape="box"] ;
209 -> 215 ;
216 [label="X[5] <= 7.9875\ngini = 0.0783007080383\nsamples = 49", shape="box"] ;
128 -> 216 ;
217 [label="X[5] <= 7.9104\ngini = 0.1472\nsamples = 25", shape="box"] ;
216 -> 217 ;
218 [label="gini = 0.0000\nsamples = 22\nvalue = [ 22.   0.]", shape="box"] ;
217 -> 218 ;
219 [label="X[2] <= 38.0000\ngini = 0.444444444444\nsamples = 3", shape="box"] ;
217 -> 219 ;
220 [label="gini = 0.0000\nsamples = 1\nvalue = [ 1.  0.]", shape="box"] ;
219 -> 220 ;
221 [label="gini = 0.0000\nsamples = 2\nvalue = [ 0.  2.]", shape="box"] ;
219 -> 221 ;
222 [label="gini = 0.0000\nsamples = 24\nvalue = [ 24.   0.]", shape="box"] ;
216 -> 222 ;
223 [label="X[2] <= 66.0000\ngini = 0.5\nsamples = 2", shape="box"] ;
127 -> 223 ;
224 [label="gini = 0.0000\nsamples = 1\nvalue = [ 0.  1.]", shape="box"] ;
223 -> 224 ;
225 [label="gini = 0.0000\nsamples = 1\nvalue = [ 1.  0.]", shape="box"] ;
223 -> 225 ;
226 [label="X[2] <= 3.5000\ngini = 0.440477411853\nsamples = 171", shape="box"] ;
124 -> 226 ;
227 [label="X[3] <= 2.0000\ngini = 0.426035502959\nsamples = 13", shape="box"] ;
226 -> 227 ;
228 [label="gini = 0.0000\nsamples = 8\nvalue = [ 0.  8.]", shape="box"] ;
227 -> 228 ;
229 [label="X[2] <= 2.5000\ngini = 0.32\nsamples = 5", shape="box"] ;
227 -> 229 ;
230 [label="gini = 0.0000\nsamples = 4\nvalue = [ 4.  0.]", shape="box"] ;
229 -> 230 ;
231 [label="gini = 0.0000\nsamples = 1\nvalue = [ 0.  1.]", shape="box"] ;
229 -> 231 ;
232 [label="X[0] <= 1.5000\ngini = 0.417961865086\nsamples = 158", shape="box"] ;
226 -> 232 ;
233 [label="X[2] <= 36.5000\ngini = 0.483669618232\nsamples = 83", shape="box"] ;
232 -> 233 ;
234 [label="X[2] <= 31.5000\ngini = 0.436224489796\nsamples = 28", shape="box"] ;
233 -> 234 ;
235 [label="X[2] <= 28.5000\ngini = 0.495\nsamples = 20", shape="box"] ;
234 -> 235 ;
236 [label="X[5] <= 41.3000\ngini = 0.444444444444\nsamples = 15", shape="box"] ;
235 -> 236 ;
237 [label="gini = 0.0000\nsamples = 4\nvalue = [ 0.  4.]", shape="box"] ;
236 -> 237 ;
238 [label="X[2] <= 27.5000\ngini = 0.495867768595\nsamples = 11", shape="box"] ;
236 -> 238 ;
239 [label="X[3] <= 2.0000\ngini = 0.444444444444\nsamples = 9", shape="box"] ;
238 -> 239 ;
240 [label="X[5] <= 85.1396\ngini = 0.375\nsamples = 8", shape="box"] ;
239 -> 240 ;
241 [label="X[2] <= 24.5000\ngini = 0.48\nsamples = 5", shape="box"] ;
240 -> 241 ;
242 [label="X[4] <= 0.5000\ngini = 0.444444444444\nsamples = 3", shape="box"] ;
241 -> 242 ;
243 [label="gini = 0.0000\nsamples = 2\nvalue = [ 2.  0.]", shape="box"] ;
242 -> 243 ;
244 [label="gini = 0.0000\nsamples = 1\nvalue = [ 0.  1.]", shape="box"] ;
242 -> 244 ;
245 [label="gini = 0.0000\nsamples = 2\nvalue = [ 0.  2.]", shape="box"] ;
241 -> 245 ;
246 [label="gini = 0.0000\nsamples = 3\nvalue = [ 0.  3.]", shape="box"] ;
240 -> 246 ;
247 [label="gini = 0.0000\nsamples = 1\nvalue = [ 1.  0.]", shape="box"] ;
239 -> 247 ;
248 [label="gini = 0.0000\nsamples = 2\nvalue = [ 2.  0.]", shape="box"] ;
238 -> 248 ;
249 [label="X[5] <= 54.5000\ngini = 0.32\nsamples = 5", shape="box"] ;
235 -> 249 ;
250 [label="gini = 0.0000\nsamples = 4\nvalue = [ 4.  0.]", shape="box"] ;
249 -> 250 ;
251 [label="gini = 0.0000\nsamples = 1\nvalue = [ 0.  1.]", shape="box"] ;
249 -> 251 ;
252 [label="gini = 0.0000\nsamples = 8\nvalue = [ 0.  8.]", shape="box"] ;
234 -> 252 ;
253 [label="X[2] <= 57.0000\ngini = 0.396694214876\nsamples = 55", shape="box"] ;
233 -> 253 ;
254 [label="X[5] <= 30.5979\ngini = 0.449380165289\nsamples = 44", shape="box"] ;
253 -> 254 ;
255 [label="X[5] <= 26.1437\ngini = 0.489795918367\nsamples = 14", shape="box"] ;
254 -> 255 ;
256 [label="gini = 0.0000\nsamples = 2\nvalue = [ 2.  0.]", shape="box"] ;
255 -> 256 ;
257 [label="X[4] <= 0.5000\ngini = 0.444444444444\nsamples = 12", shape="box"] ;
255 -> 257 ;
258 [label="X[5] <= 29.1000\ngini = 0.396694214876\nsamples = 11", shape="box"] ;
257 -> 258 ;
259 [label="X[5] <= 27.1354\ngini = 0.489795918367\nsamples = 7", shape="box"] ;
258 -> 259 ;
260 [label="X[2] <= 43.5000\ngini = 0.32\nsamples = 5", shape="box"] ;
259 -> 260 ;
261 [label="gini = 0.0000\nsamples = 2\nvalue = [ 0.  2.]", shape="box"] ;
260 -> 261 ;
262 [label="X[2] <= 46.5000\ngini = 0.444444444444\nsamples = 3", shape="box"] ;
260 -> 262 ;
263 [label="gini = 0.5000\nsamples = 2\nvalue = [ 1.  1.]", shape="box"] ;
262 -> 263 ;
264 [label="gini = 0.0000\nsamples = 1\nvalue = [ 0.  1.]", shape="box"] ;
262 -> 264 ;
265 [label="gini = 0.0000\nsamples = 2\nvalue = [ 2.  0.]", shape="box"] ;
259 -> 265 ;
266 [label="gini = 0.0000\nsamples = 4\nvalue = [ 0.  4.]", shape="box"] ;
258 -> 266 ;
267 [label="gini = 0.0000\nsamples = 1\nvalue = [ 1.  0.]", shape="box"] ;
257 -> 267 ;
268 [label="X[3] <= 0.5000\ngini = 0.357777777778\nsamples = 30", shape="box"] ;
254 -> 268 ;
269 [label="X[2] <= 55.0000\ngini = 0.18836565097\nsamples = 19", shape="box"] ;
268 -> 269 ;
270 [label="X[5] <= 37.0000\ngini = 0.110726643599\nsamples = 17", shape="box"] ;
269 -> 270 ;
271 [label="X[5] <= 35.2500\ngini = 0.277777777778\nsamples = 6", shape="box"] ;
270 -> 271 ;
272 [label="gini = 0.0000\nsamples = 4\nvalue = [ 4.  0.]", shape="box"] ;
271 -> 272 ;
273 [label="X[2] <= 41.5000\ngini = 0.5\nsamples = 2", shape="box"] ;
271 -> 273 ;
274 [label="gini = 0.0000\nsamples = 1\nvalue = [ 0.  1.]", shape="box"] ;
273 -> 274 ;
275 [label="gini = 0.0000\nsamples = 1\nvalue = [ 1.  0.]", shape="box"] ;
273 -> 275 ;
276 [label="gini = 0.0000\nsamples = 11\nvalue = [ 11.   0.]", shape="box"] ;
270 -> 276 ;
277 [label="X[5] <= 33.0979\ngini = 0.5\nsamples = 2", shape="box"] ;
269 -> 277 ;
278 [label="gini = 0.0000\nsamples = 1\nvalue = [ 1.  0.]", shape="box"] ;
277 -> 278 ;
279 [label="gini = 0.0000\nsamples = 1\nvalue = [ 0.  1.]", shape="box"] ;
277 -> 279 ;
280 [label="X[7] <= 0.5000\ngini = 0.495867768595\nsamples = 11", shape="box"] ;
268 -> 280 ;
281 [label="X[5] <= 86.7375\ngini = 0.444444444444\nsamples = 9", shape="box"] ;
280 -> 281 ;
282 [label="X[4] <= 0.5000\ngini = 0.277777777778\nsamples = 6", shape="box"] ;
281 -> 282 ;
283 [label="gini = 0.0000\nsamples = 5\nvalue = [ 5.  0.]", shape="box"] ;
282 -> 283 ;
284 [label="gini = 0.0000\nsamples = 1\nvalue = [ 0.  1.]", shape="box"] ;
282 -> 284 ;
285 [label="X[6] <= 0.5000\ngini = 0.444444444444\nsamples = 3", shape="box"] ;
281 -> 285 ;
286 [label="gini = 0.0000\nsamples = 1\nvalue = [ 1.  0.]", shape="box"] ;
285 -> 286 ;
287 [label="gini = 0.0000\nsamples = 2\nvalue = [ 0.  2.]", shape="box"] ;
285 -> 287 ;
288 [label="gini = 0.0000\nsamples = 2\nvalue = [ 0.  2.]", shape="box"] ;
280 -> 288 ;
289 [label="gini = 0.0000\nsamples = 11\nvalue = [ 11.   0.]", shape="box"] ;
253 -> 289 ;
290 [label="X[5] <= 16.0000\ngini = 0.286577777778\nsamples = 75", shape="box"] ;
232 -> 290 ;
291 [label="X[4] <= 0.5000\ngini = 0.444444444444\nsamples = 6", shape="box"] ;
290 -> 291 ;
292 [label="gini = 0.0000\nsamples = 2\nvalue = [ 2.  0.]", shape="box"] ;
291 -> 292 ;
293 [label="gini = 0.0000\nsamples = 4\nvalue = [ 0.  4.]", shape="box"] ;
291 -> 293 ;
294 [label="X[3] <= 0.5000\ngini = 0.226843100189\nsamples = 69", shape="box"] ;
290 -> 294 ;
295 [label="X[0] <= 2.5000\ngini = 0.396694214876\nsamples = 22", shape="box"] ;
294 -> 295 ;
296 [label="gini = 0.0000\nsamples = 8\nvalue = [ 8.  0.]", shape="box"] ;
295 -> 296 ;
297 [label="X[5] <= 17.4438\ngini = 0.489795918367\nsamples = 14", shape="box"] ;
295 -> 297 ;
298 [label="gini = 0.0000\nsamples = 3\nvalue = [ 3.  0.]", shape="box"] ;
297 -> 298 ;
299 [label="X[2] <= 35.5000\ngini = 0.495867768595\nsamples = 11", shape="box"] ;
297 -> 299 ;
300 [label="X[2] <= 30.0000\ngini = 0.48\nsamples = 10", shape="box"] ;
299 -> 300 ;
301 [label="X[2] <= 27.0000\ngini = 0.5\nsamples = 8", shape="box"] ;
300 -> 301 ;
302 [label="X[2] <= 25.5000\ngini = 0.444444444444\nsamples = 6", shape="box"] ;
301 -> 302 ;
303 [label="X[5] <= 19.6562\ngini = 0.5\nsamples = 4", shape="box"] ;
302 -> 303 ;
304 [label="gini = 0.0000\nsamples = 1\nvalue = [ 1.  0.]", shape="box"] ;
303 -> 304 ;
305 [label="X[4] <= 1.0000\ngini = 0.444444444444\nsamples = 3", shape="box"] ;
303 -> 305 ;
306 [label="gini = 0.5000\nsamples = 2\nvalue = [ 1.  1.]", shape="box"] ;
305 -> 306 ;
307 [label="gini = 0.0000\nsamples = 1\nvalue = [ 0.  1.]", shape="box"] ;
305 -> 307 ;
308 [label="gini = 0.0000\nsamples = 2\nvalue = [ 0.  2.]", shape="box"] ;
302 -> 308 ;
309 [label="gini = 0.0000\nsamples = 2\nvalue = [ 2.  0.]", shape="box"] ;
301 -> 309 ;
310 [label="gini = 0.0000\nsamples = 2\nvalue = [ 0.  2.]", shape="box"] ;
300 -> 310 ;
311 [label="gini = 0.0000\nsamples = 1\nvalue = [ 1.  0.]", shape="box"] ;
299 -> 311 ;
312 [label="X[8] <= 0.5000\ngini = 0.119511090991\nsamples = 47", shape="box"] ;
294 -> 312 ;
313 [label="X[2] <= 8.5000\ngini = 0.0886965927528\nsamples = 43", shape="box"] ;
312 -> 313 ;
314 [label="X[3] <= 2.0000\ngini = 0.444444444444\nsamples = 3", shape="box"] ;
313 -> 314 ;
315 [label="gini = 0.0000\nsamples = 1\nvalue = [ 0.  1.]", shape="box"] ;
314 -> 315 ;
316 [label="gini = 0.0000\nsamples = 2\nvalue = [ 2.  0.]", shape="box"] ;
314 -> 316 ;
317 [label="X[2] <= 31.5000\ngini = 0.04875\nsamples = 40", shape="box"] ;
313 -> 317 ;
318 [label="gini = 0.0000\nsamples = 27\nvalue = [ 27.   0.]", shape="box"] ;
317 -> 318 ;
319 [label="X[2] <= 32.2500\ngini = 0.14201183432\nsamples = 13", shape="box"] ;
317 -> 319 ;
320 [label="gini = 0.0000\nsamples = 1\nvalue = [ 0.  1.]", shape="box"] ;
319 -> 320 ;
321 [label="gini = 0.0000\nsamples = 12\nvalue = [ 12.   0.]", shape="box"] ;
319 -> 321 ;
322 [label="X[4] <= 0.5000\ngini = 0.375\nsamples = 4", shape="box"] ;
312 -> 322 ;
323 [label="gini = 0.0000\nsamples = 1\nvalue = [ 0.  1.]", shape="box"] ;
322 -> 323 ;
324 [label="gini = 0.0000\nsamples = 3\nvalue = [ 3.  0.]", shape="box"] ;
322 -> 324 ;
}