digraph Tree {
0 [label="X[2545] <= 0.5000\ngini = 0.899659342749\nsamples = 35796", shape="box"] ;
1 [label="X[1947] <= 0.5000\ngini = 0.88184106977\nsamples = 31626", shape="box"] ;
0 -> 1 ;
2 [label="X[2347] <= 0.5000\ngini = 0.89306437307\nsamples = 29021", shape="box"] ;
1 -> 2 ;
3 [label="X[2787] <= 0.5000\ngini = 0.899126153576\nsamples = 27834", shape="box"] ;
2 -> 3 ;
4 [label="X[1645] <= 0.5000\ngini = 0.903403592928\nsamples = 26475", shape="box"] ;
3 -> 4 ;
5 [label="X[1867] <= 0.5000\ngini = 0.902348247047\nsamples = 25556", shape="box"] ;
4 -> 5 ;
6 [label="X[990] <= 0.5000\ngini = 0.906808522803\nsamples = 18398", shape="box"] ;
5 -> 6 ;
7 [label="X[596] <= 0.5000\ngini = 0.898436441593\nsamples = 17302", shape="box"] ;
6 -> 7 ;
8 [label="X[379] <= 0.5000\ngini = 0.896207533548\nsamples = 15523", shape="box"] ;
7 -> 8 ;
9 [label="X[763] <= 0.5000\ngini = 0.903351740848\nsamples = 14723", shape="box"] ;
8 -> 9 ;
10 [label="X[776] <= 0.5000\ngini = 0.899924997844\nsamples = 13708", shape="box"] ;
9 -> 10 ;
11 [label="X[1765] <= 0.5000\ngini = 0.896606904262\nsamples = 13327", shape="box"] ;
10 -> 11 ;
12 [label="X[1998] <= 1.5000\ngini = 0.898279148608\nsamples = 13006", shape="box"] ;
11 -> 12 ;
13 [label="X[2679] <= 0.5000\ngini = 0.898034542688\nsamples = 11852", shape="box"] ;
12 -> 13 ;
14 [label="X[375] <= 0.5000\ngini = 0.897800993498\nsamples = 11700", shape="box"] ;
13 -> 14 ;
15 [label="X[451] <= 0.5000\ngini = 0.913336143067\nsamples = 7648", shape="box"] ;
14 -> 15 ;
16 [label="X[1725] <= 0.5000\ngini = 0.911417077718\nsamples = 7472", shape="box"] ;
15 -> 16 ;
17 [label="X[2424] <= 0.5000\ngini = 0.910268254362\nsamples = 7373", shape="box"] ;
16 -> 17 ;
18 [label="X[958] <= 0.5000\ngini = 0.905946200106\nsamples = 7072", shape="box"] ;
17 -> 18 ;
19 [label="X[2261] <= 0.5000\ngini = 0.904737645832\nsamples = 6980", shape="box"] ;
18 -> 19 ;
20 [label="X[1536] <= 0.5000\ngini = 0.89462927237\nsamples = 6306", shape="box"] ;
19 -> 20 ;
21 [label="X[1350] <= 0.5000\ngini = 0.891861587861\nsamples = 5897", shape="box"] ;
20 -> 21 ;
22 [label="X[174] <= 0.5000\ngini = 0.89500331579\nsamples = 5731", shape="box"] ;
21 -> 22 ;
23 [label="X[1643] <= 0.5000\ngini = 0.897343928937\nsamples = 5553", shape="box"] ;
22 -> 23 ;
24 [label="X[2987] <= 0.5000\ngini = 0.897373553505\nsamples = 5501", shape="box"] ;
23 -> 24 ;
25 [label="X[2403] <= 0.5000\ngini = 0.894068211594\nsamples = 5324", shape="box"] ;
24 -> 25 ;
26 [label="X[550] <= 0.5000\ngini = 0.894432679739\nsamples = 5100", shape="box"] ;
25 -> 26 ;
27 [label="X[545] <= 0.5000\ngini = 0.893374516013\nsamples = 4943", shape="box"] ;
26 -> 27 ;
28 [label="X[892] <= 0.5000\ngini = 0.891142456225\nsamples = 4820", shape="box"] ;
27 -> 28 ;
29 [label="X[2263] <= 0.5000\ngini = 0.892800147639\nsamples = 4244", shape="box"] ;
28 -> 29 ;
30 [label="X[2786] <= 0.5000\ngini = 0.893945232832\nsamples = 4192", shape="box"] ;
29 -> 30 ;
31 [label="X[556] <= 0.5000\ngini = 0.893623585543\nsamples = 4158", shape="box"] ;
30 -> 31 ;
32 [label="X[1345] <= 0.5000\ngini = 0.892660805939\nsamples = 4127", shape="box"] ;
31 -> 32 ;
33 [label="X[595] <= 0.5000\ngini = 0.891759146292\nsamples = 4097", shape="box"] ;
32 -> 33 ;
34 [label="X[2941] <= 0.5000\ngini = 0.894530409444\nsamples = 3982", shape="box"] ;
33 -> 34 ;
35 [label="X[1694] <= 0.5000\ngini = 0.897000431504\nsamples = 3913", shape="box"] ;
34 -> 35 ;
36 [label="X[685] <= 0.5000\ngini = 0.896609701265\nsamples = 3888", shape="box"] ;
35 -> 36 ;
37 [label="X[2428] <= 0.5000\ngini = 0.899019039034\nsamples = 3817", shape="box"] ;
36 -> 37 ;
38 [label="X[285] <= 0.5000\ngini = 0.899552731289\nsamples = 3755", shape="box"] ;
37 -> 38 ;
39 [label="X[1646] <= 0.5000\ngini = 0.898842903585\nsamples = 3736", shape="box"] ;
38 -> 39 ;
40 [label="X[1202] <= 0.5000\ngini = 0.899972775446\nsamples = 3697", shape="box"] ;
39 -> 40 ;
41 [label="X[2016] <= 0.5000\ngini = 0.901374216556\nsamples = 3669", shape="box"] ;
40 -> 41 ;
42 [label="X[199] <= 0.5000\ngini = 0.902194481343\nsamples = 3640", shape="box"] ;
41 -> 42 ;
43 [label="X[2125] <= 0.5000\ngini = 0.901183129491\nsamples = 3602", shape="box"] ;
42 -> 43 ;
44 [label="X[1111] <= 0.5000\ngini = 0.898222119515\nsamples = 3329", shape="box"] ;
43 -> 44 ;
45 [label="X[639] <= 0.5000\ngini = 0.897252358283\nsamples = 3304", shape="box"] ;
44 -> 45 ;
46 [label="X[1860] <= 0.5000\ngini = 0.898643778049\nsamples = 3277", shape="box"] ;
45 -> 46 ;
47 [label="X[1960] <= 0.5000\ngini = 0.887864213828\nsamples = 2541", shape="box"] ;
46 -> 47 ;
48 [label="X[135] <= 0.5000\ngini = 0.88928885267\nsamples = 2497", shape="box"] ;
47 -> 48 ;
49 [label="X[2550] <= 0.5000\ngini = 0.888365085663\nsamples = 2484", shape="box"] ;
48 -> 49 ;
50 [label="X[2711] <= 0.5000\ngini = 0.8893165479\nsamples = 2464", shape="box"] ;
49 -> 50 ;
51 [label="X[2374] <= 0.5000\ngini = 0.889759814843\nsamples = 2397", shape="box"] ;
50 -> 51 ;
52 [label="X[2726] <= 0.5000\ngini = 0.890871567856\nsamples = 2189", shape="box"] ;
51 -> 52 ;
53 [label="X[1795] <= 0.5000\ngini = 0.890485646862\nsamples = 2173", shape="box"] ;
52 -> 53 ;
54 [label="X[2646] <= 0.5000\ngini = 0.88922891024\nsamples = 2157", shape="box"] ;
53 -> 54 ;
55 [label="X[1964] <= 0.5000\ngini = 0.888560765727\nsamples = 2143", shape="box"] ;
54 -> 55 ;
56 [label="X[1044] <= 0.5000\ngini = 0.889040816327\nsamples = 2100", shape="box"] ;
55 -> 56 ;
57 [label="X[569] <= 0.5000\ngini = 0.891552459916\nsamples = 1717", shape="box"] ;
56 -> 57 ;
58 [label="X[2913] <= 0.5000\ngini = 0.893221252001\nsamples = 1615", shape="box"] ;
57 -> 58 ;
59 [label="X[919] <= 0.5000\ngini = 0.894870020464\nsamples = 1602", shape="box"] ;
58 -> 59 ;
60 [label="X[2954] <= 0.5000\ngini = 0.895592466037\nsamples = 1581", shape="box"] ;
59 -> 60 ;
61 [label="X[656] <= 0.5000\ngini = 0.894380934989\nsamples = 1480", shape="box"] ;
60 -> 61 ;
62 [label="X[139] <= 0.5000\ngini = 0.8896310837\nsamples = 1405", shape="box"] ;
61 -> 62 ;
63 [label="X[863] <= 0.5000\ngini = 0.894180435836\nsamples = 1326", shape="box"] ;
62 -> 63 ;
64 [label="X[239] <= 0.5000\ngini = 0.893813206425\nsamples = 1312", shape="box"] ;
63 -> 64 ;
65 [label="X[626] <= 0.5000\ngini = 0.895621301775\nsamples = 1300", shape="box"] ;
64 -> 65 ;
66 [label="X[1974] <= 0.5000\ngini = 0.891985613135\nsamples = 1245", shape="box"] ;
65 -> 66 ;
67 [label="X[340] <= 0.5000\ngini = 0.893574790409\nsamples = 1229", shape="box"] ;
66 -> 67 ;
68 [label="X[1494] <= 0.5000\ngini = 0.892473797366\nsamples = 1220", shape="box"] ;
67 -> 68 ;
69 [label="X[671] <= 0.5000\ngini = 0.891811733819\nsamples = 1191", shape="box"] ;
68 -> 69 ;
70 [label="X[1972] <= 0.5000\ngini = 0.893819734935\nsamples = 1153", shape="box"] ;
69 -> 70 ;
71 [label="X[2986] <= 0.5000\ngini = 0.895998514153\nsamples = 1132", shape="box"] ;
70 -> 71 ;
72 [label="X[549] <= 0.5000\ngini = 0.894883869929\nsamples = 1123", shape="box"] ;
71 -> 72 ;
73 [label="X[2097] <= 0.5000\ngini = 0.892837448071\nsamples = 1094", shape="box"] ;
72 -> 73 ;
74 [label="X[1660] <= 0.5000\ngini = 0.8938019495\nsamples = 1085", shape="box"] ;
73 -> 74 ;
75 [label="X[2466] <= 0.5000\ngini = 0.894770482489\nsamples = 1048", shape="box"] ;
74 -> 75 ;
76 [label="X[1608] <= 0.5000\ngini = 0.894380853278\nsamples = 992", shape="box"] ;
75 -> 76 ;
77 [label="X[2159] <= 0.5000\ngini = 0.893641657659\nsamples = 987", shape="box"] ;
76 -> 77 ;
78 [label="X[1737] <= 0.5000\ngini = 0.895101224903\nsamples = 978", shape="box"] ;
77 -> 78 ;
79 [label="X[2086] <= 0.5000\ngini = 0.894395333828\nsamples = 973", shape="box"] ;
78 -> 79 ;
80 [label="X[708] <= 0.5000\ngini = 0.894107301414\nsamples = 968", shape="box"] ;
79 -> 80 ;
81 [label="X[925] <= 0.5000\ngini = 0.893336097135\nsamples = 798", shape="box"] ;
80 -> 81 ;
82 [label="X[1013] <= 0.5000\ngini = 0.892020054948\nsamples = 791", shape="box"] ;
81 -> 82 ;
83 [label="X[415] <= 0.5000\ngini = 0.887648966975\nsamples = 611", shape="box"] ;
82 -> 83 ;
84 [label="X[2982] <= 0.5000\ngini = 0.888851854382\nsamples = 605", shape="box"] ;
83 -> 84 ;
85 [label="X[1949] <= 0.5000\ngini = 0.887009093858\nsamples = 598", shape="box"] ;
84 -> 85 ;
86 [label="X[2341] <= 0.5000\ngini = 0.888096922936\nsamples = 592", shape="box"] ;
85 -> 86 ;
87 [label="X[870] <= 0.5000\ngini = 0.886405199828\nsamples = 586", shape="box"] ;
86 -> 87 ;
88 [label="X[859] <= 0.5000\ngini = 0.886233895503\nsamples = 581", shape="box"] ;
87 -> 88 ;
89 [label="X[1438] <= 0.5000\ngini = 0.886868051385\nsamples = 561", shape="box"] ;
88 -> 89 ;
90 [label="X[2298] <= 0.5000\ngini = 0.885495199018\nsamples = 557", shape="box"] ;
89 -> 90 ;
91 [label="X[548] <= 0.5000\ngini = 0.886151806343\nsamples = 552", shape="box"] ;
90 -> 91 ;
92 [label="X[2682] <= 0.5000\ngini = 0.885601577909\nsamples = 546", shape="box"] ;
91 -> 92 ;
93 [label="X[1037] <= 0.5000\ngini = 0.884288067973\nsamples = 542", shape="box"] ;
92 -> 93 ;
94 [label="X[1518] <= 0.5000\ngini = 0.884283343523\nsamples = 535", shape="box"] ;
93 -> 94 ;
95 [label="X[597] <= 0.5000\ngini = 0.87868629004\nsamples = 466", shape="box"] ;
94 -> 95 ;
96 [label="X[2078] <= 0.5000\ngini = 0.869336782583\nsamples = 418", shape="box"] ;
95 -> 96 ;
97 [label="X[536] <= 0.5000\ngini = 0.869320170832\nsamples = 414", shape="box"] ;
96 -> 97 ;
98 [label="X[796] <= 0.5000\ngini = 0.859463521794\nsamples = 372", shape="box"] ;
97 -> 98 ;
99 [label="X[2349] <= 0.5000\ngini = 0.857675839631\nsamples = 369", shape="box"] ;
98 -> 99 ;
100 [label="X[1720] <= 0.5000\ngini = 0.860166288738\nsamples = 252", shape="box"] ;
99 -> 100 ;
101 [label="X[1386] <= 0.5000\ngini = 0.865739275302\nsamples = 245", shape="box"] ;
100 -> 101 ;
102 [label="X[692] <= 0.5000\ngini = 0.87600076451\nsamples = 217", shape="box"] ;
101 -> 102 ;
103 [label="X[2770] <= 0.5000\ngini = 0.881202129332\nsamples = 211", shape="box"] ;
102 -> 103 ;
104 [label="X[1609] <= 0.5000\ngini = 0.879833795014\nsamples = 190", shape="box"] ;
103 -> 104 ;
105 [label="X[522] <= 0.5000\ngini = 0.878136200717\nsamples = 186", shape="box"] ;
104 -> 105 ;
106 [label="X[2226] <= 0.5000\ngini = 0.885324430251\nsamples = 166", shape="box"] ;
105 -> 106 ;
107 [label="X[793] <= 0.5000\ngini = 0.883113800878\nsamples = 159", shape="box"] ;
106 -> 107 ;
108 [label="X[2056] <= 0.5000\ngini = 0.880765953994\nsamples = 157", shape="box"] ;
107 -> 108 ;
109 [label="X[2114] <= 0.5000\ngini = 0.878335067638\nsamples = 155", shape="box"] ;
108 -> 109 ;
110 [label="X[2394] <= 0.5000\ngini = 0.87806855547\nsamples = 149", shape="box"] ;
109 -> 110 ;
111 [label="X[2448] <= 0.5000\ngini = 0.875468554769\nsamples = 147", shape="box"] ;
110 -> 111 ;
112 [label="X[130] <= 0.5000\ngini = 0.87084943029\nsamples = 143", shape="box"] ;
111 -> 112 ;
113 [label="X[2362] <= 0.5000\ngini = 0.867561993863\nsamples = 141", shape="box"] ;
112 -> 113 ;
114 [label="X[1971] <= 0.5000\ngini = 0.86475855287\nsamples = 139", shape="box"] ;
113 -> 114 ;
115 [label="X[2691] <= 0.5000\ngini = 0.869593425606\nsamples = 136", shape="box"] ;
114 -> 115 ;
116 [label="X[2077] <= 0.5000\ngini = 0.86700824237\nsamples = 134", shape="box"] ;
115 -> 116 ;
117 [label="X[320] <= 0.5000\ngini = 0.86753902663\nsamples = 132", shape="box"] ;
116 -> 117 ;
118 [label="X[2647] <= 0.5000\ngini = 0.87506975014\nsamples = 127", shape="box"] ;
117 -> 118 ;
119 [label="X[676] <= 0.5000\ngini = 0.839907955293\nsamples = 78", shape="box"] ;
118 -> 119 ;
120 [label="X[462] <= 0.5000\ngini = 0.850065678364\nsamples = 73", shape="box"] ;
119 -> 120 ;
121 [label="X[184] <= 0.5000\ngini = 0.854195596112\nsamples = 71", shape="box"] ;
120 -> 121 ;
122 [label="X[616] <= 0.5000\ngini = 0.86375432526\nsamples = 68", shape="box"] ;
121 -> 122 ;
123 [label="X[1305] <= 0.5000\ngini = 0.868227731864\nsamples = 66", shape="box"] ;
122 -> 123 ;
124 [label="X[1004] <= 0.5000\ngini = 0.870196183822\nsamples = 61", shape="box"] ;
123 -> 124 ;
125 [label="X[1941] <= 0.5000\ngini = 0.870986920333\nsamples = 58", shape="box"] ;
124 -> 125 ;
126 [label="X[2553] <= 0.5000\ngini = 0.871404958678\nsamples = 55", shape="box"] ;
125 -> 126 ;
127 [label="X[2922] <= 0.5000\ngini = 0.86365254539\nsamples = 53", shape="box"] ;
126 -> 127 ;
128 [label="X[1873] <= 0.5000\ngini = 0.840236686391\nsamples = 39", shape="box"] ;
127 -> 128 ;
129 [label="X[1667] <= 0.5000\ngini = 0.826880934989\nsamples = 37", shape="box"] ;
128 -> 129 ;
130 [label="X[196] <= 0.5000\ngini = 0.809795918367\nsamples = 35", shape="box"] ;
129 -> 130 ;
131 [label="X[743] <= 0.5000\ngini = 0.791551882461\nsamples = 33", shape="box"] ;
130 -> 131 ;
132 [label="X[2839] <= 0.5000\ngini = 0.779296875\nsamples = 32", shape="box"] ;
131 -> 132 ;
133 [label="X[1961] <= 0.5000\ngini = 0.765868886576\nsamples = 31", shape="box"] ;
132 -> 133 ;
134 [label="X[1371] <= 0.5000\ngini = 0.751111111111\nsamples = 30", shape="box"] ;
133 -> 134 ;
135 [label="X[2027] <= 0.5000\ngini = 0.734839476813\nsamples = 29", shape="box"] ;
134 -> 135 ;
136 [label="X[1157] <= 0.5000\ngini = 0.716836734694\nsamples = 28", shape="box"] ;
135 -> 136 ;
137 [label="X[2462] <= 0.5000\ngini = 0.696844993141\nsamples = 27", shape="box"] ;
136 -> 137 ;
138 [label="X[2620] <= 0.5000\ngini = 0.674556213018\nsamples = 26", shape="box"] ;
137 -> 138 ;
139 [label="X[160] <= 0.5000\ngini = 0.6528\nsamples = 25", shape="box"] ;
138 -> 139 ;
140 [label="X[1190] <= 0.5000\ngini = 0.625\nsamples = 24", shape="box"] ;
139 -> 140 ;
141 [label="X[653] <= 0.5000\ngini = 0.61247637051\nsamples = 23", shape="box"] ;
140 -> 141 ;
142 [label="X[446] <= 0.5000\ngini = 0.595041322314\nsamples = 22", shape="box"] ;
141 -> 142 ;
143 [label="X[1505] <= 0.5000\ngini = 0.571428571429\nsamples = 21", shape="box"] ;
142 -> 143 ;
144 [label="X[1496] <= 0.5000\ngini = 0.54\nsamples = 20", shape="box"] ;
143 -> 144 ;
145 [label="X[980] <= 0.5000\ngini = 0.498614958449\nsamples = 19", shape="box"] ;
144 -> 145 ;
146 [label="X[1234] <= 0.5000\ngini = 0.444444444444\nsamples = 18", shape="box"] ;
145 -> 146 ;
147 [label="X[32] <= 0.5000\ngini = 0.415224913495\nsamples = 17", shape="box"] ;
146 -> 147 ;
148 [label="X[1204] <= 0.5000\ngini = 0.375\nsamples = 16", shape="box"] ;
147 -> 148 ;
149 [label="X[2413] <= 0.5000\ngini = 0.32\nsamples = 15", shape="box"] ;
148 -> 149 ;
150 [label="X[1878] <= 0.5000\ngini = 0.244897959184\nsamples = 14", shape="box"] ;
149 -> 150 ;
151 [label="X[2379] <= 0.5000\ngini = 0.14201183432\nsamples = 13", shape="box"] ;
150 -> 151 ;
152 [label="gini = 0.0000\nsamples = 12\nvalue = [  0.   0.   0.   0.   0.  12.   0.   0.   0.   0.   0.   0.   0.   0.   0.
   0.   0.   0.   0.   0.]", shape="box"] ;
151 -> 152 ;
153 [label="gini = 0.0000\nsamples = 1\nvalue = [ 0.  0.  0.  0.  0.  0.  0.  0.  0.  1.  0.  0.  0.  0.  0.  0.  0.  0.
  0.  0.]", shape="box"] ;
151 -> 153 ;
154 [label="gini = 0.0000\nsamples = 1\nvalue = [ 0.  0.  0.  0.  0.  0.  0.  0.  0.  1.  0.  0.  0.  0.  0.  0.  0.  0.
  0.  0.]", shape="box"] ;
150 -> 154 ;
155 [label="gini = 0.0000\nsamples = 1\nvalue = [ 0.  0.  0.  0.  0.  0.  0.  0.  0.  1.  0.  0.  0.  0.  0.  0.  0.  0.
  0.  0.]", shape="box"] ;
149 -> 155 ;
156 [label="gini = 0.0000\nsamples = 1\nvalue = [ 0.  0.  0.  0.  0.  0.  0.  0.  0.  1.  0.  0.  0.  0.  0.  0.  0.  0.
  0.  0.]", shape="box"] ;
148 -> 156 ;
157 [label="gini = 0.0000\nsamples = 1\nvalue = [ 0.  0.  0.  0.  0.  0.  0.  0.  0.  1.  0.  0.  0.  0.  0.  0.  0.  0.
  0.  0.]", shape="box"] ;
147 -> 157 ;
158 [label="gini = 0.0000\nsamples = 1\nvalue = [ 0.  0.  0.  0.  0.  0.  0.  0.  0.  1.  0.  0.  0.  0.  0.  0.  0.  0.
  0.  0.]", shape="box"] ;
146 -> 158 ;
159 [label="gini = 0.0000\nsamples = 1\nvalue = [ 0.  0.  0.  0.  0.  0.  0.  0.  0.  0.  0.  0.  0.  0.  0.  0.  1.  0.
  0.  0.]", shape="box"] ;
145 -> 159 ;
160 [label="gini = 0.0000\nsamples = 1\nvalue = [ 0.  0.  0.  0.  0.  0.  0.  0.  0.  0.  0.  0.  0.  0.  0.  0.  1.  0.
  0.  0.]", shape="box"] ;
144 -> 160 ;
161 [label="gini = 0.0000\nsamples = 1\nvalue = [ 0.  0.  0.  0.  0.  0.  0.  0.  0.  0.  0.  0.  0.  0.  0.  0.  1.  0.
  0.  0.]", shape="box"] ;
143 -> 161 ;
162 [label="gini = 0.0000\nsamples = 1\nvalue = [ 0.  0.  0.  0.  0.  0.  0.  0.  0.  0.  0.  0.  0.  0.  0.  0.  1.  0.
  0.  0.]", shape="box"] ;
142 -> 162 ;
163 [label="gini = 0.0000\nsamples = 1\nvalue = [ 0.  0.  0.  0.  0.  0.  0.  0.  0.  0.  0.  0.  0.  0.  0.  0.  1.  0.
  0.  0.]", shape="box"] ;
141 -> 163 ;
164 [label="gini = 0.0000\nsamples = 1\nvalue = [ 0.  0.  0.  0.  0.  0.  0.  0.  0.  0.  0.  0.  0.  0.  0.  0.  1.  0.
  0.  0.]", shape="box"] ;
140 -> 164 ;
165 [label="gini = 0.0000\nsamples = 1\nvalue = [ 0.  0.  0.  0.  0.  0.  0.  0.  1.  0.  0.  0.  0.  0.  0.  0.  0.  0.
  0.  0.]", shape="box"] ;
139 -> 165 ;
166 [label="gini = 0.0000\nsamples = 1\nvalue = [ 0.  0.  0.  0.  0.  0.  0.  0.  1.  0.  0.  0.  0.  0.  0.  0.  0.  0.
  0.  0.]", shape="box"] ;
138 -> 166 ;
167 [label="gini = 0.0000\nsamples = 1\nvalue = [ 0.  0.  0.  0.  0.  0.  0.  0.  0.  0.  0.  0.  1.  0.  0.  0.  0.  0.
  0.  0.]", shape="box"] ;
137 -> 167 ;
168 [label="gini = 0.0000\nsamples = 1\nvalue = [ 0.  0.  0.  0.  0.  0.  0.  0.  0.  0.  0.  0.  0.  0.  0.  0.  0.  0.
  1.  0.]", shape="box"] ;
136 -> 168 ;
169 [label="gini = 0.0000\nsamples = 1\nvalue = [ 0.  0.  0.  0.  0.  0.  1.  0.  0.  0.  0.  0.  0.  0.  0.  0.  0.  0.
  0.  0.]", shape="box"] ;
135 -> 169 ;
170 [label="gini = 0.0000\nsamples = 1\nvalue = [ 0.  1.  0.  0.  0.  0.  0.  0.  0.  0.  0.  0.  0.  0.  0.  0.  0.  0.
  0.  0.]", shape="box"] ;
134 -> 170 ;
171 [label="gini = 0.0000\nsamples = 1\nvalue = [ 0.  0.  0.  0.  0.  0.  0.  1.  0.  0.  0.  0.  0.  0.  0.  0.  0.  0.
  0.  0.]", shape="box"] ;
133 -> 171 ;
172 [label="gini = 0.0000\nsamples = 1\nvalue = [ 0.  0.  0.  0.  0.  0.  0.  0.  0.  0.  0.  1.  0.  0.  0.  0.  0.  0.
  0.  0.]", shape="box"] ;
132 -> 172 ;
173 [label="gini = 0.0000\nsamples = 1\nvalue = [ 0.  0.  0.  1.  0.  0.  0.  0.  0.  0.  0.  0.  0.  0.  0.  0.  0.  0.
  0.  0.]", shape="box"] ;
131 -> 173 ;
174 [label="X[1216] <= 0.5000\ngini = 0.5\nsamples = 2", shape="box"] ;
130 -> 174 ;
175 [label="gini = 0.0000\nsamples = 1\nvalue = [ 0.  0.  0.  0.  0.  0.  0.  0.  0.  0.  0.  0.  0.  1.  0.  0.  0.  0.
  0.  0.]", shape="box"] ;
174 -> 175 ;
176 [label="gini = 0.0000\nsamples = 1\nvalue = [ 0.  0.  0.  0.  0.  0.  0.  0.  1.  0.  0.  0.  0.  0.  0.  0.  0.  0.
  0.  0.]", shape="box"] ;
174 -> 176 ;
177 [label="X[194] <= 0.5000\ngini = 0.5\nsamples = 2", shape="box"] ;
129 -> 177 ;
178 [label="gini = 0.0000\nsamples = 1\nvalue = [ 0.  0.  0.  0.  0.  0.  0.  0.  0.  0.  0.  0.  0.  0.  0.  0.  0.  0.
  0.  1.]", shape="box"] ;
177 -> 178 ;
179 [label="gini = 0.0000\nsamples = 1\nvalue = [ 0.  0.  0.  0.  0.  0.  0.  0.  0.  0.  0.  0.  1.  0.  0.  0.  0.  0.
  0.  0.]", shape="box"] ;
177 -> 179 ;
180 [label="X[562] <= 0.5000\ngini = 0.5\nsamples = 2", shape="box"] ;
128 -> 180 ;
181 [label="gini = 0.0000\nsamples = 1\nvalue = [ 0.  0.  0.  0.  0.  0.  0.  0.  0.  0.  0.  1.  0.  0.  0.  0.  0.  0.
  0.  0.]", shape="box"] ;
180 -> 181 ;
182 [label="gini = 0.0000\nsamples = 1\nvalue = [ 0.  0.  0.  0.  0.  0.  0.  0.  0.  0.  0.  0.  0.  1.  0.  0.  0.  0.
  0.  0.]", shape="box"] ;
180 -> 182 ;
183 [label="X[284] <= 0.5000\ngini = 0.84693877551\nsamples = 14", shape="box"] ;
127 -> 183 ;
184 [label="X[629] <= 0.5000\ngini = 0.828402366864\nsamples = 13", shape="box"] ;
183 -> 184 ;
185 [label="X[166] <= 0.5000\ngini = 0.8\nsamples = 10", shape="box"] ;
184 -> 185 ;
186 [label="X[89] <= 0.5000\ngini = 0.765432098765\nsamples = 9", shape="box"] ;
185 -> 186 ;
187 [label="X[1979] <= 0.5000\ngini = 0.71875\nsamples = 8", shape="box"] ;
186 -> 187 ;
188 [label="X[19] <= 0.5000\ngini = 0.65306122449\nsamples = 7", shape="box"] ;
187 -> 188 ;
189 [label="X[2526] <= 0.5000\ngini = 0.611111111111\nsamples = 6", shape="box"] ;
188 -> 189 ;
190 [label="X[1421] <= 0.5000\ngini = 0.48\nsamples = 5", shape="box"] ;
189 -> 190 ;
191 [label="X[824] <= 0.5000\ngini = 0.375\nsamples = 4", shape="box"] ;
190 -> 191 ;
192 [label="X[1779] <= 0.5000\ngini = 0.444444444444\nsamples = 3", shape="box"] ;
191 -> 192 ;
193 [label="X[194] <= 0.5000\ngini = 0.5\nsamples = 2", shape="box"] ;
192 -> 193 ;
194 [label="gini = 0.0000\nsamples = 1\nvalue = [ 0.  0.  0.  0.  0.  0.  0.  0.  0.  0.  0.  1.  0.  0.  0.  0.  0.  0.
  0.  0.]", shape="box"] ;
193 -> 194 ;
195 [label="gini = 0.0000\nsamples = 1\nvalue = [ 0.  0.  0.  0.  0.  0.  0.  0.  0.  0.  0.  0.  0.  0.  0.  0.  1.  0.
  0.  0.]", shape="box"] ;
193 -> 195 ;
196 [label="gini = 0.0000\nsamples = 1\nvalue = [ 0.  0.  0.  0.  0.  0.  0.  0.  0.  0.  0.  0.  0.  0.  0.  0.  1.  0.
  0.  0.]", shape="box"] ;
192 -> 196 ;
197 [label="gini = 0.0000\nsamples = 1\nvalue = [ 0.  0.  0.  0.  0.  0.  0.  0.  0.  0.  0.  0.  0.  0.  0.  0.  1.  0.
  0.  0.]", shape="box"] ;
191 -> 197 ;
198 [label="gini = 0.0000\nsamples = 1\nvalue = [ 0.  0.  0.  0.  0.  0.  0.  0.  0.  0.  0.  1.  0.  0.  0.  0.  0.  0.
  0.  0.]", shape="box"] ;
190 -> 198 ;
199 [label="gini = 0.0000\nsamples = 1\nvalue = [ 0.  0.  0.  0.  0.  0.  0.  0.  0.  1.  0.  0.  0.  0.  0.  0.  0.  0.
  0.  0.]", shape="box"] ;
189 -> 199 ;
200 [label="gini = 0.0000\nsamples = 1\nvalue = [ 0.  0.  0.  0.  0.  0.  0.  0.  0.  1.  0.  0.  0.  0.  0.  0.  0.  0.
  0.  0.]", shape="box"] ;
188 -> 200 ;
201 [label="gini = 0.0000\nsamples = 1\nvalue = [ 0.  0.  0.  0.  1.  0.  0.  0.  0.  0.  0.  0.  0.  0.  0.  0.  0.  0.
  0.  0.]", shape="box"] ;
187 -> 201 ;
202 [label="gini = 0.0000\nsamples = 1\nvalue = [ 0.  0.  0.  0.  0.  1.  0.  0.  0.  0.  0.  0.  0.  0.  0.  0.  0.  0.
  0.  0.]", shape="box"] ;
186 -> 202 ;
203 [label="gini = 0.0000\nsamples = 1\nvalue = [ 0.  0.  0.  0.  0.  0.  0.  0.  0.  0.  0.  0.  1.  0.  0.  0.  0.  0.
  0.  0.]", shape="box"] ;
185 -> 203 ;
204 [label="X[625] <= 0.5000\ngini = 0.444444444444\nsamples = 3", shape="box"] ;
184 -> 204 ;
205 [label="gini = 0.0000\nsamples = 2\nvalue = [ 0.  0.  2.  0.  0.  0.  0.  0.  0.  0.  0.  0.  0.  0.  0.  0.  0.  0.
  0.  0.]", shape="box"] ;
204 -> 205 ;
206 [label="gini = 0.0000\nsamples = 1\nvalue = [ 0.  0.  0.  0.  0.  0.  0.  0.  0.  1.  0.  0.  0.  0.  0.  0.  0.  0.
  0.  0.]", shape="box"] ;
204 -> 206 ;
207 [label="gini = 0.0000\nsamples = 1\nvalue = [ 0.  0.  0.  0.  0.  0.  0.  0.  0.  0.  0.  0.  0.  0.  0.  0.  0.  0.
  0.  1.]", shape="box"] ;
183 -> 207 ;
208 [label="X[152] <= 0.5000\ngini = 0.5\nsamples = 2", shape="box"] ;
126 -> 208 ;
209 [label="gini = 0.0000\nsamples = 1\nvalue = [ 0.  0.  0.  0.  0.  0.  0.  0.  0.  0.  0.  0.  0.  0.  0.  0.  0.  1.
  0.  0.]", shape="box"] ;
208 -> 209 ;
210 [label="gini = 0.0000\nsamples = 1\nvalue = [ 0.  0.  0.  0.  0.  0.  0.  0.  0.  0.  0.  0.  0.  1.  0.  0.  0.  0.
  0.  0.]", shape="box"] ;
208 -> 210 ;
211 [label="X[2664] <= 0.5000\ngini = 0.444444444444\nsamples = 3", shape="box"] ;
125 -> 211 ;
212 [label="gini = 0.0000\nsamples = 2\nvalue = [ 0.  0.  0.  0.  0.  0.  0.  0.  0.  0.  0.  0.  0.  0.  0.  0.  2.  0.
  0.  0.]", shape="box"] ;
211 -> 212 ;
213 [label="gini = 0.0000\nsamples = 1\nvalue = [ 0.  0.  1.  0.  0.  0.  0.  0.  0.  0.  0.  0.  0.  0.  0.  0.  0.  0.
  0.  0.]", shape="box"] ;
211 -> 213 ;
214 [label="X[629] <= 0.5000\ngini = 0.444444444444\nsamples = 3", shape="box"] ;
124 -> 214 ;
215 [label="gini = 0.0000\nsamples = 2\nvalue = [ 0.  0.  0.  0.  0.  0.  0.  0.  0.  0.  0.  0.  0.  0.  0.  0.  2.  0.
  0.  0.]", shape="box"] ;
214 -> 215 ;
216 [label="gini = 0.0000\nsamples = 1\nvalue = [ 0.  0.  0.  0.  0.  0.  0.  0.  0.  0.  1.  0.  0.  0.  0.  0.  0.  0.
  0.  0.]", shape="box"] ;
214 -> 216 ;
217 [label="X[593] <= 0.5000\ngini = 0.56\nsamples = 5", shape="box"] ;
123 -> 217 ;
218 [label="X[1987] <= 0.5000\ngini = 0.375\nsamples = 4", shape="box"] ;
217 -> 218 ;
219 [label="gini = 0.0000\nsamples = 3\nvalue = [ 0.  0.  0.  0.  0.  0.  0.  0.  0.  0.  0.  0.  0.  0.  0.  0.  3.  0.
  0.  0.]", shape="box"] ;
218 -> 219 ;
220 [label="gini = 0.0000\nsamples = 1\nvalue = [ 0.  0.  0.  0.  0.  0.  0.  0.  0.  0.  0.  0.  0.  0.  0.  0.  0.  1.
  0.  0.]", shape="box"] ;
218 -> 220 ;
221 [label="gini = 0.0000\nsamples = 1\nvalue = [ 0.  0.  0.  0.  0.  0.  0.  0.  0.  0.  0.  0.  0.  0.  1.  0.  0.  0.
  0.  0.]", shape="box"] ;
217 -> 221 ;
222 [label="gini = 0.0000\nsamples = 2\nvalue = [ 0.  0.  0.  0.  0.  2.  0.  0.  0.  0.  0.  0.  0.  0.  0.  0.  0.  0.
  0.  0.]", shape="box"] ;
122 -> 222 ;
223 [label="gini = 0.0000\nsamples = 3\nvalue = [ 0.  0.  0.  0.  0.  0.  0.  0.  0.  0.  0.  0.  0.  0.  0.  0.  3.  0.
  0.  0.]", shape="box"] ;
121 -> 223 ;
224 [label="gini = 0.0000\nsamples = 2\nvalue = [ 0.  0.  0.  0.  0.  2.  0.  0.  0.  0.  0.  0.  0.  0.  0.  0.  0.  0.
  0.  0.]", shape="box"] ;
120 -> 224 ;
225 [label="X[2098] <= 0.5000\ngini = 0.32\nsamples = 5", shape="box"] ;
119 -> 225 ;
226 [label="gini = 0.0000\nsamples = 4\nvalue = [ 0.  0.  0.  0.  0.  0.  0.  0.  0.  0.  0.  0.  0.  0.  0.  0.  4.  0.
  0.  0.]", shape="box"] ;
225 -> 226 ;
227 [label="gini = 0.0000\nsamples = 1\nvalue = [ 0.  0.  1.  0.  0.  0.  0.  0.  0.  0.  0.  0.  0.  0.  0.  0.  0.  0.
  0.  0.]", shape="box"] ;
225 -> 227 ;
228 [label="X[2243] <= 0.5000\ngini = 0.894627238651\nsamples = 49", shape="box"] ;
118 -> 228 ;
229 [label="X[2769] <= 0.5000\ngini = 0.899954730647\nsamples = 47", shape="box"] ;
228 -> 229 ;
230 [label="X[2161] <= 0.5000\ngini = 0.892839506173\nsamples = 45", shape="box"] ;
229 -> 230 ;
231 [label="X[1873] <= 0.5000\ngini = 0.902109248242\nsamples = 43", shape="box"] ;
230 -> 231 ;
232 [label="X[861] <= 0.5000\ngini = 0.894705532421\nsamples = 41", shape="box"] ;
231 -> 232 ;
233 [label="X[1024] <= 0.5000\ngini = 0.886259040105\nsamples = 39", shape="box"] ;
232 -> 233 ;
234 [label="X[2059] <= 0.5000\ngini = 0.876552227904\nsamples = 37", shape="box"] ;
233 -> 234 ;
235 [label="X[2911] <= 0.5000\ngini = 0.87037037037\nsamples = 36", shape="box"] ;
234 -> 235 ;
236 [label="X[466] <= 0.5000\ngini = 0.863673469388\nsamples = 35", shape="box"] ;
235 -> 236 ;
237 [label="X[2523] <= 0.5000\ngini = 0.856401384083\nsamples = 34", shape="box"] ;
236 -> 237 ;
238 [label="X[156] <= 0.5000\ngini = 0.84375\nsamples = 32", shape="box"] ;
237 -> 238 ;
239 [label="X[2922] <= 1.5000\ngini = 0.81807372176\nsamples = 29", shape="box"] ;
238 -> 239 ;
240 [label="X[390] <= 0.5000\ngini = 0.80612244898\nsamples = 28", shape="box"] ;
239 -> 240 ;
241 [label="X[432] <= 0.5000\ngini = 0.792866941015\nsamples = 27", shape="box"] ;
240 -> 241 ;
242 [label="X[1713] <= 0.5000\ngini = 0.781065088757\nsamples = 26", shape="box"] ;
241 -> 242 ;
243 [label="X[1119] <= 0.5000\ngini = 0.7648\nsamples = 25", shape="box"] ;
242 -> 243 ;
244 [label="X[2413] <= 0.5000\ngini = 0.75\nsamples = 24", shape="box"] ;
243 -> 244 ;
245 [label="X[977] <= 0.5000\ngini = 0.729678638941\nsamples = 23", shape="box"] ;
244 -> 245 ;
246 [label="X[1777] <= 0.5000\ngini = 0.723140495868\nsamples = 22", shape="box"] ;
245 -> 246 ;
247 [label="X[1493] <= 0.5000\ngini = 0.702947845805\nsamples = 21", shape="box"] ;
246 -> 247 ;
248 [label="X[1191] <= 0.5000\ngini = 0.675\nsamples = 20", shape="box"] ;
247 -> 248 ;
249 [label="X[1984] <= 0.5000\ngini = 0.659279778393\nsamples = 19", shape="box"] ;
248 -> 249 ;
250 [label="X[2713] <= 0.5000\ngini = 0.635802469136\nsamples = 18", shape="box"] ;
249 -> 250 ;
251 [label="X[629] <= 0.5000\ngini = 0.602076124567\nsamples = 17", shape="box"] ;
250 -> 251 ;
252 [label="X[2869] <= 0.5000\ngini = 0.56\nsamples = 15", shape="box"] ;
251 -> 252 ;
253 [label="X[2694] <= 0.5000\ngini = 0.486111111111\nsamples = 12", shape="box"] ;
252 -> 253 ;
254 [label="X[2918] <= 0.5000\ngini = 0.462809917355\nsamples = 11", shape="box"] ;
253 -> 254 ;
255 [label="X[1546] <= 0.5000\ngini = 0.42\nsamples = 10", shape="box"] ;
254 -> 255 ;
256 [label="X[898] <= 0.5000\ngini = 0.345679012346\nsamples = 9", shape="box"] ;
255 -> 256 ;
257 [label="X[50] <= 0.5000\ngini = 0.244897959184\nsamples = 7", shape="box"] ;
256 -> 257 ;
258 [label="gini = 0.0000\nsamples = 5\nvalue = [ 0.  0.  0.  0.  0.  0.  0.  0.  0.  5.  0.  0.  0.  0.  0.  0.  0.  0.
  0.  0.]", shape="box"] ;
257 -> 258 ;
259 [label="X[928] <= 0.5000\ngini = 0.5\nsamples = 2", shape="box"] ;
257 -> 259 ;
260 [label="gini = 0.0000\nsamples = 1\nvalue = [ 0.  0.  0.  0.  0.  1.  0.  0.  0.  0.  0.  0.  0.  0.  0.  0.  0.  0.
  0.  0.]", shape="box"] ;
259 -> 260 ;
261 [label="gini = 0.0000\nsamples = 1\nvalue = [ 0.  0.  0.  0.  0.  0.  0.  0.  0.  1.  0.  0.  0.  0.  0.  0.  0.  0.
  0.  0.]", shape="box"] ;
259 -> 261 ;
262 [label="X[850] <= 0.5000\ngini = 0.5\nsamples = 2", shape="box"] ;
256 -> 262 ;
263 [label="gini = 0.0000\nsamples = 1\nvalue = [ 0.  0.  0.  0.  0.  1.  0.  0.  0.  0.  0.  0.  0.  0.  0.  0.  0.  0.
  0.  0.]", shape="box"] ;
262 -> 263 ;
264 [label="gini = 0.0000\nsamples = 1\nvalue = [ 0.  0.  0.  0.  0.  0.  0.  0.  0.  1.  0.  0.  0.  0.  0.  0.  0.  0.
  0.  0.]", shape="box"] ;
262 -> 264 ;
265 [label="gini = 0.0000\nsamples = 1\nvalue = [ 0.  0.  0.  0.  0.  1.  0.  0.  0.  0.  0.  0.  0.  0.  0.  0.  0.  0.
  0.  0.]", shape="box"] ;
255 -> 265 ;
266 [label="gini = 0.0000\nsamples = 1\nvalue = [ 0.  0.  0.  0.  0.  1.  0.  0.  0.  0.  0.  0.  0.  0.  0.  0.  0.  0.
  0.  0.]", shape="box"] ;
254 -> 266 ;
267 [label="gini = 0.0000\nsamples = 1\nvalue = [ 0.  0.  0.  0.  0.  1.  0.  0.  0.  0.  0.  0.  0.  0.  0.  0.  0.  0.
  0.  0.]", shape="box"] ;
253 -> 267 ;
268 [label="X[2943] <= 0.5000\ngini = 0.444444444444\nsamples = 3", shape="box"] ;
252 -> 268 ;
269 [label="gini = 0.0000\nsamples = 2\nvalue = [ 0.  0.  0.  0.  0.  2.  0.  0.  0.  0.  0.  0.  0.  0.  0.  0.  0.  0.
  0.  0.]", shape="box"] ;
268 -> 269 ;
270 [label="gini = 0.0000\nsamples = 1\nvalue = [ 0.  0.  0.  0.  0.  0.  0.  0.  0.  0.  0.  0.  0.  0.  0.  0.  1.  0.
  0.  0.]", shape="box"] ;
268 -> 270 ;
271 [label="X[1178] <= 0.5000\ngini = 0.5\nsamples = 2", shape="box"] ;
251 -> 271 ;
272 [label="gini = 0.0000\nsamples = 1\nvalue = [ 0.  0.  0.  0.  0.  0.  1.  0.  0.  0.  0.  0.  0.  0.  0.  0.  0.  0.
  0.  0.]", shape="box"] ;
271 -> 272 ;
273 [label="gini = 0.0000\nsamples = 1\nvalue = [ 0.  0.  0.  0.  0.  0.  0.  0.  0.  1.  0.  0.  0.  0.  0.  0.  0.  0.
  0.  0.]", shape="box"] ;
271 -> 273 ;
274 [label="gini = 0.0000\nsamples = 1\nvalue = [ 0.  0.  0.  0.  0.  0.  0.  0.  0.  0.  0.  0.  0.  0.  0.  0.  1.  0.
  0.  0.]", shape="box"] ;
250 -> 274 ;
275 [label="gini = 0.0000\nsamples = 1\nvalue = [ 0.  0.  0.  0.  0.  0.  0.  0.  0.  0.  0.  0.  0.  0.  0.  0.  1.  0.
  0.  0.]", shape="box"] ;
249 -> 275 ;
276 [label="gini = 0.0000\nsamples = 1\nvalue = [ 0.  0.  0.  0.  0.  0.  0.  0.  0.  0.  0.  0.  0.  0.  0.  0.  1.  0.
  0.  0.]", shape="box"] ;
248 -> 276 ;
277 [label="gini = 0.0000\nsamples = 1\nvalue = [ 0.  0.  0.  0.  0.  0.  0.  0.  0.  0.  0.  0.  0.  0.  0.  0.  0.  0.
  1.  0.]", shape="box"] ;
247 -> 277 ;
278 [label="gini = 0.0000\nsamples = 1\nvalue = [ 0.  0.  0.  0.  0.  0.  0.  0.  0.  0.  0.  0.  0.  0.  0.  0.  0.  0.
  1.  0.]", shape="box"] ;
246 -> 278 ;
279 [label="gini = 0.0000\nsamples = 1\nvalue = [ 0.  0.  0.  0.  0.  0.  0.  0.  0.  0.  0.  0.  0.  0.  0.  0.  1.  0.
  0.  0.]", shape="box"] ;
245 -> 279 ;
280 [label="gini = 0.0000\nsamples = 1\nvalue = [ 0.  0.  0.  0.  0.  0.  0.  0.  0.  0.  1.  0.  0.  0.  0.  0.  0.  0.
  0.  0.]", shape="box"] ;
244 -> 280 ;
281 [label="gini = 0.0000\nsamples = 1\nvalue = [ 0.  0.  0.  0.  0.  0.  0.  0.  0.  0.  1.  0.  0.  0.  0.  0.  0.  0.
  0.  0.]", shape="box"] ;
243 -> 281 ;
282 [label="gini = 0.0000\nsamples = 1\nvalue = [ 0.  0.  0.  0.  1.  0.  0.  0.  0.  0.  0.  0.  0.  0.  0.  0.  0.  0.
  0.  0.]", shape="box"] ;
242 -> 282 ;
283 [label="gini = 0.0000\nsamples = 1\nvalue = [ 0.  0.  0.  0.  1.  0.  0.  0.  0.  0.  0.  0.  0.  0.  0.  0.  0.  0.
  0.  0.]", shape="box"] ;
241 -> 283 ;
284 [label="gini = 0.0000\nsamples = 1\nvalue = [ 1.  0.  0.  0.  0.  0.  0.  0.  0.  0.  0.  0.  0.  0.  0.  0.  0.  0.
  0.  0.]", shape="box"] ;
240 -> 284 ;
285 [label="gini = 0.0000\nsamples = 1\nvalue = [ 0.  0.  0.  0.  0.  0.  0.  0.  0.  0.  0.  0.  0.  0.  0.  0.  0.  0.
  0.  1.]", shape="box"] ;
239 -> 285 ;
286 [label="X[1707] <= 0.5000\ngini = 0.666666666667\nsamples = 3", shape="box"] ;
238 -> 286 ;
287 [label="X[898] <= 0.5000\ngini = 0.5\nsamples = 2", shape="box"] ;
286 -> 287 ;
288 [label="gini = 0.0000\nsamples = 1\nvalue = [ 0.  0.  0.  0.  1.  0.  0.  0.  0.  0.  0.  0.  0.  0.  0.  0.  0.  0.
  0.  0.]", shape="box"] ;
287 -> 288 ;
289 [label="gini = 0.0000\nsamples = 1\nvalue = [ 0.  0.  0.  0.  0.  0.  0.  0.  0.  0.  0.  0.  0.  0.  0.  0.  0.  1.
  0.  0.]", shape="box"] ;
287 -> 289 ;
290 [label="gini = 0.0000\nsamples = 1\nvalue = [ 0.  0.  0.  0.  0.  0.  0.  0.  0.  0.  0.  0.  0.  1.  0.  0.  0.  0.
  0.  0.]", shape="box"] ;
286 -> 290 ;
291 [label="X[2869] <= 0.5000\ngini = 0.5\nsamples = 2", shape="box"] ;
237 -> 291 ;
292 [label="gini = 0.0000\nsamples = 1\nvalue = [ 0.  0.  0.  0.  0.  0.  0.  0.  0.  0.  0.  0.  0.  0.  0.  0.  0.  1.
  0.  0.]", shape="box"] ;
291 -> 292 ;
293 [label="gini = 0.0000\nsamples = 1\nvalue = [ 0.  0.  0.  0.  0.  0.  0.  0.  0.  0.  0.  0.  0.  1.  0.  0.  0.  0.
  0.  0.]", shape="box"] ;
291 -> 293 ;
294 [label="gini = 0.0000\nsamples = 1\nvalue = [ 0.  0.  0.  0.  0.  0.  0.  1.  0.  0.  0.  0.  0.  0.  0.  0.  0.  0.
  0.  0.]", shape="box"] ;
236 -> 294 ;
295 [label="gini = 0.0000\nsamples = 1\nvalue = [ 0.  0.  0.  0.  0.  0.  0.  0.  0.  0.  0.  0.  0.  0.  0.  1.  0.  0.
  0.  0.]", shape="box"] ;
235 -> 295 ;
296 [label="gini = 0.0000\nsamples = 1\nvalue = [ 0.  0.  0.  0.  0.  0.  0.  0.  1.  0.  0.  0.  0.  0.  0.  0.  0.  0.
  0.  0.]", shape="box"] ;
234 -> 296 ;
297 [label="X[2133] <= 0.5000\ngini = 0.5\nsamples = 2", shape="box"] ;
233 -> 297 ;
298 [label="gini = 0.0000\nsamples = 1\nvalue = [ 0.  0.  0.  0.  0.  0.  0.  0.  0.  0.  0.  0.  0.  0.  1.  0.  0.  0.
  0.  0.]", shape="box"] ;
297 -> 298 ;
299 [label="gini = 0.0000\nsamples = 1\nvalue = [ 0.  0.  0.  0.  0.  0.  0.  0.  1.  0.  0.  0.  0.  0.  0.  0.  0.  0.
  0.  0.]", shape="box"] ;
297 -> 299 ;
300 [label="X[968] <= 0.5000\ngini = 0.5\nsamples = 2", shape="box"] ;
232 -> 300 ;
301 [label="gini = 0.0000\nsamples = 1\nvalue = [ 0.  0.  0.  0.  0.  0.  0.  0.  0.  0.  0.  0.  0.  0.  0.  1.  0.  0.
  0.  0.]", shape="box"] ;
300 -> 301 ;
302 [label="gini = 0.0000\nsamples = 1\nvalue = [ 0.  1.  0.  0.  0.  0.  0.  0.  0.  0.  0.  0.  0.  0.  0.  0.  0.  0.
  0.  0.]", shape="box"] ;
300 -> 302 ;
303 [label="X[2413] <= 0.5000\ngini = 0.5\nsamples = 2", shape="box"] ;
231 -> 303 ;
304 [label="gini = 0.0000\nsamples = 1\nvalue = [ 0.  0.  0.  0.  0.  0.  0.  0.  0.  0.  0.  1.  0.  0.  0.  0.  0.  0.
  0.  0.]", shape="box"] ;
303 -> 304 ;
305 [label="gini = 0.0000\nsamples = 1\nvalue = [ 0.  0.  0.  0.  0.  0.  0.  1.  0.  0.  0.  0.  0.  0.  0.  0.  0.  0.
  0.  0.]", shape="box"] ;
303 -> 305 ;
306 [label="gini = 0.0000\nsamples = 2\nvalue = [ 0.  0.  0.  0.  0.  0.  0.  0.  0.  2.  0.  0.  0.  0.  0.  0.  0.  0.
  0.  0.]", shape="box"] ;
230 -> 306 ;
307 [label="gini = 0.0000\nsamples = 2\nvalue = [ 0.  0.  0.  2.  0.  0.  0.  0.  0.  0.  0.  0.  0.  0.  0.  0.  0.  0.
  0.  0.]", shape="box"] ;
229 -> 307 ;
308 [label="gini = 0.0000\nsamples = 2\nvalue = [ 0.  0.  0.  0.  0.  2.  0.  0.  0.  0.  0.  0.  0.  0.  0.  0.  0.  0.
  0.  0.]", shape="box"] ;
228 -> 308 ;
309 [label="X[2647] <= 0.5000\ngini = 0.32\nsamples = 5", shape="box"] ;
117 -> 309 ;
310 [label="X[1787] <= 0.5000\ngini = 0.5\nsamples = 2", shape="box"] ;
309 -> 310 ;
311 [label="gini = 0.0000\nsamples = 1\nvalue = [ 0.  0.  0.  0.  0.  1.  0.  0.  0.  0.  0.  0.  0.  0.  0.  0.  0.  0.
  0.  0.]", shape="box"] ;
310 -> 311 ;
312 [label="gini = 0.0000\nsamples = 1\nvalue = [ 0.  0.  0.  0.  0.  0.  0.  0.  0.  0.  0.  0.  0.  0.  0.  0.  1.  0.
  0.  0.]", shape="box"] ;
310 -> 312 ;
313 [label="gini = 0.0000\nsamples = 3\nvalue = [ 0.  0.  0.  0.  0.  0.  0.  0.  0.  0.  0.  0.  0.  0.  0.  0.  3.  0.
  0.  0.]", shape="box"] ;
309 -> 313 ;
314 [label="gini = 0.0000\nsamples = 2\nvalue = [ 0.  0.  0.  0.  0.  0.  0.  0.  0.  2.  0.  0.  0.  0.  0.  0.  0.  0.
  0.  0.]", shape="box"] ;
116 -> 314 ;
315 [label="gini = 0.0000\nsamples = 2\nvalue = [ 0.  0.  0.  0.  0.  0.  0.  0.  0.  0.  0.  0.  0.  2.  0.  0.  0.  0.
  0.  0.]", shape="box"] ;
115 -> 315 ;
316 [label="gini = 0.0000\nsamples = 3\nvalue = [ 0.  0.  0.  0.  0.  0.  0.  0.  0.  0.  0.  0.  0.  0.  0.  0.  3.  0.
  0.  0.]", shape="box"] ;
114 -> 316 ;
317 [label="gini = 0.0000\nsamples = 2\nvalue = [ 0.  0.  0.  0.  0.  0.  0.  0.  0.  0.  0.  0.  0.  0.  0.  0.  0.  2.
  0.  0.]", shape="box"] ;
113 -> 317 ;
318 [label="gini = 0.0000\nsamples = 2\nvalue = [ 2.  0.  0.  0.  0.  0.  0.  0.  0.  0.  0.  0.  0.  0.  0.  0.  0.  0.
  0.  0.]", shape="box"] ;
112 -> 318 ;
319 [label="X[2922] <= 0.5000\ngini = 0.375\nsamples = 4", shape="box"] ;
111 -> 319 ;
320 [label="gini = 0.0000\nsamples = 3\nvalue = [ 0.  0.  0.  0.  0.  0.  0.  0.  0.  0.  0.  0.  0.  0.  0.  0.  0.  3.
  0.  0.]", shape="box"] ;
319 -> 320 ;
321 [label="gini = 0.0000\nsamples = 1\nvalue = [ 0.  1.  0.  0.  0.  0.  0.  0.  0.  0.  0.  0.  0.  0.  0.  0.  0.  0.
  0.  0.]", shape="box"] ;
319 -> 321 ;
322 [label="gini = 0.0000\nsamples = 2\nvalue = [ 0.  2.  0.  0.  0.  0.  0.  0.  0.  0.  0.  0.  0.  0.  0.  0.  0.  0.
  0.  0.]", shape="box"] ;
110 -> 322 ;
323 [label="X[1191] <= 0.5000\ngini = 0.444444444444\nsamples = 6", shape="box"] ;
109 -> 323 ;
324 [label="gini = 0.0000\nsamples = 4\nvalue = [ 0.  0.  0.  0.  0.  0.  0.  0.  0.  0.  0.  0.  0.  4.  0.  0.  0.  0.
  0.  0.]", shape="box"] ;
323 -> 324 ;
325 [label="gini = 0.0000\nsamples = 2\nvalue = [ 0.  0.  0.  0.  0.  0.  0.  0.  0.  0.  0.  0.  0.  0.  0.  0.  2.  0.
  0.  0.]", shape="box"] ;
323 -> 325 ;
326 [label="gini = 0.0000\nsamples = 2\nvalue = [ 0.  0.  0.  0.  0.  0.  0.  0.  0.  0.  2.  0.  0.  0.  0.  0.  0.  0.
  0.  0.]", shape="box"] ;
108 -> 326 ;
327 [label="gini = 0.0000\nsamples = 2\nvalue = [ 0.  0.  0.  2.  0.  0.  0.  0.  0.  0.  0.  0.  0.  0.  0.  0.  0.  0.
  0.  0.]", shape="box"] ;
107 -> 327 ;
328 [label="X[2922] <= 0.5000\ngini = 0.612244897959\nsamples = 7", shape="box"] ;
106 -> 328 ;
329 [label="X[88] <= 0.5000\ngini = 0.5\nsamples = 2", shape="box"] ;
328 -> 329 ;
330 [label="gini = 0.0000\nsamples = 1\nvalue = [ 0.  0.  0.  0.  0.  1.  0.  0.  0.  0.  0.  0.  0.  0.  0.  0.  0.  0.
  0.  0.]", shape="box"] ;
329 -> 330 ;
331 [label="gini = 0.0000\nsamples = 1\nvalue = [ 0.  0.  0.  0.  0.  0.  0.  0.  0.  1.  0.  0.  0.  0.  0.  0.  0.  0.
  0.  0.]", shape="box"] ;
329 -> 331 ;
332 [label="X[277] <= 0.5000\ngini = 0.32\nsamples = 5", shape="box"] ;
328 -> 332 ;
333 [label="gini = 0.0000\nsamples = 4\nvalue = [ 0.  0.  0.  0.  0.  0.  0.  0.  0.  0.  0.  0.  0.  0.  0.  4.  0.  0.
  0.  0.]", shape="box"] ;
332 -> 333 ;
334 [label="gini = 0.0000\nsamples = 1\nvalue = [ 0.  0.  0.  0.  0.  0.  0.  0.  0.  0.  0.  0.  0.  0.  0.  0.  1.  0.
  0.  0.]", shape="box"] ;
332 -> 334 ;
335 [label="X[2343] <= 0.5000\ngini = 0.695\nsamples = 20", shape="box"] ;
105 -> 335 ;
336 [label="X[1707] <= 0.5000\ngini = 0.635802469136\nsamples = 18", shape="box"] ;
335 -> 336 ;
337 [label="X[184] <= 0.5000\ngini = 0.5703125\nsamples = 16", shape="box"] ;
336 -> 337 ;
338 [label="X[2946] <= 0.5000\ngini = 0.515555555556\nsamples = 15", shape="box"] ;
337 -> 338 ;
339 [label="X[2033] <= 0.5000\ngini = 0.459183673469\nsamples = 14", shape="box"] ;
338 -> 339 ;
340 [label="X[2006] <= 0.5000\ngini = 0.378698224852\nsamples = 13", shape="box"] ;
339 -> 340 ;
341 [label="X[152] <= 0.5000\ngini = 0.291666666667\nsamples = 12", shape="box"] ;
340 -> 341 ;
342 [label="X[2292] <= 0.5000\ngini = 0.165289256198\nsamples = 11", shape="box"] ;
341 -> 342 ;
343 [label="gini = 0.0000\nsamples = 9\nvalue = [ 0.  0.  0.  0.  0.  9.  0.  0.  0.  0.  0.  0.  0.  0.  0.  0.  0.  0.
  0.  0.]", shape="box"] ;
342 -> 343 ;
344 [label="X[335] <= 0.5000\ngini = 0.5\nsamples = 2", shape="box"] ;
342 -> 344 ;
345 [label="gini = 0.0000\nsamples = 1\nvalue = [ 0.  0.  0.  0.  0.  0.  0.  0.  0.  0.  0.  0.  0.  0.  0.  0.  1.  0.
  0.  0.]", shape="box"] ;
344 -> 345 ;
346 [label="gini = 0.0000\nsamples = 1\nvalue = [ 0.  0.  0.  0.  0.  1.  0.  0.  0.  0.  0.  0.  0.  0.  0.  0.  0.  0.
  0.  0.]", shape="box"] ;
344 -> 346 ;
347 [label="gini = 0.0000\nsamples = 1\nvalue = [ 0.  0.  0.  0.  0.  0.  0.  0.  0.  1.  0.  0.  0.  0.  0.  0.  0.  0.
  0.  0.]", shape="box"] ;
341 -> 347 ;
348 [label="gini = 0.0000\nsamples = 1\nvalue = [ 0.  0.  0.  0.  0.  0.  0.  0.  0.  1.  0.  0.  0.  0.  0.  0.  0.  0.
  0.  0.]", shape="box"] ;
340 -> 348 ;
349 [label="gini = 0.0000\nsamples = 1\nvalue = [ 0.  1.  0.  0.  0.  0.  0.  0.  0.  0.  0.  0.  0.  0.  0.  0.  0.  0.
  0.  0.]", shape="box"] ;
339 -> 349 ;
350 [label="gini = 0.0000\nsamples = 1\nvalue = [ 0.  1.  0.  0.  0.  0.  0.  0.  0.  0.  0.  0.  0.  0.  0.  0.  0.  0.
  0.  0.]", shape="box"] ;
338 -> 350 ;
351 [label="gini = 0.0000\nsamples = 1\nvalue = [ 0.  0.  0.  0.  0.  0.  0.  0.  0.  0.  0.  0.  0.  1.  0.  0.  0.  0.
  0.  0.]", shape="box"] ;
337 -> 351 ;
352 [label="gini = 0.0000\nsamples = 2\nvalue = [ 0.  0.  0.  0.  0.  0.  0.  0.  0.  0.  0.  0.  0.  0.  0.  0.  2.  0.
  0.  0.]", shape="box"] ;
336 -> 352 ;
353 [label="gini = 0.0000\nsamples = 2\nvalue = [ 0.  0.  2.  0.  0.  0.  0.  0.  0.  0.  0.  0.  0.  0.  0.  0.  0.  0.
  0.  0.]", shape="box"] ;
335 -> 353 ;
354 [label="X[2938] <= 0.5000\ngini = 0.375\nsamples = 4", shape="box"] ;
104 -> 354 ;
355 [label="gini = 0.0000\nsamples = 3\nvalue = [ 0.  0.  0.  3.  0.  0.  0.  0.  0.  0.  0.  0.  0.  0.  0.  0.  0.  0.
  0.  0.]", shape="box"] ;
354 -> 355 ;
356 [label="gini = 0.0000\nsamples = 1\nvalue = [ 0.  0.  0.  0.  0.  0.  0.  0.  0.  0.  0.  0.  0.  0.  0.  0.  1.  0.
  0.  0.]", shape="box"] ;
354 -> 356 ;
357 [label="X[2238] <= 0.5000\ngini = 0.775510204082\nsamples = 21", shape="box"] ;
103 -> 357 ;
358 [label="X[1873] <= 0.5000\ngini = 0.736842105263\nsamples = 19", shape="box"] ;
357 -> 358 ;
359 [label="X[1662] <= 0.5000\ngini = 0.684444444444\nsamples = 15", shape="box"] ;
358 -> 359 ;
360 [label="X[2922] <= 0.5000\ngini = 0.591715976331\nsamples = 13", shape="box"] ;
359 -> 360 ;
361 [label="X[2144] <= 0.5000\ngini = 0.528925619835\nsamples = 11", shape="box"] ;
360 -> 361 ;
362 [label="X[1305] <= 0.5000\ngini = 0.46\nsamples = 10", shape="box"] ;
361 -> 362 ;
363 [label="X[1399] <= 0.5000\ngini = 0.345679012346\nsamples = 9", shape="box"] ;
362 -> 363 ;
364 [label="X[2827] <= 0.5000\ngini = 0.21875\nsamples = 8", shape="box"] ;
363 -> 364 ;
365 [label="gini = 0.0000\nsamples = 7\nvalue = [ 0.  0.  0.  0.  0.  0.  0.  0.  0.  7.  0.  0.  0.  0.  0.  0.  0.  0.
  0.  0.]", shape="box"] ;
364 -> 365 ;
366 [label="gini = 0.0000\nsamples = 1\nvalue = [ 0.  0.  0.  0.  0.  0.  1.  0.  0.  0.  0.  0.  0.  0.  0.  0.  0.  0.
  0.  0.]", shape="box"] ;
364 -> 366 ;
367 [label="gini = 0.0000\nsamples = 1\nvalue = [ 0.  0.  0.  0.  0.  0.  1.  0.  0.  0.  0.  0.  0.  0.  0.  0.  0.  0.
  0.  0.]", shape="box"] ;
363 -> 367 ;
368 [label="gini = 0.0000\nsamples = 1\nvalue = [ 0.  0.  0.  0.  0.  0.  0.  0.  0.  0.  0.  0.  0.  0.  0.  0.  1.  0.
  0.  0.]", shape="box"] ;
362 -> 368 ;
369 [label="gini = 0.0000\nsamples = 1\nvalue = [ 0.  0.  0.  0.  0.  0.  0.  0.  0.  0.  0.  0.  0.  0.  0.  0.  1.  0.
  0.  0.]", shape="box"] ;
361 -> 369 ;
370 [label="gini = 0.0000\nsamples = 2\nvalue = [ 0.  0.  0.  0.  0.  0.  0.  0.  0.  0.  0.  0.  0.  0.  0.  0.  2.  0.
  0.  0.]", shape="box"] ;
360 -> 370 ;
371 [label="X[2181] <= 0.5000\ngini = 0.5\nsamples = 2", shape="box"] ;
359 -> 371 ;
372 [label="gini = 0.0000\nsamples = 1\nvalue = [ 0.  0.  0.  0.  0.  0.  0.  0.  0.  0.  0.  0.  0.  0.  0.  0.  0.  1.
  0.  0.]", shape="box"] ;
371 -> 372 ;
373 [label="gini = 0.0000\nsamples = 1\nvalue = [ 0.  0.  0.  0.  0.  0.  0.  0.  0.  0.  0.  1.  0.  0.  0.  0.  0.  0.
  0.  0.]", shape="box"] ;
371 -> 373 ;
374 [label="X[822] <= 0.5000\ngini = 0.375\nsamples = 4", shape="box"] ;
358 -> 374 ;
375 [label="gini = 0.0000\nsamples = 1\nvalue = [ 0.  0.  0.  0.  0.  0.  0.  0.  0.  1.  0.  0.  0.  0.  0.  0.  0.  0.
  0.  0.]", shape="box"] ;
374 -> 375 ;
376 [label="gini = 0.0000\nsamples = 3\nvalue = [ 0.  0.  0.  0.  0.  0.  0.  0.  0.  0.  0.  0.  0.  3.  0.  0.  0.  0.
  0.  0.]", shape="box"] ;
374 -> 376 ;
377 [label="gini = 0.0000\nsamples = 2\nvalue = [ 0.  0.  2.  0.  0.  0.  0.  0.  0.  0.  0.  0.  0.  0.  0.  0.  0.  0.
  0.  0.]", shape="box"] ;
357 -> 377 ;
378 [label="X[320] <= 0.5000\ngini = 0.277777777778\nsamples = 6", shape="box"] ;
102 -> 378 ;
379 [label="gini = 0.0000\nsamples = 5\nvalue = [ 0.  0.  0.  0.  0.  0.  0.  0.  0.  0.  0.  0.  0.  0.  0.  0.  5.  0.
  0.  0.]", shape="box"] ;
378 -> 379 ;
380 [label="gini = 0.0000\nsamples = 1\nvalue = [ 0.  0.  0.  0.  0.  0.  0.  0.  0.  1.  0.  0.  0.  0.  0.  0.  0.  0.
  0.  0.]", shape="box"] ;
378 -> 380 ;
381 [label="X[15] <= 0.5000\ngini = 0.688775510204\nsamples = 28", shape="box"] ;
101 -> 381 ;
382 [label="X[449] <= 0.5000\ngini = 0.656804733728\nsamples = 26", shape="box"] ;
381 -> 382 ;
383 [label="X[2144] <= 0.5000\ngini = 0.625\nsamples = 24", shape="box"] ;
382 -> 383 ;
384 [label="X[2458] <= 0.5000\ngini = 0.593572778828\nsamples = 23", shape="box"] ;
383 -> 384 ;
385 [label="X[2869] <= 0.5000\ngini = 0.557851239669\nsamples = 22", shape="box"] ;
384 -> 385 ;
386 [label="X[2625] <= 0.5000\ngini = 0.504155124654\nsamples = 19", shape="box"] ;
385 -> 386 ;
387 [label="X[2647] <= 0.5000\ngini = 0.337777777778\nsamples = 15", shape="box"] ;
386 -> 387 ;
388 [label="gini = 0.0000\nsamples = 10\nvalue = [  0.   0.   0.   0.   0.   0.   0.   0.   0.   0.   0.   0.   0.   0.   0.
   0.  10.   0.   0.   0.]", shape="box"] ;
387 -> 388 ;
389 [label="X[898] <= 0.5000\ngini = 0.64\nsamples = 5", shape="box"] ;
387 -> 389 ;
390 [label="X[1980] <= 0.5000\ngini = 0.5\nsamples = 4", shape="box"] ;
389 -> 390 ;
391 [label="X[1170] <= 0.5000\ngini = 0.444444444444\nsamples = 3", shape="box"] ;
390 -> 391 ;
392 [label="gini = 0.0000\nsamples = 2\nvalue = [ 0.  0.  0.  0.  0.  0.  0.  0.  0.  0.  0.  0.  0.  0.  0.  0.  2.  0.
  0.  0.]", shape="box"] ;
391 -> 392 ;
393 [label="gini = 0.0000\nsamples = 1\nvalue = [ 0.  0.  0.  0.  0.  1.  0.  0.  0.  0.  0.  0.  0.  0.  0.  0.  0.  0.
  0.  0.]", shape="box"] ;
391 -> 393 ;
394 [label="gini = 0.0000\nsamples = 1\nvalue = [ 0.  0.  0.  0.  0.  1.  0.  0.  0.  0.  0.  0.  0.  0.  0.  0.  0.  0.
  0.  0.]", shape="box"] ;
390 -> 394 ;
395 [label="gini = 0.0000\nsamples = 1\nvalue = [ 1.  0.  0.  0.  0.  0.  0.  0.  0.  0.  0.  0.  0.  0.  0.  0.  0.  0.
  0.  0.]", shape="box"] ;
389 -> 395 ;
396 [label="X[2647] <= 0.5000\ngini = 0.75\nsamples = 4", shape="box"] ;
386 -> 396 ;
397 [label="X[1058] <= 0.5000\ngini = 0.5\nsamples = 2", shape="box"] ;
396 -> 397 ;
398 [label="gini = 0.0000\nsamples = 1\nvalue = [ 0.  0.  0.  0.  0.  0.  0.  0.  0.  1.  0.  0.  0.  0.  0.  0.  0.  0.
  0.  0.]", shape="box"] ;
397 -> 398 ;
399 [label="gini = 0.0000\nsamples = 1\nvalue = [ 1.  0.  0.  0.  0.  0.  0.  0.  0.  0.  0.  0.  0.  0.  0.  0.  0.  0.
  0.  0.]", shape="box"] ;
397 -> 399 ;
400 [label="X[490] <= 0.5000\ngini = 0.5\nsamples = 2", shape="box"] ;
396 -> 400 ;
401 [label="gini = 0.0000\nsamples = 1\nvalue = [ 0.  0.  0.  0.  0.  0.  0.  0.  0.  0.  0.  0.  0.  0.  0.  0.  0.  1.
  0.  0.]", shape="box"] ;
400 -> 401 ;
402 [label="gini = 0.0000\nsamples = 1\nvalue = [ 0.  0.  0.  0.  0.  0.  0.  0.  0.  0.  0.  0.  0.  0.  0.  0.  1.  0.
  0.  0.]", shape="box"] ;
400 -> 402 ;
403 [label="X[1707] <= 0.5000\ngini = 0.444444444444\nsamples = 3", shape="box"] ;
385 -> 403 ;
404 [label="gini = 0.0000\nsamples = 2\nvalue = [ 0.  0.  0.  0.  0.  0.  0.  0.  0.  2.  0.  0.  0.  0.  0.  0.  0.  0.
  0.  0.]", shape="box"] ;
403 -> 404 ;
405 [label="gini = 0.0000\nsamples = 1\nvalue = [ 0.  0.  0.  0.  0.  0.  0.  0.  0.  0.  0.  0.  0.  0.  0.  0.  1.  0.
  0.  0.]", shape="box"] ;
403 -> 405 ;
406 [label="gini = 0.0000\nsamples = 1\nvalue = [ 0.  0.  0.  0.  0.  0.  0.  0.  0.  0.  0.  1.  0.  0.  0.  0.  0.  0.
  0.  0.]", shape="box"] ;
384 -> 406 ;
407 [label="gini = 0.0000\nsamples = 1\nvalue = [ 0.  0.  0.  0.  0.  0.  0.  0.  1.  0.  0.  0.  0.  0.  0.  0.  0.  0.
  0.  0.]", shape="box"] ;
383 -> 407 ;
408 [label="gini = 0.0000\nsamples = 2\nvalue = [ 0.  0.  0.  0.  0.  0.  0.  0.  0.  2.  0.  0.  0.  0.  0.  0.  0.  0.
  0.  0.]", shape="box"] ;
382 -> 408 ;
409 [label="gini = 0.0000\nsamples = 2\nvalue = [ 2.  0.  0.  0.  0.  0.  0.  0.  0.  0.  0.  0.  0.  0.  0.  0.  0.  0.
  0.  0.]", shape="box"] ;
381 -> 409 ;
410 [label="X[1313] <= 0.5000\ngini = 0.244897959184\nsamples = 7", shape="box"] ;
100 -> 410 ;
411 [label="gini = 0.0000\nsamples = 6\nvalue = [ 0.  0.  0.  0.  0.  0.  0.  0.  0.  0.  0.  0.  0.  0.  0.  0.  6.  0.
  0.  0.]", shape="box"] ;
410 -> 411 ;
412 [label="gini = 0.0000\nsamples = 1\nvalue = [ 0.  0.  0.  0.  0.  0.  0.  0.  0.  0.  0.  0.  0.  0.  1.  0.  0.  0.
  0.  0.]", shape="box"] ;
410 -> 412 ;
413 [label="X[2295] <= 0.5000\ngini = 0.829132880415\nsamples = 117", shape="box"] ;
99 -> 413 ;
414 [label="X[1513] <= 0.5000\ngini = 0.824650283554\nsamples = 115", shape="box"] ;
413 -> 414 ;
415 [label="X[2878] <= 0.5000\ngini = 0.819328060146\nsamples = 113", shape="box"] ;
414 -> 415 ;
416 [label="X[194] <= 0.5000\ngini = 0.81470659849\nsamples = 111", shape="box"] ;
415 -> 416 ;
417 [label="X[784] <= 0.5000\ngini = 0.799500192234\nsamples = 102", shape="box"] ;
416 -> 417 ;
418 [label="X[243] <= 0.5000\ngini = 0.788082848689\nsamples = 99", shape="box"] ;
417 -> 418 ;
419 [label="X[754] <= 0.5000\ngini = 0.782654904878\nsamples = 97", shape="box"] ;
418 -> 419 ;
420 [label="X[374] <= 0.5000\ngini = 0.771163422363\nsamples = 94", shape="box"] ;
419 -> 420 ;
421 [label="X[2212] <= 0.5000\ngini = 0.765359168242\nsamples = 92", shape="box"] ;
420 -> 421 ;
422 [label="X[2922] <= 0.5000\ngini = 0.753440222194\nsamples = 89", shape="box"] ;
421 -> 422 ;
423 [label="X[2946] <= 0.5000\ngini = 0.685299650632\nsamples = 61", shape="box"] ;
422 -> 423 ;
424 [label="X[1877] <= 0.5000\ngini = 0.658739595719\nsamples = 58", shape="box"] ;
423 -> 424 ;
425 [label="X[1868] <= 0.5000\ngini = 0.624132231405\nsamples = 55", shape="box"] ;
424 -> 425 ;
426 [label="X[2007] <= 0.5000\ngini = 0.597365610538\nsamples = 53", shape="box"] ;
425 -> 426 ;
427 [label="X[614] <= 0.5000\ngini = 0.566705113418\nsamples = 51", shape="box"] ;
426 -> 427 ;
428 [label="X[1485] <= 0.5000\ngini = 0.533111203665\nsamples = 49", shape="box"] ;
427 -> 428 ;
429 [label="X[2114] <= 0.5000\ngini = 0.495246717972\nsamples = 47", shape="box"] ;
428 -> 429 ;
430 [label="X[2676] <= 0.5000\ngini = 0.373995617239\nsamples = 37", shape="box"] ;
429 -> 430 ;
431 [label="X[2499] <= 0.5000\ngini = 0.33950617284\nsamples = 36", shape="box"] ;
430 -> 431 ;
432 [label="X[774] <= 0.5000\ngini = 0.302040816327\nsamples = 35", shape="box"] ;
431 -> 432 ;
433 [label="X[2580] <= 0.5000\ngini = 0.262975778547\nsamples = 34", shape="box"] ;
432 -> 433 ;
434 [label="X[1720] <= 0.5000\ngini = 0.222222222222\nsamples = 33", shape="box"] ;
433 -> 434 ;
435 [label="X[2387] <= 0.5000\ngini = 0.173828125\nsamples = 32", shape="box"] ;
434 -> 435 ;
436 [label="X[1119] <= 0.5000\ngini = 0.122788761707\nsamples = 31", shape="box"] ;
435 -> 436 ;
437 [label="X[616] <= 0.5000\ngini = 0.0644444444444\nsamples = 30", shape="box"] ;
436 -> 437 ;
438 [label="gini = 0.0000\nsamples = 28\nvalue = [  0.   0.   0.   0.   0.   0.   0.   0.   0.   0.   0.   0.   0.   0.   0.
   0.  28.   0.   0.   0.]", shape="box"] ;
437 -> 438 ;
439 [label="X[2238] <= 0.5000\ngini = 0.5\nsamples = 2", shape="box"] ;
437 -> 439 ;
440 [label="gini = 0.0000\nsamples = 1\nvalue = [ 0.  0.  0.  0.  0.  0.  0.  0.  0.  0.  0.  0.  0.  1.  0.  0.  0.  0.
  0.  0.]", shape="box"] ;
439 -> 440 ;
441 [label="gini = 0.0000\nsamples = 1\nvalue = [ 0.  0.  0.  0.  0.  0.  0.  0.  0.  0.  0.  0.  0.  0.  0.  0.  1.  0.
  0.  0.]", shape="box"] ;
439 -> 441 ;
442 [label="gini = 0.0000\nsamples = 1\nvalue = [ 0.  0.  0.  0.  0.  0.  0.  0.  0.  0.  0.  0.  1.  0.  0.  0.  0.  0.
  0.  0.]", shape="box"] ;
436 -> 442 ;
443 [label="gini = 0.0000\nsamples = 1\nvalue = [ 0.  0.  0.  0.  0.  0.  0.  0.  0.  0.  0.  0.  1.  0.  0.  0.  0.  0.
  0.  0.]", shape="box"] ;
435 -> 443 ;
444 [label="gini = 0.0000\nsamples = 1\nvalue = [ 0.  1.  0.  0.  0.  0.  0.  0.  0.  0.  0.  0.  0.  0.  0.  0.  0.  0.
  0.  0.]", shape="box"] ;
434 -> 444 ;
445 [label="gini = 0.0000\nsamples = 1\nvalue = [ 0.  0.  0.  0.  0.  0.  0.  0.  0.  0.  0.  0.  1.  0.  0.  0.  0.  0.
  0.  0.]", shape="box"] ;
433 -> 445 ;
446 [label="gini = 0.0000\nsamples = 1\nvalue = [ 0.  1.  0.  0.  0.  0.  0.  0.  0.  0.  0.  0.  0.  0.  0.  0.  0.  0.
  0.  0.]", shape="box"] ;
432 -> 446 ;
447 [label="gini = 0.0000\nsamples = 1\nvalue = [ 0.  0.  0.  0.  0.  1.  0.  0.  0.  0.  0.  0.  0.  0.  0.  0.  0.  0.
  0.  0.]", shape="box"] ;
431 -> 447 ;
448 [label="gini = 0.0000\nsamples = 1\nvalue = [ 0.  0.  0.  1.  0.  0.  0.  0.  0.  0.  0.  0.  0.  0.  0.  0.  0.  0.
  0.  0.]", shape="box"] ;
430 -> 448 ;
449 [label="X[2398] <= 0.5000\ngini = 0.74\nsamples = 10", shape="box"] ;
429 -> 449 ;
450 [label="X[2200] <= 0.5000\ngini = 0.691358024691\nsamples = 9", shape="box"] ;
449 -> 450 ;
451 [label="X[2983] <= 0.5000\ngini = 0.625\nsamples = 8", shape="box"] ;
450 -> 451 ;
452 [label="X[1873] <= 0.5000\ngini = 0.571428571429\nsamples = 7", shape="box"] ;
451 -> 452 ;
453 [label="X[2943] <= 0.5000\ngini = 0.32\nsamples = 5", shape="box"] ;
452 -> 453 ;
454 [label="gini = 0.0000\nsamples = 4\nvalue = [ 0.  0.  0.  0.  0.  0.  0.  0.  0.  0.  0.  0.  0.  0.  0.  0.  4.  0.
  0.  0.]", shape="box"] ;
453 -> 454 ;
455 [label="gini = 0.0000\nsamples = 1\nvalue = [ 0.  0.  0.  0.  1.  0.  0.  0.  0.  0.  0.  0.  0.  0.  0.  0.  0.  0.
  0.  0.]", shape="box"] ;
453 -> 455 ;
456 [label="X[490] <= 0.5000\ngini = 0.5\nsamples = 2", shape="box"] ;
452 -> 456 ;
457 [label="gini = 0.0000\nsamples = 1\nvalue = [ 0.  0.  0.  0.  1.  0.  0.  0.  0.  0.  0.  0.  0.  0.  0.  0.  0.  0.
  0.  0.]", shape="box"] ;
456 -> 457 ;
458 [label="gini = 0.0000\nsamples = 1\nvalue = [ 0.  0.  0.  0.  0.  0.  0.  0.  0.  0.  0.  0.  0.  0.  0.  1.  0.  0.
  0.  0.]", shape="box"] ;
456 -> 458 ;
459 [label="gini = 0.0000\nsamples = 1\nvalue = [ 0.  0.  0.  0.  0.  0.  0.  0.  0.  0.  0.  0.  0.  0.  0.  1.  0.  0.
  0.  0.]", shape="box"] ;
451 -> 459 ;
460 [label="gini = 0.0000\nsamples = 1\nvalue = [ 0.  0.  0.  0.  0.  0.  0.  0.  0.  1.  0.  0.  0.  0.  0.  0.  0.  0.
  0.  0.]", shape="box"] ;
450 -> 460 ;
461 [label="gini = 0.0000\nsamples = 1\nvalue = [ 0.  0.  0.  0.  0.  0.  0.  0.  0.  0.  0.  1.  0.  0.  0.  0.  0.  0.
  0.  0.]", shape="box"] ;
449 -> 461 ;
462 [label="X[616] <= 0.5000\ngini = 0.5\nsamples = 2", shape="box"] ;
428 -> 462 ;
463 [label="gini = 0.0000\nsamples = 1\nvalue = [ 0.  0.  0.  0.  0.  0.  1.  0.  0.  0.  0.  0.  0.  0.  0.  0.  0.  0.
  0.  0.]", shape="box"] ;
462 -> 463 ;
464 [label="gini = 0.0000\nsamples = 1\nvalue = [ 0.  1.  0.  0.  0.  0.  0.  0.  0.  0.  0.  0.  0.  0.  0.  0.  0.  0.
  0.  0.]", shape="box"] ;
462 -> 464 ;
465 [label="X[2059] <= 1.0000\ngini = 0.5\nsamples = 2", shape="box"] ;
427 -> 465 ;
466 [label="gini = 0.0000\nsamples = 1\nvalue = [ 0.  0.  0.  0.  0.  0.  0.  0.  0.  0.  1.  0.  0.  0.  0.  0.  0.  0.
  0.  0.]", shape="box"] ;
465 -> 466 ;
467 [label="gini = 0.0000\nsamples = 1\nvalue = [ 0.  0.  0.  0.  1.  0.  0.  0.  0.  0.  0.  0.  0.  0.  0.  0.  0.  0.
  0.  0.]", shape="box"] ;
465 -> 467 ;
468 [label="X[1873] <= 0.5000\ngini = 0.5\nsamples = 2", shape="box"] ;
426 -> 468 ;
469 [label="gini = 0.0000\nsamples = 1\nvalue = [ 0.  0.  0.  0.  0.  0.  0.  0.  0.  0.  0.  0.  0.  0.  0.  0.  0.  1.
  0.  0.]", shape="box"] ;
468 -> 469 ;
470 [label="gini = 0.0000\nsamples = 1\nvalue = [ 0.  0.  0.  0.  0.  0.  0.  0.  0.  0.  0.  0.  0.  1.  0.  0.  0.  0.
  0.  0.]", shape="box"] ;
468 -> 470 ;
471 [label="X[2597] <= 0.5000\ngini = 0.5\nsamples = 2", shape="box"] ;
425 -> 471 ;
472 [label="gini = 0.0000\nsamples = 1\nvalue = [ 0.  0.  0.  0.  0.  0.  0.  0.  0.  0.  0.  0.  0.  1.  0.  0.  0.  0.
  0.  0.]", shape="box"] ;
471 -> 472 ;
473 [label="gini = 0.0000\nsamples = 1\nvalue = [ 1.  0.  0.  0.  0.  0.  0.  0.  0.  0.  0.  0.  0.  0.  0.  0.  0.  0.
  0.  0.]", shape="box"] ;
471 -> 473 ;
474 [label="X[1386] <= 0.5000\ngini = 0.666666666667\nsamples = 3", shape="box"] ;
424 -> 474 ;
475 [label="X[2983] <= 0.5000\ngini = 0.5\nsamples = 2", shape="box"] ;
474 -> 475 ;
476 [label="gini = 0.0000\nsamples = 1\nvalue = [ 1.  0.  0.  0.  0.  0.  0.  0.  0.  0.  0.  0.  0.  0.  0.  0.  0.  0.
  0.  0.]", shape="box"] ;
475 -> 476 ;
477 [label="gini = 0.0000\nsamples = 1\nvalue = [ 0.  0.  1.  0.  0.  0.  0.  0.  0.  0.  0.  0.  0.  0.  0.  0.  0.  0.
  0.  0.]", shape="box"] ;
475 -> 477 ;
478 [label="gini = 0.0000\nsamples = 1\nvalue = [ 0.  0.  0.  0.  0.  0.  0.  0.  0.  0.  0.  0.  0.  1.  0.  0.  0.  0.
  0.  0.]", shape="box"] ;
474 -> 478 ;
479 [label="X[1229] <= 1.0000\ngini = 0.444444444444\nsamples = 3", shape="box"] ;
423 -> 479 ;
480 [label="gini = 0.0000\nsamples = 2\nvalue = [ 0.  0.  0.  0.  0.  0.  0.  0.  0.  0.  0.  0.  0.  2.  0.  0.  0.  0.
  0.  0.]", shape="box"] ;
479 -> 480 ;
481 [label="gini = 0.0000\nsamples = 1\nvalue = [ 0.  0.  0.  0.  0.  1.  0.  0.  0.  0.  0.  0.  0.  0.  0.  0.  0.  0.
  0.  0.]", shape="box"] ;
479 -> 481 ;
482 [label="X[2943] <= 0.5000\ngini = 0.844387755102\nsamples = 28", shape="box"] ;
422 -> 482 ;
483 [label="X[1292] <= 0.5000\ngini = 0.8768\nsamples = 25", shape="box"] ;
482 -> 483 ;
484 [label="X[1666] <= 0.5000\ngini = 0.896694214876\nsamples = 22", shape="box"] ;
483 -> 484 ;
485 [label="X[1094] <= 0.5000\ngini = 0.905\nsamples = 20", shape="box"] ;
484 -> 485 ;
486 [label="X[2000] <= 0.5000\ngini = 0.871111111111\nsamples = 15", shape="box"] ;
485 -> 486 ;
487 [label="X[1167] <= 0.5000\ngini = 0.840236686391\nsamples = 13", shape="box"] ;
486 -> 487 ;
488 [label="X[324] <= 0.5000\ngini = 0.819444444444\nsamples = 12", shape="box"] ;
487 -> 488 ;
489 [label="X[2253] <= 0.5000\ngini = 0.793388429752\nsamples = 11", shape="box"] ;
488 -> 489 ;
490 [label="X[2238] <= 0.5000\ngini = 0.78\nsamples = 10", shape="box"] ;
489 -> 490 ;
491 [label="X[1861] <= 0.5000\ngini = 0.740740740741\nsamples = 9", shape="box"] ;
490 -> 491 ;
492 [label="X[696] <= 0.5000\ngini = 0.71875\nsamples = 8", shape="box"] ;
491 -> 492 ;
493 [label="X[50] <= 0.5000\ngini = 0.65306122449\nsamples = 7", shape="box"] ;
492 -> 493 ;
494 [label="X[2691] <= 0.5000\ngini = 0.611111111111\nsamples = 6", shape="box"] ;
493 -> 494 ;
495 [label="X[1707] <= 0.5000\ngini = 0.48\nsamples = 5", shape="box"] ;
494 -> 495 ;
496 [label="X[636] <= 0.5000\ngini = 0.375\nsamples = 4", shape="box"] ;
495 -> 496 ;
497 [label="gini = 0.0000\nsamples = 3\nvalue = [ 0.  0.  0.  0.  0.  0.  0.  0.  0.  0.  0.  0.  0.  0.  0.  0.  3.  0.
  0.  0.]", shape="box"] ;
496 -> 497 ;
498 [label="gini = 0.0000\nsamples = 1\nvalue = [ 0.  0.  0.  0.  0.  0.  0.  0.  0.  0.  0.  0.  0.  0.  0.  0.  0.  1.
  0.  0.]", shape="box"] ;
496 -> 498 ;
499 [label="gini = 0.0000\nsamples = 1\nvalue = [ 0.  0.  0.  0.  0.  0.  0.  0.  0.  0.  0.  0.  0.  0.  0.  0.  0.  1.
  0.  0.]", shape="box"] ;
495 -> 499 ;
500 [label="gini = 0.0000\nsamples = 1\nvalue = [ 0.  0.  0.  0.  0.  0.  0.  1.  0.  0.  0.  0.  0.  0.  0.  0.  0.  0.
  0.  0.]", shape="box"] ;
494 -> 500 ;
501 [label="gini = 0.0000\nsamples = 1\nvalue = [ 0.  0.  0.  0.  0.  0.  0.  1.  0.  0.  0.  0.  0.  0.  0.  0.  0.  0.
  0.  0.]", shape="box"] ;
493 -> 501 ;
502 [label="gini = 0.0000\nsamples = 1\nvalue = [ 0.  0.  0.  0.  1.  0.  0.  0.  0.  0.  0.  0.  0.  0.  0.  0.  0.  0.
  0.  0.]", shape="box"] ;
492 -> 502 ;
503 [label="gini = 0.0000\nsamples = 1\nvalue = [ 0.  0.  0.  0.  1.  0.  0.  0.  0.  0.  0.  0.  0.  0.  0.  0.  0.  0.
  0.  0.]", shape="box"] ;
491 -> 503 ;
504 [label="gini = 0.0000\nsamples = 1\nvalue = [ 0.  0.  0.  0.  0.  0.  0.  0.  0.  1.  0.  0.  0.  0.  0.  0.  0.  0.
  0.  0.]", shape="box"] ;
490 -> 504 ;
505 [label="gini = 0.0000\nsamples = 1\nvalue = [ 0.  0.  0.  0.  0.  0.  0.  0.  0.  1.  0.  0.  0.  0.  0.  0.  0.  0.
  0.  0.]", shape="box"] ;
489 -> 505 ;
506 [label="gini = 0.0000\nsamples = 1\nvalue = [ 0.  0.  0.  0.  0.  0.  0.  0.  0.  0.  1.  0.  0.  0.  0.  0.  0.  0.
  0.  0.]", shape="box"] ;
488 -> 506 ;
507 [label="gini = 0.0000\nsamples = 1\nvalue = [ 0.  0.  0.  0.  0.  0.  0.  0.  0.  0.  0.  1.  0.  0.  0.  0.  0.  0.
  0.  0.]", shape="box"] ;
487 -> 507 ;
508 [label="X[2471] <= 0.5000\ngini = 0.5\nsamples = 2", shape="box"] ;
486 -> 508 ;
509 [label="gini = 0.0000\nsamples = 1\nvalue = [ 0.  1.  0.  0.  0.  0.  0.  0.  0.  0.  0.  0.  0.  0.  0.  0.  0.  0.
  0.  0.]", shape="box"] ;
508 -> 509 ;
510 [label="gini = 0.0000\nsamples = 1\nvalue = [ 0.  0.  0.  1.  0.  0.  0.  0.  0.  0.  0.  0.  0.  0.  0.  0.  0.  0.
  0.  0.]", shape="box"] ;
508 -> 510 ;
511 [label="X[184] <= 0.5000\ngini = 0.72\nsamples = 5", shape="box"] ;
485 -> 511 ;
512 [label="X[2035] <= 1.0000\ngini = 0.666666666667\nsamples = 3", shape="box"] ;
511 -> 512 ;
513 [label="X[1374] <= 0.5000\ngini = 0.5\nsamples = 2", shape="box"] ;
512 -> 513 ;
514 [label="gini = 0.0000\nsamples = 1\nvalue = [ 0.  0.  0.  0.  0.  0.  0.  0.  1.  0.  0.  0.  0.  0.  0.  0.  0.  0.
  0.  0.]", shape="box"] ;
513 -> 514 ;
515 [label="gini = 0.0000\nsamples = 1\nvalue = [ 0.  0.  0.  0.  0.  0.  0.  0.  0.  0.  1.  0.  0.  0.  0.  0.  0.  0.
  0.  0.]", shape="box"] ;
513 -> 515 ;
516 [label="gini = 0.0000\nsamples = 1\nvalue = [ 0.  0.  0.  0.  0.  0.  0.  0.  0.  0.  0.  0.  0.  0.  0.  1.  0.  0.
  0.  0.]", shape="box"] ;
512 -> 516 ;
517 [label="gini = 0.0000\nsamples = 2\nvalue = [ 0.  0.  0.  0.  0.  0.  0.  0.  0.  0.  0.  0.  0.  2.  0.  0.  0.  0.
  0.  0.]", shape="box"] ;
511 -> 517 ;
518 [label="gini = 0.0000\nsamples = 2\nvalue = [ 0.  0.  0.  0.  0.  0.  0.  0.  0.  2.  0.  0.  0.  0.  0.  0.  0.  0.
  0.  0.]", shape="box"] ;
484 -> 518 ;
519 [label="gini = 0.0000\nsamples = 3\nvalue = [ 0.  0.  0.  0.  0.  0.  0.  0.  0.  0.  0.  0.  0.  0.  0.  0.  3.  0.
  0.  0.]", shape="box"] ;
483 -> 519 ;
520 [label="gini = 0.0000\nsamples = 3\nvalue = [ 0.  0.  0.  0.  0.  0.  0.  0.  0.  0.  0.  0.  0.  0.  0.  0.  3.  0.
  0.  0.]", shape="box"] ;
482 -> 520 ;
521 [label="X[868] <= 0.5000\ngini = 0.444444444444\nsamples = 3", shape="box"] ;
421 -> 521 ;
522 [label="gini = 0.0000\nsamples = 2\nvalue = [ 0.  0.  0.  0.  2.  0.  0.  0.  0.  0.  0.  0.  0.  0.  0.  0.  0.  0.
  0.  0.]", shape="box"] ;
521 -> 522 ;
523 [label="gini = 0.0000\nsamples = 1\nvalue = [ 0.  1.  0.  0.  0.  0.  0.  0.  0.  0.  0.  0.  0.  0.  0.  0.  0.  0.
  0.  0.]", shape="box"] ;
521 -> 523 ;
524 [label="gini = 0.0000\nsamples = 2\nvalue = [ 0.  0.  0.  0.  0.  0.  0.  0.  0.  0.  0.  0.  0.  2.  0.  0.  0.  0.
  0.  0.]", shape="box"] ;
420 -> 524 ;
525 [label="X[2943] <= 0.5000\ngini = 0.444444444444\nsamples = 3", shape="box"] ;
419 -> 525 ;
526 [label="gini = 0.0000\nsamples = 1\nvalue = [ 0.  0.  0.  0.  0.  0.  0.  0.  0.  0.  0.  0.  0.  0.  0.  0.  0.  1.
  0.  0.]", shape="box"] ;
525 -> 526 ;
527 [label="gini = 0.0000\nsamples = 2\nvalue = [ 0.  0.  0.  0.  0.  0.  0.  0.  0.  0.  0.  0.  0.  0.  0.  2.  0.  0.
  0.  0.]", shape="box"] ;
525 -> 527 ;
528 [label="gini = 0.0000\nsamples = 2\nvalue = [ 0.  0.  0.  0.  2.  0.  0.  0.  0.  0.  0.  0.  0.  0.  0.  0.  0.  0.
  0.  0.]", shape="box"] ;
418 -> 528 ;
529 [label="X[619] <= 0.5000\ngini = 0.444444444444\nsamples = 3", shape="box"] ;
417 -> 529 ;
530 [label="gini = 0.0000\nsamples = 2\nvalue = [ 0.  0.  0.  0.  0.  0.  0.  0.  0.  0.  0.  0.  0.  0.  0.  0.  0.  0.
  0.  2.]", shape="box"] ;
529 -> 530 ;
531 [label="gini = 0.0000\nsamples = 1\nvalue = [ 0.  0.  0.  0.  0.  0.  0.  0.  0.  0.  0.  1.  0.  0.  0.  0.  0.  0.
  0.  0.]", shape="box"] ;
529 -> 531 ;
532 [label="X[1873] <= 0.5000\ngini = 0.740740740741\nsamples = 9", shape="box"] ;
416 -> 532 ;
533 [label="X[1024] <= 0.5000\ngini = 0.5\nsamples = 6", shape="box"] ;
532 -> 533 ;
534 [label="X[348] <= 0.5000\ngini = 0.32\nsamples = 5", shape="box"] ;
533 -> 534 ;
535 [label="gini = 0.0000\nsamples = 3\nvalue = [ 0.  0.  0.  0.  0.  0.  0.  0.  0.  3.  0.  0.  0.  0.  0.  0.  0.  0.
  0.  0.]", shape="box"] ;
534 -> 535 ;
536 [label="X[1038] <= 0.5000\ngini = 0.5\nsamples = 2", shape="box"] ;
534 -> 536 ;
537 [label="gini = 0.0000\nsamples = 1\nvalue = [ 0.  0.  0.  0.  0.  0.  0.  0.  0.  0.  0.  0.  0.  1.  0.  0.  0.  0.
  0.  0.]", shape="box"] ;
536 -> 537 ;
538 [label="gini = 0.0000\nsamples = 1\nvalue = [ 0.  0.  0.  0.  0.  0.  0.  0.  0.  1.  0.  0.  0.  0.  0.  0.  0.  0.
  0.  0.]", shape="box"] ;
536 -> 538 ;
539 [label="gini = 0.0000\nsamples = 1\nvalue = [ 0.  0.  0.  0.  0.  0.  0.  0.  0.  0.  0.  0.  0.  0.  0.  0.  1.  0.
  0.  0.]", shape="box"] ;
533 -> 539 ;
540 [label="X[2207] <= 0.5000\ngini = 0.666666666667\nsamples = 3", shape="box"] ;
532 -> 540 ;
541 [label="X[2042] <= 0.5000\ngini = 0.5\nsamples = 2", shape="box"] ;
540 -> 541 ;
542 [label="gini = 0.0000\nsamples = 1\nvalue = [ 1.  0.  0.  0.  0.  0.  0.  0.  0.  0.  0.  0.  0.  0.  0.  0.  0.  0.
  0.  0.]", shape="box"] ;
541 -> 542 ;
543 [label="gini = 0.0000\nsamples = 1\nvalue = [ 0.  1.  0.  0.  0.  0.  0.  0.  0.  0.  0.  0.  0.  0.  0.  0.  0.  0.
  0.  0.]", shape="box"] ;
541 -> 543 ;
544 [label="gini = 0.0000\nsamples = 1\nvalue = [ 0.  0.  0.  0.  1.  0.  0.  0.  0.  0.  0.  0.  0.  0.  0.  0.  0.  0.
  0.  0.]", shape="box"] ;
540 -> 544 ;
545 [label="gini = 0.0000\nsamples = 2\nvalue = [ 0.  0.  0.  0.  0.  0.  0.  0.  0.  0.  0.  0.  0.  0.  0.  2.  0.  0.
  0.  0.]", shape="box"] ;
415 -> 545 ;
546 [label="gini = 0.0000\nsamples = 2\nvalue = [ 0.  0.  0.  0.  0.  2.  0.  0.  0.  0.  0.  0.  0.  0.  0.  0.  0.  0.
  0.  0.]", shape="box"] ;
414 -> 546 ;
547 [label="gini = 0.0000\nsamples = 2\nvalue = [ 0.  0.  0.  0.  0.  2.  0.  0.  0.  0.  0.  0.  0.  0.  0.  0.  0.  0.
  0.  0.]", shape="box"] ;
413 -> 547 ;
548 [label="gini = 0.0000\nsamples = 3\nvalue = [ 0.  0.  0.  0.  0.  0.  0.  0.  0.  0.  0.  3.  0.  0.  0.  0.  0.  0.
  0.  0.]", shape="box"] ;
98 -> 548 ;
549 [label="X[2594] <= 0.5000\ngini = 0.879818594104\nsamples = 42", shape="box"] ;
97 -> 549 ;
550 [label="X[166] <= 0.5000\ngini = 0.892622352082\nsamples = 37", shape="box"] ;
549 -> 550 ;
551 [label="X[667] <= 0.5000\ngini = 0.886530612245\nsamples = 35", shape="box"] ;
550 -> 551 ;
552 [label="X[74] <= 0.5000\ngini = 0.884495317378\nsamples = 31", shape="box"] ;
551 -> 552 ;
553 [label="X[1505] <= 0.5000\ngini = 0.877526753864\nsamples = 29", shape="box"] ;
552 -> 553 ;
554 [label="X[619] <= 0.5000\ngini = 0.869684499314\nsamples = 27", shape="box"] ;
553 -> 554 ;
555 [label="X[2491] <= 0.5000\ngini = 0.8672\nsamples = 25", shape="box"] ;
554 -> 555 ;
556 [label="X[861] <= 0.5000\ngini = 0.848072562358\nsamples = 21", shape="box"] ;
555 -> 556 ;
557 [label="X[2615] <= 0.5000\ngini = 0.844290657439\nsamples = 17", shape="box"] ;
556 -> 557 ;
558 [label="X[1094] <= 0.5000\ngini = 0.817777777778\nsamples = 15", shape="box"] ;
557 -> 558 ;
559 [label="X[1190] <= 0.5000\ngini = 0.805555555556\nsamples = 12", shape="box"] ;
558 -> 559 ;
560 [label="X[1204] <= 0.5000\ngini = 0.84\nsamples = 10", shape="box"] ;
559 -> 560 ;
561 [label="X[1729] <= 0.5000\ngini = 0.8125\nsamples = 8", shape="box"] ;
560 -> 561 ;
562 [label="X[2000] <= 0.5000\ngini = 0.775510204082\nsamples = 7", shape="box"] ;
561 -> 562 ;
563 [label="X[536] <= 1.5000\ngini = 0.722222222222\nsamples = 6", shape="box"] ;
562 -> 563 ;
564 [label="X[462] <= 0.5000\ngini = 0.64\nsamples = 5", shape="box"] ;
563 -> 564 ;
565 [label="X[778] <= 0.5000\ngini = 0.5\nsamples = 4", shape="box"] ;
564 -> 565 ;
566 [label="X[2539] <= 0.5000\ngini = 0.444444444444\nsamples = 3", shape="box"] ;
565 -> 566 ;
567 [label="gini = 0.0000\nsamples = 2\nvalue = [ 0.  0.  0.  2.  0.  0.  0.  0.  0.  0.  0.  0.  0.  0.  0.  0.  0.  0.
  0.  0.]", shape="box"] ;
566 -> 567 ;
568 [label="gini = 0.0000\nsamples = 1\nvalue = [ 0.  0.  0.  0.  0.  0.  0.  0.  0.  1.  0.  0.  0.  0.  0.  0.  0.  0.
  0.  0.]", shape="box"] ;
566 -> 568 ;
569 [label="gini = 0.0000\nsamples = 1\nvalue = [ 0.  0.  0.  0.  0.  0.  0.  0.  0.  1.  0.  0.  0.  0.  0.  0.  0.  0.
  0.  0.]", shape="box"] ;
565 -> 569 ;
570 [label="gini = 0.0000\nsamples = 1\nvalue = [ 0.  0.  0.  0.  0.  0.  0.  0.  1.  0.  0.  0.  0.  0.  0.  0.  0.  0.
  0.  0.]", shape="box"] ;
564 -> 570 ;
571 [label="gini = 0.0000\nsamples = 1\nvalue = [ 0.  0.  0.  0.  0.  0.  0.  1.  0.  0.  0.  0.  0.  0.  0.  0.  0.  0.
  0.  0.]", shape="box"] ;
563 -> 571 ;
572 [label="gini = 0.0000\nsamples = 1\nvalue = [ 0.  0.  1.  0.  0.  0.  0.  0.  0.  0.  0.  0.  0.  0.  0.  0.  0.  0.
  0.  0.]", shape="box"] ;
562 -> 572 ;
573 [label="gini = 0.0000\nsamples = 1\nvalue = [ 1.  0.  0.  0.  0.  0.  0.  0.  0.  0.  0.  0.  0.  0.  0.  0.  0.  0.
  0.  0.]", shape="box"] ;
561 -> 573 ;
574 [label="gini = 0.0000\nsamples = 2\nvalue = [ 0.  0.  0.  0.  2.  0.  0.  0.  0.  0.  0.  0.  0.  0.  0.  0.  0.  0.
  0.  0.]", shape="box"] ;
560 -> 574 ;
575 [label="gini = 0.0000\nsamples = 2\nvalue = [ 0.  0.  0.  2.  0.  0.  0.  0.  0.  0.  0.  0.  0.  0.  0.  0.  0.  0.
  0.  0.]", shape="box"] ;
559 -> 575 ;
576 [label="X[1782] <= 0.5000\ngini = 0.444444444444\nsamples = 3", shape="box"] ;
558 -> 576 ;
577 [label="gini = 0.0000\nsamples = 2\nvalue = [ 0.  0.  0.  0.  0.  0.  0.  0.  0.  0.  0.  0.  0.  2.  0.  0.  0.  0.
  0.  0.]", shape="box"] ;
576 -> 577 ;
578 [label="gini = 0.0000\nsamples = 1\nvalue = [ 0.  0.  0.  1.  0.  0.  0.  0.  0.  0.  0.  0.  0.  0.  0.  0.  0.  0.
  0.  0.]", shape="box"] ;
576 -> 578 ;
579 [label="gini = 0.0000\nsamples = 2\nvalue = [ 0.  0.  0.  0.  0.  0.  0.  0.  0.  0.  0.  2.  0.  0.  0.  0.  0.  0.
  0.  0.]", shape="box"] ;
557 -> 579 ;
580 [label="X[1291] <= 0.5000\ngini = 0.375\nsamples = 4", shape="box"] ;
556 -> 580 ;
581 [label="gini = 0.0000\nsamples = 3\nvalue = [ 0.  0.  0.  0.  0.  0.  0.  0.  0.  3.  0.  0.  0.  0.  0.  0.  0.  0.
  0.  0.]", shape="box"] ;
580 -> 581 ;
582 [label="gini = 0.0000\nsamples = 1\nvalue = [ 0.  0.  0.  0.  0.  0.  0.  0.  0.  0.  0.  0.  0.  0.  0.  0.  1.  0.
  0.  0.]", shape="box"] ;
580 -> 582 ;
583 [label="X[2349] <= 0.5000\ngini = 0.5\nsamples = 4", shape="box"] ;
555 -> 583 ;
584 [label="gini = 0.0000\nsamples = 2\nvalue = [ 0.  0.  0.  0.  0.  0.  0.  0.  0.  0.  0.  0.  0.  2.  0.  0.  0.  0.
  0.  0.]", shape="box"] ;
583 -> 584 ;
585 [label="gini = 0.0000\nsamples = 2\nvalue = [ 0.  0.  0.  0.  0.  2.  0.  0.  0.  0.  0.  0.  0.  0.  0.  0.  0.  0.
  0.  0.]", shape="box"] ;
583 -> 585 ;
586 [label="gini = 0.0000\nsamples = 2\nvalue = [ 0.  0.  0.  0.  2.  0.  0.  0.  0.  0.  0.  0.  0.  0.  0.  0.  0.  0.
  0.  0.]", shape="box"] ;
554 -> 586 ;
587 [label="gini = 0.0000\nsamples = 2\nvalue = [ 0.  0.  0.  0.  0.  0.  0.  0.  0.  0.  0.  0.  0.  0.  0.  0.  2.  0.
  0.  0.]", shape="box"] ;
553 -> 587 ;
588 [label="gini = 0.0000\nsamples = 2\nvalue = [ 0.  0.  2.  0.  0.  0.  0.  0.  0.  0.  0.  0.  0.  0.  0.  0.  0.  0.
  0.  0.]", shape="box"] ;
552 -> 588 ;
589 [label="X[330] <= 0.5000\ngini = 0.375\nsamples = 4", shape="box"] ;
551 -> 589 ;
590 [label="gini = 0.0000\nsamples = 3\nvalue = [ 0.  0.  0.  0.  0.  0.  0.  0.  0.  0.  0.  0.  0.  0.  0.  0.  3.  0.
  0.  0.]", shape="box"] ;
589 -> 590 ;
591 [label="gini = 0.0000\nsamples = 1\nvalue = [ 0.  0.  0.  0.  0.  0.  1.  0.  0.  0.  0.  0.  0.  0.  0.  0.  0.  0.
  0.  0.]", shape="box"] ;
589 -> 591 ;
592 [label="gini = 0.0000\nsamples = 2\nvalue = [ 0.  0.  0.  0.  0.  0.  0.  0.  2.  0.  0.  0.  0.  0.  0.  0.  0.  0.
  0.  0.]", shape="box"] ;
550 -> 592 ;
593 [label="X[1335] <= 0.5000\ngini = 0.32\nsamples = 5", shape="box"] ;
549 -> 593 ;
594 [label="gini = 0.0000\nsamples = 4\nvalue = [ 0.  0.  0.  4.  0.  0.  0.  0.  0.  0.  0.  0.  0.  0.  0.  0.  0.  0.
  0.  0.]", shape="box"] ;
593 -> 594 ;
595 [label="gini = 0.0000\nsamples = 1\nvalue = [ 0.  0.  0.  0.  1.  0.  0.  0.  0.  0.  0.  0.  0.  0.  0.  0.  0.  0.
  0.  0.]", shape="box"] ;
593 -> 595 ;
596 [label="gini = 0.0000\nsamples = 4\nvalue = [ 0.  0.  0.  0.  0.  0.  0.  0.  0.  4.  0.  0.  0.  0.  0.  0.  0.  0.
  0.  0.]", shape="box"] ;
96 -> 596 ;
597 [label="X[1094] <= 0.5000\ngini = 0.884548611111\nsamples = 48", shape="box"] ;
95 -> 597 ;
598 [label="X[2133] <= 0.5000\ngini = 0.879132231405\nsamples = 44", shape="box"] ;
597 -> 598 ;
599 [label="X[2611] <= 0.5000\ngini = 0.89375\nsamples = 40", shape="box"] ;
598 -> 599 ;
600 [label="X[1386] <= 0.5000\ngini = 0.869822485207\nsamples = 26", shape="box"] ;
599 -> 600 ;
601 [label="X[2292] <= 0.5000\ngini = 0.863636363636\nsamples = 22", shape="box"] ;
600 -> 601 ;
602 [label="X[953] <= 0.5000\ngini = 0.845\nsamples = 20", shape="box"] ;
601 -> 602 ;
603 [label="X[629] <= 0.5000\ngini = 0.833333333333\nsamples = 18", shape="box"] ;
602 -> 603 ;
604 [label="X[2647] <= 0.5000\ngini = 0.8046875\nsamples = 16", shape="box"] ;
603 -> 604 ;
605 [label="X[1233] <= 0.5000\ngini = 0.5625\nsamples = 8", shape="box"] ;
604 -> 605 ;
606 [label="X[2943] <= 0.5000\ngini = 0.448979591837\nsamples = 7", shape="box"] ;
605 -> 606 ;
607 [label="X[47] <= 0.5000\ngini = 0.277777777778\nsamples = 6", shape="box"] ;
606 -> 607 ;
608 [label="gini = 0.0000\nsamples = 3\nvalue = [ 0.  0.  0.  0.  0.  0.  0.  0.  0.  0.  0.  0.  0.  0.  3.  0.  0.  0.
  0.  0.]", shape="box"] ;
607 -> 608 ;
609 [label="X[247] <= 0.5000\ngini = 0.444444444444\nsamples = 3", shape="box"] ;
607 -> 609 ;
610 [label="gini = 0.0000\nsamples = 1\nvalue = [ 0.  0.  0.  0.  0.  0.  0.  0.  0.  0.  0.  0.  0.  0.  0.  0.  0.  0.
  0.  1.]", shape="box"] ;
609 -> 610 ;
611 [label="gini = 0.0000\nsamples = 2\nvalue = [ 0.  0.  0.  0.  0.  0.  0.  0.  0.  0.  0.  0.  0.  0.  2.  0.  0.  0.
  0.  0.]", shape="box"] ;
609 -> 611 ;
612 [label="gini = 0.0000\nsamples = 1\nvalue = [ 0.  0.  0.  0.  0.  0.  0.  0.  0.  0.  0.  0.  0.  0.  0.  0.  1.  0.
  0.  0.]", shape="box"] ;
606 -> 612 ;
613 [label="gini = 0.0000\nsamples = 1\nvalue = [ 0.  0.  0.  1.  0.  0.  0.  0.  0.  0.  0.  0.  0.  0.  0.  0.  0.  0.
  0.  0.]", shape="box"] ;
605 -> 613 ;
614 [label="X[257] <= 0.5000\ngini = 0.875\nsamples = 8", shape="box"] ;
604 -> 614 ;
615 [label="X[1720] <= 0.5000\ngini = 0.857142857143\nsamples = 7", shape="box"] ;
614 -> 615 ;
616 [label="X[2349] <= 0.5000\ngini = 0.833333333333\nsamples = 6", shape="box"] ;
615 -> 616 ;
617 [label="X[1667] <= 0.5000\ngini = 0.75\nsamples = 4", shape="box"] ;
616 -> 617 ;
618 [label="X[1707] <= 0.5000\ngini = 0.666666666667\nsamples = 3", shape="box"] ;
617 -> 618 ;
619 [label="X[89] <= 0.5000\ngini = 0.5\nsamples = 2", shape="box"] ;
618 -> 619 ;
620 [label="gini = 0.0000\nsamples = 1\nvalue = [ 0.  0.  0.  0.  0.  0.  0.  0.  0.  0.  0.  0.  1.  0.  0.  0.  0.  0.
  0.  0.]", shape="box"] ;
619 -> 620 ;
621 [label="gini = 0.0000\nsamples = 1\nvalue = [ 0.  0.  0.  0.  0.  0.  0.  0.  0.  0.  0.  0.  0.  0.  0.  0.  1.  0.
  0.  0.]", shape="box"] ;
619 -> 621 ;
622 [label="gini = 0.0000\nsamples = 1\nvalue = [ 0.  0.  0.  0.  0.  0.  0.  0.  0.  0.  1.  0.  0.  0.  0.  0.  0.  0.
  0.  0.]", shape="box"] ;
618 -> 622 ;
623 [label="gini = 0.0000\nsamples = 1\nvalue = [ 0.  0.  0.  0.  0.  0.  0.  0.  0.  0.  0.  0.  0.  0.  0.  0.  0.  0.
  0.  1.]", shape="box"] ;
617 -> 623 ;
624 [label="X[702] <= 0.5000\ngini = 0.5\nsamples = 2", shape="box"] ;
616 -> 624 ;
625 [label="gini = 0.0000\nsamples = 1\nvalue = [ 0.  0.  0.  0.  0.  0.  0.  0.  0.  0.  0.  0.  0.  0.  0.  1.  0.  0.
  0.  0.]", shape="box"] ;
624 -> 625 ;
626 [label="gini = 0.0000\nsamples = 1\nvalue = [ 0.  0.  0.  0.  0.  0.  1.  0.  0.  0.  0.  0.  0.  0.  0.  0.  0.  0.
  0.  0.]", shape="box"] ;
624 -> 626 ;
627 [label="gini = 0.0000\nsamples = 1\nvalue = [ 0.  0.  0.  0.  0.  0.  0.  1.  0.  0.  0.  0.  0.  0.  0.  0.  0.  0.
  0.  0.]", shape="box"] ;
615 -> 627 ;
628 [label="gini = 0.0000\nsamples = 1\nvalue = [ 0.  0.  0.  0.  0.  0.  0.  0.  0.  0.  0.  0.  0.  0.  1.  0.  0.  0.
  0.  0.]", shape="box"] ;
614 -> 628 ;
629 [label="gini = 0.0000\nsamples = 2\nvalue = [ 0.  0.  0.  0.  0.  0.  0.  0.  0.  2.  0.  0.  0.  0.  0.  0.  0.  0.
  0.  0.]", shape="box"] ;
603 -> 629 ;
630 [label="gini = 0.0000\nsamples = 2\nvalue = [ 0.  0.  0.  2.  0.  0.  0.  0.  0.  0.  0.  0.  0.  0.  0.  0.  0.  0.
  0.  0.]", shape="box"] ;
602 -> 630 ;
631 [label="gini = 0.0000\nsamples = 2\nvalue = [ 0.  0.  2.  0.  0.  0.  0.  0.  0.  0.  0.  0.  0.  0.  0.  0.  0.  0.
  0.  0.]", shape="box"] ;
601 -> 631 ;
632 [label="X[1204] <= 0.5000\ngini = 0.375\nsamples = 4", shape="box"] ;
600 -> 632 ;
633 [label="gini = 0.0000\nsamples = 3\nvalue = [ 0.  0.  0.  0.  0.  0.  0.  0.  0.  0.  0.  0.  0.  0.  0.  0.  3.  0.
  0.  0.]", shape="box"] ;
632 -> 633 ;
634 [label="gini = 0.0000\nsamples = 1\nvalue = [ 0.  0.  0.  0.  0.  1.  0.  0.  0.  0.  0.  0.  0.  0.  0.  0.  0.  0.
  0.  0.]", shape="box"] ;
632 -> 634 ;
635 [label="X[1170] <= 0.5000\ngini = 0.755102040816\nsamples = 14", shape="box"] ;
599 -> 635 ;
636 [label="X[2647] <= 0.5000\ngini = 0.694444444444\nsamples = 12", shape="box"] ;
635 -> 636 ;
637 [label="X[2124] <= 0.5000\ngini = 0.666666666667\nsamples = 3", shape="box"] ;
636 -> 637 ;
638 [label="X[1024] <= 0.5000\ngini = 0.5\nsamples = 2", shape="box"] ;
637 -> 638 ;
639 [label="gini = 0.0000\nsamples = 1\nvalue = [ 0.  0.  0.  0.  0.  0.  0.  0.  0.  0.  0.  0.  1.  0.  0.  0.  0.  0.
  0.  0.]", shape="box"] ;
638 -> 639 ;
640 [label="gini = 0.0000\nsamples = 1\nvalue = [ 0.  0.  0.  0.  0.  0.  0.  0.  0.  1.  0.  0.  0.  0.  0.  0.  0.  0.
  0.  0.]", shape="box"] ;
638 -> 640 ;
641 [label="gini = 0.0000\nsamples = 1\nvalue = [ 0.  0.  0.  0.  0.  0.  0.  0.  0.  0.  0.  0.  0.  0.  0.  1.  0.  0.
  0.  0.]", shape="box"] ;
637 -> 641 ;
642 [label="X[1980] <= 0.5000\ngini = 0.518518518519\nsamples = 9", shape="box"] ;
636 -> 642 ;
643 [label="X[1386] <= 0.5000\ngini = 0.40625\nsamples = 8", shape="box"] ;
642 -> 643 ;
644 [label="X[1279] <= 0.5000\ngini = 0.244897959184\nsamples = 7", shape="box"] ;
643 -> 644 ;
645 [label="X[1851] <= 0.5000\ngini = 0.32\nsamples = 5", shape="box"] ;
644 -> 645 ;
646 [label="gini = 0.0000\nsamples = 4\nvalue = [ 0.  0.  0.  0.  0.  0.  0.  0.  0.  0.  0.  0.  0.  4.  0.  0.  0.  0.
  0.  0.]", shape="box"] ;
645 -> 646 ;
647 [label="gini = 0.0000\nsamples = 1\nvalue = [ 0.  0.  0.  0.  0.  0.  0.  0.  0.  0.  0.  0.  0.  0.  0.  0.  0.  1.
  0.  0.]", shape="box"] ;
645 -> 647 ;
648 [label="gini = 0.0000\nsamples = 2\nvalue = [ 0.  0.  0.  0.  0.  0.  0.  0.  0.  0.  0.  0.  0.  2.  0.  0.  0.  0.
  0.  0.]", shape="box"] ;
644 -> 648 ;
649 [label="gini = 0.0000\nsamples = 1\nvalue = [ 0.  0.  0.  0.  0.  0.  0.  0.  0.  1.  0.  0.  0.  0.  0.  0.  0.  0.
  0.  0.]", shape="box"] ;
643 -> 649 ;
650 [label="gini = 0.0000\nsamples = 1\nvalue = [ 0.  0.  0.  0.  0.  0.  1.  0.  0.  0.  0.  0.  0.  0.  0.  0.  0.  0.
  0.  0.]", shape="box"] ;
642 -> 650 ;
651 [label="gini = 0.0000\nsamples = 2\nvalue = [ 0.  0.  0.  0.  0.  0.  0.  0.  0.  0.  0.  0.  0.  0.  0.  0.  2.  0.
  0.  0.]", shape="box"] ;
635 -> 651 ;
652 [label="gini = 0.0000\nsamples = 4\nvalue = [ 0.  0.  0.  0.  0.  0.  0.  0.  0.  0.  0.  0.  0.  4.  0.  0.  0.  0.
  0.  0.]", shape="box"] ;
598 -> 652 ;
653 [label="gini = 0.0000\nsamples = 4\nvalue = [ 0.  0.  0.  0.  0.  0.  4.  0.  0.  0.  0.  0.  0.  0.  0.  0.  0.  0.
  0.  0.]", shape="box"] ;
597 -> 653 ;
654 [label="X[1707] <= 0.5000\ngini = 0.867464818315\nsamples = 69", shape="box"] ;
94 -> 654 ;
655 [label="X[898] <= 0.5000\ngini = 0.859341335796\nsamples = 57", shape="box"] ;
654 -> 655 ;
656 [label="X[2911] <= 0.5000\ngini = 0.855108579566\nsamples = 53", shape="box"] ;
655 -> 656 ;
657 [label="X[1698] <= 0.5000\ngini = 0.870470637234\nsamples = 49", shape="box"] ;
656 -> 657 ;
658 [label="X[80] <= 0.5000\ngini = 0.864644635582\nsamples = 47", shape="box"] ;
657 -> 658 ;
659 [label="X[1873] <= 0.5000\ngini = 0.854338842975\nsamples = 44", shape="box"] ;
658 -> 659 ;
660 [label="X[2611] <= 0.5000\ngini = 0.83759666865\nsamples = 41", shape="box"] ;
659 -> 660 ;
661 [label="X[1386] <= 1.5000\ngini = 0.847333820307\nsamples = 37", shape="box"] ;
660 -> 661 ;
662 [label="X[89] <= 0.5000\ngini = 0.841796875\nsamples = 32", shape="box"] ;
661 -> 662 ;
663 [label="X[2349] <= 0.5000\ngini = 0.813775510204\nsamples = 28", shape="box"] ;
662 -> 663 ;
664 [label="X[2077] <= 0.5000\ngini = 0.691358024691\nsamples = 18", shape="box"] ;
663 -> 664 ;
665 [label="X[2181] <= 0.5000\ngini = 0.657439446367\nsamples = 17", shape="box"] ;
664 -> 665 ;
666 [label="X[2324] <= 0.5000\ngini = 0.6171875\nsamples = 16", shape="box"] ;
665 -> 666 ;
667 [label="X[909] <= 0.5000\ngini = 0.540816326531\nsamples = 14", shape="box"] ;
666 -> 667 ;
668 [label="X[2042] <= 0.5000\ngini = 0.473372781065\nsamples = 13", shape="box"] ;
667 -> 668 ;
669 [label="X[1633] <= 0.5000\ngini = 0.402777777778\nsamples = 12", shape="box"] ;
668 -> 669 ;
670 [label="X[2426] <= 0.5000\ngini = 0.314049586777\nsamples = 11", shape="box"] ;
669 -> 670 ;
671 [label="X[2922] <= 0.5000\ngini = 0.18\nsamples = 10", shape="box"] ;
670 -> 671 ;
672 [label="gini = 0.0000\nsamples = 7\nvalue = [ 0.  0.  0.  0.  0.  0.  0.  0.  0.  7.  0.  0.  0.  0.  0.  0.  0.  0.
  0.  0.]", shape="box"] ;
671 -> 672 ;
673 [label="X[277] <= 0.5000\ngini = 0.444444444444\nsamples = 3", shape="box"] ;
671 -> 673 ;
674 [label="gini = 0.0000\nsamples = 1\nvalue = [ 0.  0.  0.  0.  0.  0.  0.  0.  0.  1.  0.  0.  0.  0.  0.  0.  0.  0.
  0.  0.]", shape="box"] ;
673 -> 674 ;
675 [label="X[1518] <= 1.5000\ngini = 0.5\nsamples = 2", shape="box"] ;
673 -> 675 ;
676 [label="gini = 0.0000\nsamples = 1\nvalue = [ 0.  0.  0.  0.  0.  0.  0.  0.  0.  0.  0.  0.  0.  0.  0.  0.  1.  0.
  0.  0.]", shape="box"] ;
675 -> 676 ;
677 [label="gini = 0.0000\nsamples = 1\nvalue = [ 0.  0.  0.  0.  0.  0.  0.  0.  0.  1.  0.  0.  0.  0.  0.  0.  0.  0.
  0.  0.]", shape="box"] ;
675 -> 677 ;
678 [label="gini = 0.0000\nsamples = 1\nvalue = [ 0.  1.  0.  0.  0.  0.  0.  0.  0.  0.  0.  0.  0.  0.  0.  0.  0.  0.
  0.  0.]", shape="box"] ;
670 -> 678 ;
679 [label="gini = 0.0000\nsamples = 1\nvalue = [ 0.  1.  0.  0.  0.  0.  0.  0.  0.  0.  0.  0.  0.  0.  0.  0.  0.  0.
  0.  0.]", shape="box"] ;
669 -> 679 ;
680 [label="gini = 0.0000\nsamples = 1\nvalue = [ 0.  0.  0.  0.  0.  0.  0.  0.  0.  0.  0.  0.  0.  0.  0.  0.  1.  0.
  0.  0.]", shape="box"] ;
668 -> 680 ;
681 [label="gini = 0.0000\nsamples = 1\nvalue = [ 1.  0.  0.  0.  0.  0.  0.  0.  0.  0.  0.  0.  0.  0.  0.  0.  0.  0.
  0.  0.]", shape="box"] ;
667 -> 681 ;
682 [label="X[2579] <= 0.5000\ngini = 0.5\nsamples = 2", shape="box"] ;
666 -> 682 ;
683 [label="gini = 0.0000\nsamples = 1\nvalue = [ 1.  0.  0.  0.  0.  0.  0.  0.  0.  0.  0.  0.  0.  0.  0.  0.  0.  0.
  0.  0.]", shape="box"] ;
682 -> 683 ;
684 [label="gini = 0.0000\nsamples = 1\nvalue = [ 0.  0.  0.  0.  0.  0.  0.  0.  0.  0.  0.  0.  0.  0.  0.  0.  1.  0.
  0.  0.]", shape="box"] ;
682 -> 684 ;
685 [label="gini = 0.0000\nsamples = 1\nvalue = [ 0.  0.  0.  0.  0.  0.  0.  0.  0.  0.  0.  0.  0.  0.  1.  0.  0.  0.
  0.  0.]", shape="box"] ;
665 -> 685 ;
686 [label="gini = 0.0000\nsamples = 1\nvalue = [ 0.  0.  1.  0.  0.  0.  0.  0.  0.  0.  0.  0.  0.  0.  0.  0.  0.  0.
  0.  0.]", shape="box"] ;
664 -> 686 ;
687 [label="X[1094] <= 0.5000\ngini = 0.86\nsamples = 10", shape="box"] ;
663 -> 687 ;
688 [label="X[2647] <= 0.5000\ngini = 0.8125\nsamples = 8", shape="box"] ;
687 -> 688 ;
689 [label="X[1386] <= 0.5000\ngini = 0.444444444444\nsamples = 3", shape="box"] ;
688 -> 689 ;
690 [label="gini = 0.5000\nsamples = 2\nvalue = [ 0.  0.  0.  0.  0.  0.  0.  0.  0.  0.  0.  0.  0.  0.  1.  0.  0.  0.
  0.  1.]", shape="box"] ;
689 -> 690 ;
691 [label="gini = 0.0000\nsamples = 1\nvalue = [ 0.  0.  0.  0.  0.  0.  0.  0.  0.  0.  0.  0.  0.  0.  0.  0.  0.  0.
  0.  1.]", shape="box"] ;
689 -> 691 ;
692 [label="X[1170] <= 0.5000\ngini = 0.72\nsamples = 5", shape="box"] ;
688 -> 692 ;
693 [label="X[256] <= 0.5000\ngini = 0.625\nsamples = 4", shape="box"] ;
692 -> 693 ;
694 [label="X[1509] <= 0.5000\ngini = 0.444444444444\nsamples = 3", shape="box"] ;
693 -> 694 ;
695 [label="gini = 0.0000\nsamples = 2\nvalue = [ 0.  0.  0.  0.  0.  0.  0.  0.  0.  0.  0.  0.  0.  0.  0.  0.  2.  0.
  0.  0.]", shape="box"] ;
694 -> 695 ;
696 [label="gini = 0.0000\nsamples = 1\nvalue = [ 0.  0.  0.  0.  0.  0.  0.  0.  0.  0.  1.  0.  0.  0.  0.  0.  0.  0.
  0.  0.]", shape="box"] ;
694 -> 696 ;
697 [label="gini = 0.0000\nsamples = 1\nvalue = [ 0.  0.  0.  0.  0.  1.  0.  0.  0.  0.  0.  0.  0.  0.  0.  0.  0.  0.
  0.  0.]", shape="box"] ;
693 -> 697 ;
698 [label="gini = 0.0000\nsamples = 1\nvalue = [ 0.  0.  0.  0.  0.  0.  0.  0.  1.  0.  0.  0.  0.  0.  0.  0.  0.  0.
  0.  0.]", shape="box"] ;
692 -> 698 ;
699 [label="X[577] <= 0.5000\ngini = 0.5\nsamples = 2", shape="box"] ;
687 -> 699 ;
700 [label="gini = 0.0000\nsamples = 1\nvalue = [ 0.  0.  0.  0.  0.  0.  0.  0.  0.  1.  0.  0.  0.  0.  0.  0.  0.  0.
  0.  0.]", shape="box"] ;
699 -> 700 ;
701 [label="gini = 0.0000\nsamples = 1\nvalue = [ 0.  0.  0.  0.  0.  0.  0.  0.  0.  0.  0.  0.  0.  0.  0.  0.  0.  1.
  0.  0.]", shape="box"] ;
699 -> 701 ;
702 [label="X[969] <= 0.5000\ngini = 0.625\nsamples = 4", shape="box"] ;
662 -> 702 ;
703 [label="X[2647] <= 0.5000\ngini = 0.444444444444\nsamples = 3", shape="box"] ;
702 -> 703 ;
704 [label="gini = 0.0000\nsamples = 1\nvalue = [ 0.  0.  0.  0.  0.  0.  0.  0.  1.  0.  0.  0.  0.  0.  0.  0.  0.  0.
  0.  0.]", shape="box"] ;
703 -> 704 ;
705 [label="gini = 0.0000\nsamples = 2\nvalue = [ 0.  0.  0.  0.  0.  2.  0.  0.  0.  0.  0.  0.  0.  0.  0.  0.  0.  0.
  0.  0.]", shape="box"] ;
703 -> 705 ;
706 [label="gini = 0.0000\nsamples = 1\nvalue = [ 0.  1.  0.  0.  0.  0.  0.  0.  0.  0.  0.  0.  0.  0.  0.  0.  0.  0.
  0.  0.]", shape="box"] ;
702 -> 706 ;
707 [label="X[631] <= 0.5000\ngini = 0.56\nsamples = 5", shape="box"] ;
661 -> 707 ;
708 [label="X[47] <= 0.5000\ngini = 0.375\nsamples = 4", shape="box"] ;
707 -> 708 ;
709 [label="gini = 0.0000\nsamples = 3\nvalue = [ 0.  0.  0.  0.  0.  0.  0.  0.  0.  0.  0.  0.  0.  0.  0.  0.  3.  0.
  0.  0.]", shape="box"] ;
708 -> 709 ;
710 [label="gini = 0.0000\nsamples = 1\nvalue = [ 0.  0.  0.  0.  0.  0.  0.  0.  1.  0.  0.  0.  0.  0.  0.  0.  0.  0.
  0.  0.]", shape="box"] ;
708 -> 710 ;
711 [label="gini = 0.0000\nsamples = 1\nvalue = [ 0.  0.  0.  0.  0.  0.  0.  0.  0.  0.  0.  0.  0.  0.  0.  0.  0.  1.
  0.  0.]", shape="box"] ;
707 -> 711 ;
712 [label="X[1877] <= 1.0000\ngini = 0.375\nsamples = 4", shape="box"] ;
660 -> 712 ;
713 [label="gini = 0.0000\nsamples = 3\nvalue = [ 0.  0.  0.  0.  0.  0.  0.  0.  0.  0.  0.  0.  0.  0.  0.  0.  3.  0.
  0.  0.]", shape="box"] ;
712 -> 713 ;
714 [label="gini = 0.0000\nsamples = 1\nvalue = [ 0.  0.  0.  0.  0.  1.  0.  0.  0.  0.  0.  0.  0.  0.  0.  0.  0.  0.
  0.  0.]", shape="box"] ;
712 -> 714 ;
715 [label="X[1204] <= 0.5000\ngini = 0.444444444444\nsamples = 3", shape="box"] ;
659 -> 715 ;
716 [label="gini = 0.0000\nsamples = 2\nvalue = [ 0.  0.  2.  0.  0.  0.  0.  0.  0.  0.  0.  0.  0.  0.  0.  0.  0.  0.
  0.  0.]", shape="box"] ;
715 -> 716 ;
717 [label="gini = 0.0000\nsamples = 1\nvalue = [ 0.  0.  0.  0.  0.  0.  0.  1.  0.  0.  0.  0.  0.  0.  0.  0.  0.  0.
  0.  0.]", shape="box"] ;
715 -> 717 ;
718 [label="X[2647] <= 0.5000\ngini = 0.444444444444\nsamples = 3", shape="box"] ;
658 -> 718 ;
719 [label="gini = 0.0000\nsamples = 1\nvalue = [ 0.  0.  0.  0.  0.  0.  0.  0.  0.  0.  0.  1.  0.  0.  0.  0.  0.  0.
  0.  0.]", shape="box"] ;
718 -> 719 ;
720 [label="gini = 0.0000\nsamples = 2\nvalue = [ 0.  2.  0.  0.  0.  0.  0.  0.  0.  0.  0.  0.  0.  0.  0.  0.  0.  0.
  0.  0.]", shape="box"] ;
718 -> 720 ;
721 [label="gini = 0.0000\nsamples = 2\nvalue = [ 0.  0.  0.  0.  0.  0.  0.  0.  0.  0.  0.  0.  0.  0.  2.  0.  0.  0.
  0.  0.]", shape="box"] ;
657 -> 721 ;
722 [label="gini = 0.0000\nsamples = 4\nvalue = [ 0.  0.  0.  0.  0.  0.  0.  0.  0.  4.  0.  0.  0.  0.  0.  0.  0.  0.
  0.  0.]", shape="box"] ;
656 -> 722 ;
723 [label="X[676] <= 0.5000\ngini = 0.375\nsamples = 4", shape="box"] ;
655 -> 723 ;
724 [label="gini = 0.0000\nsamples = 3\nvalue = [ 0.  0.  0.  0.  0.  0.  0.  0.  0.  0.  0.  0.  0.  0.  0.  0.  0.  3.
  0.  0.]", shape="box"] ;
723 -> 724 ;
725 [label="gini = 0.0000\nsamples = 1\nvalue = [ 0.  0.  0.  0.  0.  0.  0.  0.  0.  1.  0.  0.  0.  0.  0.  0.  0.  0.
  0.  0.]", shape="box"] ;
723 -> 725 ;
726 [label="X[1386] <= 0.5000\ngini = 0.583333333333\nsamples = 12", shape="box"] ;
654 -> 726 ;
727 [label="X[1099] <= 0.5000\ngini = 0.666666666667\nsamples = 6", shape="box"] ;
726 -> 727 ;
728 [label="X[452] <= 0.5000\ngini = 0.56\nsamples = 5", shape="box"] ;
727 -> 728 ;
729 [label="X[944] <= 0.5000\ngini = 0.375\nsamples = 4", shape="box"] ;
728 -> 729 ;
730 [label="X[2398] <= 0.5000\ngini = 0.5\nsamples = 2", shape="box"] ;
729 -> 730 ;
731 [label="gini = 0.0000\nsamples = 1\nvalue = [ 0.  0.  0.  0.  0.  0.  0.  0.  0.  0.  0.  0.  0.  0.  0.  1.  0.  0.
  0.  0.]", shape="box"] ;
730 -> 731 ;
732 [label="gini = 0.0000\nsamples = 1\nvalue = [ 0.  0.  0.  0.  0.  0.  0.  0.  0.  1.  0.  0.  0.  0.  0.  0.  0.  0.
  0.  0.]", shape="box"] ;
730 -> 732 ;
733 [label="gini = 0.0000\nsamples = 2\nvalue = [ 0.  0.  0.  0.  0.  0.  0.  0.  0.  2.  0.  0.  0.  0.  0.  0.  0.  0.
  0.  0.]", shape="box"] ;
729 -> 733 ;
734 [label="gini = 0.0000\nsamples = 1\nvalue = [ 0.  0.  0.  0.  0.  0.  0.  1.  0.  0.  0.  0.  0.  0.  0.  0.  0.  0.
  0.  0.]", shape="box"] ;
728 -> 734 ;
735 [label="gini = 0.0000\nsamples = 1\nvalue = [ 0.  0.  0.  0.  0.  0.  0.  0.  0.  0.  0.  0.  0.  0.  0.  0.  0.  1.
  0.  0.]", shape="box"] ;
727 -> 735 ;
736 [label="gini = 0.0000\nsamples = 6\nvalue = [ 0.  0.  0.  0.  0.  0.  0.  6.  0.  0.  0.  0.  0.  0.  0.  0.  0.  0.
  0.  0.]", shape="box"] ;
726 -> 736 ;
737 [label="X[1787] <= 0.5000\ngini = 0.408163265306\nsamples = 7", shape="box"] ;
93 -> 737 ;
738 [label="gini = 0.0000\nsamples = 5\nvalue = [ 0.  0.  0.  0.  0.  5.  0.  0.  0.  0.  0.  0.  0.  0.  0.  0.  0.  0.
  0.  0.]", shape="box"] ;
737 -> 738 ;
739 [label="gini = 0.0000\nsamples = 2\nvalue = [ 0.  0.  0.  0.  0.  0.  0.  0.  0.  2.  0.  0.  0.  0.  0.  0.  0.  0.
  0.  0.]", shape="box"] ;
737 -> 739 ;
740 [label="gini = 0.0000\nsamples = 4\nvalue = [ 0.  0.  0.  0.  0.  0.  4.  0.  0.  0.  0.  0.  0.  0.  0.  0.  0.  0.
  0.  0.]", shape="box"] ;
92 -> 740 ;
741 [label="X[2904] <= 0.5000\ngini = 0.277777777778\nsamples = 6", shape="box"] ;
91 -> 741 ;
742 [label="gini = 0.0000\nsamples = 5\nvalue = [ 0.  0.  0.  0.  0.  0.  0.  0.  0.  0.  0.  0.  0.  5.  0.  0.  0.  0.
  0.  0.]", shape="box"] ;
741 -> 742 ;
743 [label="gini = 0.0000\nsamples = 1\nvalue = [ 0.  0.  0.  0.  0.  0.  0.  0.  0.  1.  0.  0.  0.  0.  0.  0.  0.  0.
  0.  0.]", shape="box"] ;
741 -> 743 ;
744 [label="gini = 0.0000\nsamples = 5\nvalue = [ 0.  0.  0.  0.  0.  0.  0.  0.  0.  5.  0.  0.  0.  0.  0.  0.  0.  0.
  0.  0.]", shape="box"] ;
90 -> 744 ;
745 [label="gini = 0.0000\nsamples = 4\nvalue = [ 0.  0.  0.  0.  0.  0.  0.  0.  0.  0.  0.  0.  4.  0.  0.  0.  0.  0.
  0.  0.]", shape="box"] ;
89 -> 745 ;
746 [label="X[184] <= 0.5000\ngini = 0.645\nsamples = 20", shape="box"] ;
88 -> 746 ;
747 [label="X[92] <= 0.5000\ngini = 0.602076124567\nsamples = 17", shape="box"] ;
746 -> 747 ;
748 [label="X[1877] <= 0.5000\ngini = 0.5546875\nsamples = 16", shape="box"] ;
747 -> 748 ;
749 [label="X[2983] <= 0.5000\ngini = 0.438775510204\nsamples = 14", shape="box"] ;
748 -> 749 ;
750 [label="X[846] <= 0.5000\ngini = 0.277777777778\nsamples = 12", shape="box"] ;
749 -> 750 ;
751 [label="X[1043] <= 0.5000\ngini = 0.165289256198\nsamples = 11", shape="box"] ;
750 -> 751 ;
752 [label="gini = 0.0000\nsamples = 10\nvalue = [  0.   0.   0.   0.   0.   0.   0.   0.   0.  10.   0.   0.   0.   0.   0.
   0.   0.   0.   0.   0.]", shape="box"] ;
751 -> 752 ;
753 [label="gini = 0.0000\nsamples = 1\nvalue = [ 0.  0.  0.  0.  0.  0.  0.  0.  0.  0.  0.  0.  0.  1.  0.  0.  0.  0.
  0.  0.]", shape="box"] ;
751 -> 753 ;
754 [label="gini = 0.0000\nsamples = 1\nvalue = [ 0.  0.  0.  0.  0.  0.  0.  0.  0.  0.  0.  0.  0.  1.  0.  0.  0.  0.
  0.  0.]", shape="box"] ;
750 -> 754 ;
755 [label="X[2343] <= 0.5000\ngini = 0.5\nsamples = 2", shape="box"] ;
749 -> 755 ;
756 [label="gini = 0.0000\nsamples = 1\nvalue = [ 0.  0.  0.  0.  0.  0.  0.  0.  0.  0.  0.  0.  0.  1.  0.  0.  0.  0.
  0.  0.]", shape="box"] ;
755 -> 756 ;
757 [label="gini = 0.0000\nsamples = 1\nvalue = [ 0.  0.  0.  0.  0.  0.  0.  0.  0.  0.  0.  0.  0.  0.  0.  0.  1.  0.
  0.  0.]", shape="box"] ;
755 -> 757 ;
758 [label="gini = 0.0000\nsamples = 2\nvalue = [ 0.  0.  0.  2.  0.  0.  0.  0.  0.  0.  0.  0.  0.  0.  0.  0.  0.  0.
  0.  0.]", shape="box"] ;
748 -> 758 ;
759 [label="gini = 0.0000\nsamples = 1\nvalue = [ 0.  0.  0.  0.  0.  0.  0.  0.  0.  0.  0.  0.  0.  0.  0.  1.  0.  0.
  0.  0.]", shape="box"] ;
747 -> 759 ;
760 [label="gini = 0.0000\nsamples = 3\nvalue = [ 0.  0.  0.  0.  0.  0.  0.  0.  0.  0.  0.  0.  0.  3.  0.  0.  0.  0.
  0.  0.]", shape="box"] ;
746 -> 760 ;
761 [label="gini = 0.0000\nsamples = 5\nvalue = [ 0.  0.  0.  0.  0.  5.  0.  0.  0.  0.  0.  0.  0.  0.  0.  0.  0.  0.
  0.  0.]", shape="box"] ;
87 -> 761 ;
762 [label="X[1170] <= 0.5000\ngini = 0.277777777778\nsamples = 6", shape="box"] ;
86 -> 762 ;
763 [label="gini = 0.0000\nsamples = 5\nvalue = [ 0.  0.  0.  0.  0.  0.  0.  0.  0.  0.  0.  5.  0.  0.  0.  0.  0.  0.
  0.  0.]", shape="box"] ;
762 -> 763 ;
764 [label="gini = 0.0000\nsamples = 1\nvalue = [ 0.  0.  0.  0.  0.  0.  0.  0.  0.  0.  0.  0.  1.  0.  0.  0.  0.  0.
  0.  0.]", shape="box"] ;
762 -> 764 ;
765 [label="gini = 0.0000\nsamples = 6\nvalue = [ 0.  0.  0.  0.  0.  0.  0.  0.  0.  6.  0.  0.  0.  0.  0.  0.  0.  0.
  0.  0.]", shape="box"] ;
85 -> 765 ;
766 [label="X[536] <= 0.5000\ngini = 0.244897959184\nsamples = 7", shape="box"] ;
84 -> 766 ;
767 [label="gini = 0.0000\nsamples = 6\nvalue = [ 0.  0.  0.  0.  0.  0.  0.  0.  0.  0.  0.  0.  0.  0.  0.  6.  0.  0.
  0.  0.]", shape="box"] ;
766 -> 767 ;
768 [label="gini = 0.0000\nsamples = 1\nvalue = [ 0.  1.  0.  0.  0.  0.  0.  0.  0.  0.  0.  0.  0.  0.  0.  0.  0.  0.
  0.  0.]", shape="box"] ;
766 -> 768 ;
769 [label="gini = 0.0000\nsamples = 6\nvalue = [ 0.  0.  0.  0.  0.  0.  0.  0.  0.  6.  0.  0.  0.  0.  0.  0.  0.  0.
  0.  0.]", shape="box"] ;
83 -> 769 ;
770 [label="X[1707] <= 0.5000\ngini = 0.876666666667\nsamples = 180", shape="box"] ;
82 -> 770 ;
771 [label="X[46] <= 0.5000\ngini = 0.847503059262\nsamples = 131", shape="box"] ;
770 -> 771 ;
772 [label="X[320] <= 0.5000\ngini = 0.91041322314\nsamples = 55", shape="box"] ;
771 -> 772 ;
773 [label="X[1623] <= 0.5000\ngini = 0.913785922532\nsamples = 49", shape="box"] ;
772 -> 773 ;
774 [label="X[636] <= 0.5000\ngini = 0.90375\nsamples = 40", shape="box"] ;
773 -> 774 ;
775 [label="X[2933] <= 0.5000\ngini = 0.898891966759\nsamples = 38", shape="box"] ;
774 -> 775 ;
776 [label="X[89] <= 0.5000\ngini = 0.890625\nsamples = 32", shape="box"] ;
775 -> 776 ;
777 [label="X[1190] <= 0.5000\ngini = 0.887039239001\nsamples = 29", shape="box"] ;
776 -> 777 ;
778 [label="X[2869] <= 0.5000\ngini = 0.902606310014\nsamples = 27", shape="box"] ;
777 -> 778 ;
779 [label="X[2922] <= 0.5000\ngini = 0.896449704142\nsamples = 26", shape="box"] ;
778 -> 779 ;
780 [label="X[1998] <= 0.5000\ngini = 0.777777777778\nsamples = 6", shape="box"] ;
779 -> 780 ;
781 [label="X[2349] <= 0.5000\ngini = 0.625\nsamples = 4", shape="box"] ;
780 -> 781 ;
782 [label="gini = 0.0000\nsamples = 1\nvalue = [ 0.  0.  0.  0.  0.  0.  0.  0.  0.  0.  1.  0.  0.  0.  0.  0.  0.  0.
  0.  0.]", shape="box"] ;
781 -> 782 ;
783 [label="X[3004] <= 0.5000\ngini = 0.444444444444\nsamples = 3", shape="box"] ;
781 -> 783 ;
784 [label="gini = 0.0000\nsamples = 2\nvalue = [ 0.  0.  0.  0.  0.  0.  0.  0.  0.  0.  0.  0.  0.  0.  0.  0.  2.  0.
  0.  0.]", shape="box"] ;
783 -> 784 ;
785 [label="gini = 0.0000\nsamples = 1\nvalue = [ 0.  0.  0.  0.  0.  0.  0.  0.  0.  1.  0.  0.  0.  0.  0.  0.  0.  0.
  0.  0.]", shape="box"] ;
783 -> 785 ;
786 [label="X[1513] <= 0.5000\ngini = 0.5\nsamples = 2", shape="box"] ;
780 -> 786 ;
787 [label="gini = 0.0000\nsamples = 1\nvalue = [ 0.  0.  0.  0.  0.  0.  0.  0.  0.  0.  0.  0.  0.  0.  0.  0.  0.  0.
  0.  1.]", shape="box"] ;
786 -> 787 ;
788 [label="gini = 0.0000\nsamples = 1\nvalue = [ 0.  0.  0.  0.  0.  0.  0.  0.  0.  0.  0.  0.  1.  0.  0.  0.  0.  0.
  0.  0.]", shape="box"] ;
786 -> 788 ;
789 [label="X[1386] <= 0.5000\ngini = 0.85\nsamples = 20", shape="box"] ;
779 -> 789 ;
790 [label="X[2106] <= 0.5000\ngini = 0.836565096953\nsamples = 19", shape="box"] ;
789 -> 790 ;
791 [label="X[2421] <= 0.5000\ngini = 0.820987654321\nsamples = 18", shape="box"] ;
790 -> 791 ;
792 [label="X[2583] <= 0.5000\ngini = 0.80276816609\nsamples = 17", shape="box"] ;
791 -> 792 ;
793 [label="X[793] <= 1.0000\ngini = 0.7890625\nsamples = 16", shape="box"] ;
792 -> 793 ;
794 [label="X[247] <= 0.5000\ngini = 0.782222222222\nsamples = 15", shape="box"] ;
793 -> 794 ;
795 [label="X[703] <= 0.5000\ngini = 0.765306122449\nsamples = 14", shape="box"] ;
794 -> 795 ;
796 [label="X[1094] <= 0.5000\ngini = 0.733727810651\nsamples = 13", shape="box"] ;
795 -> 796 ;
797 [label="X[944] <= 0.5000\ngini = 0.722222222222\nsamples = 12", shape="box"] ;
796 -> 797 ;
798 [label="X[183] <= 0.5000\ngini = 0.694214876033\nsamples = 11", shape="box"] ;
797 -> 798 ;
799 [label="X[2647] <= 0.5000\ngini = 0.68\nsamples = 10", shape="box"] ;
798 -> 799 ;
800 [label="X[2349] <= 0.5000\ngini = 0.775510204082\nsamples = 7", shape="box"] ;
799 -> 800 ;
801 [label="X[898] <= 0.5000\ngini = 0.5\nsamples = 2", shape="box"] ;
800 -> 801 ;
802 [label="gini = 0.0000\nsamples = 1\nvalue = [ 0.  0.  0.  0.  0.  0.  0.  0.  0.  0.  0.  0.  0.  1.  0.  0.  0.  0.
  0.  0.]", shape="box"] ;
801 -> 802 ;
803 [label="gini = 0.0000\nsamples = 1\nvalue = [ 0.  0.  0.  0.  1.  0.  0.  0.  0.  0.  0.  0.  0.  0.  0.  0.  0.  0.
  0.  0.]", shape="box"] ;
801 -> 803 ;
804 [label="X[2919] <= 0.5000\ngini = 0.64\nsamples = 5", shape="box"] ;
800 -> 804 ;
805 [label="X[462] <= 0.5000\ngini = 0.625\nsamples = 4", shape="box"] ;
804 -> 805 ;
806 [label="X[1283] <= 0.5000\ngini = 0.444444444444\nsamples = 3", shape="box"] ;
805 -> 806 ;
807 [label="X[898] <= 0.5000\ngini = 0.5\nsamples = 2", shape="box"] ;
806 -> 807 ;
808 [label="gini = 0.0000\nsamples = 1\nvalue = [ 0.  0.  0.  0.  0.  0.  0.  1.  0.  0.  0.  0.  0.  0.  0.  0.  0.  0.
  0.  0.]", shape="box"] ;
807 -> 808 ;
809 [label="gini = 0.0000\nsamples = 1\nvalue = [ 0.  0.  0.  1.  0.  0.  0.  0.  0.  0.  0.  0.  0.  0.  0.  0.  0.  0.
  0.  0.]", shape="box"] ;
807 -> 809 ;
810 [label="gini = 0.0000\nsamples = 1\nvalue = [ 0.  0.  0.  1.  0.  0.  0.  0.  0.  0.  0.  0.  0.  0.  0.  0.  0.  0.
  0.  0.]", shape="box"] ;
806 -> 810 ;
811 [label="gini = 0.0000\nsamples = 1\nvalue = [ 0.  0.  0.  0.  0.  0.  0.  0.  0.  0.  0.  1.  0.  0.  0.  0.  0.  0.
  0.  0.]", shape="box"] ;
805 -> 811 ;
812 [label="gini = 0.0000\nsamples = 1\nvalue = [ 0.  0.  0.  0.  0.  0.  0.  0.  0.  0.  0.  1.  0.  0.  0.  0.  0.  0.
